tree
version=v3
num_class=1
num_tree_per_iteration=1
label_index=0
max_feature_idx=63
objective=regression
feature_names=target target_4_week_logdyn target_13_week_logdyn target_26_week_logdyn KeyRate CPI VIX PPI MortgageRate30 Electricity Water Plywood Steel Glass Concrete Unemployment Yield10Y DJI S&P500 KeyRate_4_week_logdyn CPI_4_week_logdyn VIX_4_week_logdyn PPI_4_week_logdyn MortgageRate30_4_week_logdyn Electricity_4_week_logdyn Water_4_week_logdyn Plywood_4_week_logdyn Steel_4_week_logdyn Glass_4_week_logdyn Concrete_4_week_logdyn Unemployment_4_week_logdyn Yield10Y_4_week_logdyn DJI_4_week_logdyn S&P500_4_week_logdyn KeyRate_13_week_logdyn CPI_13_week_logdyn VIX_13_week_logdyn PPI_13_week_logdyn MortgageRate30_13_week_logdyn Electricity_13_week_logdyn Water_13_week_logdyn Plywood_13_week_logdyn Steel_13_week_logdyn Glass_13_week_logdyn Concrete_13_week_logdyn Unemployment_13_week_logdyn Yield10Y_13_week_logdyn DJI_13_week_logdyn S&P500_13_week_logdyn KeyRate_26_week_logdyn CPI_26_week_logdyn VIX_26_week_logdyn PPI_26_week_logdyn MortgageRate30_26_week_logdyn Electricity_26_week_logdyn Water_26_week_logdyn Plywood_26_week_logdyn Steel_26_week_logdyn Glass_26_week_logdyn Concrete_26_week_logdyn Unemployment_26_week_logdyn Yield10Y_26_week_logdyn DJI_26_week_logdyn S&P500_26_week_logdyn
feature_infos=[11.178477336459361:14.214425997075338] [-8.4953863516429653:6.7616289667706546] [-5.1484440453174747:5.0696115792062368] [-5.5071119764350334:4.508065313403959] [-0.82033616531091569:2.3907711830329363] [-1.8664804737405434:2.3251583446815838] [-1.2426316171607139:6.362582875651924] [-1.1898259341349733:2.8531393292879734] [-1.6082039823003136:3.0025362775778768] [-1.4345035333603164:2.9778108816120512] [-2.4520104311283442:1.6442979644601017] [-1.1473917129697329:3.7389783760149022] [-1.129974520621404:2.5842130401434291] [-1.7083530648256595:2.0150262779482766] [-1.6544386460994471:2.3341848964593481] [-0.92729407280353227:4.7043728319569862] [-2.1734398846281451:2.1605470868492453] [-1.9209748566795761:1.820042400312839] [-1.8026184164076979:2.1320959779097994] [-8.6371211416160207:3.8443431921053035] [-3.4901389837657066:3.4258649319249788] [-2.9005086283593848:5.4601333314142924] [-3.4488926776763256:3.2578995924536507] [-1.9943511101694025:4.4500422997416855] [-5.2193025523310626:5.007767821751651] [-5.0377664666562483:4.7163862229244096] [-5.3127849774391311:3.1873929261357015] [-2.3735887170033525:3.959124786270543] [-5.9159259830459741:4.155305345395079] [-1.9865029562070635:3.6550588900063099] [-1.7092694482164521:11.188054794315493] [-6.4987773214229723:2.6581986054963957] [-9.0245892644891761:4.8982854126234399] [-8.2434180579483698:4.6753093757868793] [-4.9562685829197273:3.1447919810248517] [-2.7966921698530944:2.5295048437883967] [-2.3702640424354233:4.6351660089944451] [-3.1086017250998981:3.5682959217993422] [-1.5631475213991415:3.7724055345145806] [-1.8225352780037547:3.1123708652684101] [-3.823238071916542:3.1582788898270513] [-4.9345447393000024:2.9176373339402923] [-2.081748214333567:3.0410840743932557] [-3.7571174411856627:2.6312545813603516] [-1.3311790277138944:2.7002455871236672] [-1.9667440503048235:6.579051950695094] [-4.4011622054047423:2.4580048316498777] [-6.0526449863355785:4.0685802935932243] [-5.1964939504722976:3.981787096012575] [-3.5248500660126183:3.0038988678842604] [-23.961848227839173:2.4919075240534885] [-2.6445798222451122:3.6359739134760232] [-6.525098881147783:3.567621910039946] [-1.90731620275403:3.7594571111847452] [-14.196666736171535:3.103786367898806] [-49.5377278712498:1.4373174109708688] [-3.2214065289566229:3.6968412750460327] [-3.0749989570719989:3.1106024609130629] [-23.961761757854902:2.7217531370408916] [-24.786627397243429:2.6491235185016122] [-2.4919544478626579:4.9045221794446574] [-3.0420909811751868:2.4711747992394724] [-13.732081811145543:3.6533720724995269] [-14.828267633441513:3.4480278491812459]
tree_sizes=7602 8474 8399 9027 8598 8837 8420 8680 9124 9035 8878 9433 9897 9277 8946 9627 9464 9818 9053 8264 9530 9115 9566 9263 9189 7691 7972 7643 10449 7900 5409 5876 7841 7026 8767 7953 6709 7156 7189 7165 8469 4535 7874 3314 9654 6259 10320 7252 9479 8204 6445 5728 6272 7810 6053 7335 7671 7785 9701 9011 10043 6090 7207 9772 5888 6685 8495 6314 8438 7245 7808 6746 8271 8459 8468 6995 9655 9070 9607 7788 9120 8687 6872 5891 8407 9745 7926 9001 9300 7783 7369 6711 8432 8968 6744 6237 7894 8347 9500 7035 7265 7486 5545 8393 7388 8274 9984 9798 10068 6698 8772 9158 7937 8941 7320 6650 8896 8713 8930 9181 8087 8519 8795 7434 8505 8974 9155 8945 10200 6537 7570 8523 8401 9291 6209 8871 7153 9429 6906 7488 5973 8327 9061 7551 8379 9014 7812 10250 8269 5823 8103 9338 8723 9250 9156 9140 8970 8309 9069 7429 7668 9968 10484 9759 9686 7995 6978 10015 9366 7255 7442 9027 8472 8186 6277 7924 6915 7735 7483 8985 9725 7333 10067 9846 4422 7301 8371 8975 10484 8013 10613 9767 8232 8760 9867 6890 7885 5480 8926 7145 9420 9326 7775 8252 8252 7632 9033 10288 8496 7375 9750 8703 8761 9405 9102 9863 8039 7967 6113 7796 9622 8673 9255 7834 9824 9139 8720 9193 8870 8551 10278 9103 8184 8245 8419 8446 9148 10005 6037 9913 10122 9481 8821 7161 7233 7223 9702 7664 8901 9609 7926 9068 7991 7953 7593 8392 10240 8996 8070 8546 7815 7008 7872 8608 9789 9536 8369 8238 6698 7185 9037 8470 6563 8766 6532 8108 7088 7174 7831 9757 7158 7079 9017 8626 9297 7781 8205 10026 9937 7970 7428 9035 8003 7202 9953 7974 7643 7428 9955 8946 7753 6156 8751 7530 9684 8509 9669 9697 8374 9124 8649 9049 8420 9613 7880 9061 8559 8650 8756 7947 8873 8605 10043 10146 7257 7340 9052 9507 9003 8531 9106 8318 8453 6829 7463 8738 7957 9340 8691 6689 9029 6678 6495 8206 9181 9374 8494 8792 7885 8857 8878 8841 9259 9733 7991 9134 7712 9597 8168 7456 9324 9510 6591 6865 8352 8451 9071 8566 7995 8592 9080 8556 7438 6446 9600 9166 9221 8231 9082 9385 8198 8951 9601 7626 8806 9455 9095 9507 9026 7807 8647 9174 9031 6415 9198 7531 6023 8104 8014 8140 9044 9297 9682 8396 7083 8788 8589 9582 7211 8929 8185 9101 7698 9449 8577 8841 8961 8174 8535 8585 8662 6744 8888 8425 8852 9705 9472 6868 8257 8016 7562 7727 7645 5734 7949 8194 8928 6992 8560 8553 8704 9386 8976 8865 7157 5736 6403 9459 7604 9422 8235 8321 8578 9473 7489 8462 8326 8970 8907 7884 8373 8742 8582 6508 8728 7581 8065 9242 9738 9380 7614 8360 6913 9512 8429 5261 7760 9594 7593 8944 8371 6877 7687 8895 8797 6826 8427 6820 9454 9005 8780 7277 9279 8468 9082 9262 7483 8147 7890 7991

Tree=0
num_leaves=89
num_cat=0
split_feature=0 0 0 0 0 0 0 0 0 0 0 0 0 0 0 0 0 0 0 0 0 0 0 0 0 0 0 0 8 0 44 0 57 60 3 43 3 0 4 60 3 8 0 4 3 3 4 43 43 8 3 60 60 5 41 26 0 3 37 3 52 43 59 3 12 0 3 0 12 3 3 3 9 54 10 2 26 37 46 9 14 59 3 0 46 8 0 0
split_gain=5233.15 1110.3 794.557 154.186 152.569 128.317 127.946 24.3064 23.0662 22.5334 20.9863 16.1872 15.9361 15.5773 8.20754 5.93861 5.78069 3.52826 3.11916 2.76335 2.61598 2.61286 2.55341 2.26614 1.86141 1.49144 1.47947 1.40688 1.07741 0.961055 0.913289 0.884956 0.727917 0.714433 0.675299 0.655273 0.613264 0.586194 0.57653 0.566939 0.544757 0.492612 0.488066 0.485442 0.46671 0.444096 0.431325 0.405486 0.393004 0.334815 0.329302 0.327553 0.318726 0.302439 0.291651 0.289421 0.264023 0.262386 0.245502 0.239262 0.238706 0.231627 0.220725 0.210199 0.198784 0.183764 0.180085 0.177826 0.170806 0.159658 0.137786 0.135294 0.129171 0.123415 0.112582 0.106236 0.106121 0.0979472 0.096906 0.0950418 0.0906687 0.0838305 0.0822063 0.0586719 0.0384575 0.0286019 0.0215167 0.00352677
threshold=12.550837084239141 12.075652579121344 13.184245156825233 12.840939556784896 11.823802968764847 13.682420270980076 12.300827534800129 11.924397495341365 13.362950359391656 12.429153914844838 11.638082975536085 12.683773541072222 12.180656934416055 12.975415713335567 13.986036283100498 11.737517365334474 13.524945271967759 11.989242994459017 12.759770873160162 11.554594977658661 13.091644777980367 12.379932397834871 12.487571251722313 12.241385468348607 11.877089019004435 12.617327210723301 12.126199683828796 13.263000482842962 -0.49258705386407564 13.86209538901007 -0.49442230910967239 11.700172455181471 -0.53746704872034334 -0.54893733402937162 -0.14022728358933467 -0.057824893300688109 0.48377413643239597 12.038258101126464 -0.71998906067517032 -0.54893733402937162 0.28921327706920785 0.69270010709259966 13.4672260300802 0.64261899174705628 2.2262354266996796 0.39100778247797813 1.0000000180025095e-35 -0.017015679471431362 -0.070727499799340995 0.20590168755877289 0.0081044384369727846 -0.66643294563310074 -0.85554054836175564 0.19022125450534091 -0.28602057120648378 -0.013101249266581485 11.786195732624602 0.85763491419349303 -0.56392925766754642 0.61416608570901021 -0.43238388289331381 -0.34375646150144884 -0.30242807284151102 -0.32231703800461936 -0.68616166028218495 12.588753690128224 -0.2819089936473535 12.721347810437278 -1.0090847688334847 -0.12038465949269812 0.28921327706920785 0.27109284548310941 -0.47118496123411063 -0.057802126593094437 0.55848580153775618 -0.73090309370233142 0.28704138215736497 -0.044898620375713204 0.12180152086395278 -0.47950458235042509 -0.71572442509595036 -0.039252707940140186 0.85763491419349303 12.88199522894876 -0.42236688881747741 1.0000000180025095e-35 13.323568833977797 12.097012544802537
decision_type=2 2 2 2 2 2 2 2 2 2 2 2 2 2 2 2 2 2 2 2 2 2 2 2 2 2 2 2 2 2 2 2 2 2 2 2 2 2 2 2 2 2 2 2 2 2 2 2 2 2 2 2 2 2 2 2 2 2 2 2 2 2 2 2 2 2 2 2 2 2 2 2 2 2 2 2 2 2 2 2 2 2 2 2 2 2 2 2
left_child=1 4 3 11 10 8 12 24 27 21 19 25 26 43 29 31 42 48 41 59 49 32 35 40 69 38 36 -4 84 -7 56 74 68 76 -26 71 53 57 65 -24 52 67 -10 60 -41 -39 64 -34 77 72 -48 -27 -14 -3 -35 -37 -17 -19 -30 -1 -5 78 -40 -21 -25 -2 -33 -13 -8 80 -50 -11 -15 -53 -12 -32 -23 -9 -28 -42 -6 -63 -22 -45 -20 -62 -29 -38
right_child=2 6 5 13 7 14 9 17 16 22 15 18 23 20 -16 30 -18 37 28 63 82 33 39 46 34 51 61 86 58 -31 75 66 47 54 -36 55 87 45 62 44 79 -43 -44 83 -46 -47 50 -49 70 -51 -52 73 -54 -55 -56 -57 -58 -59 -60 -61 85 81 -64 -65 -66 -67 -68 -69 -70 -71 -72 -73 -74 -75 -76 -77 -78 -79 -80 -81 -82 -83 -84 -85 -86 -87 -88 -89
leaf_value=12.226566319662748 12.451171500989053 12.352638156376003 12.57410028393879 12.52791440904933 12.297946048972454 12.685291321119879 12.401982391355192 12.323462080325456 12.611090420057188 12.419802259409469 12.261324206449338 12.473873121395568 12.391797876193939 12.530741615913067 12.746397368291399 12.274707994586272 12.649560607350333 12.334822802570503 12.494359475974273 12.256984091430835 12.55634298819553 12.414370684954175 12.442455190961764 12.385191044390771 12.3170071068512 12.469222620116037 12.356758409821207 12.588242878224774 12.470412143596276 12.714241044333953 12.296441544444654 12.277561532897371 12.398263962851892 12.401972872890843 12.305220386367795 12.42069587877101 12.341253888048376 12.344875909967538 12.450511815487765 12.432476880212411 12.377642064605356 12.465653162636128 12.626846599257656 12.495070388743533 12.391812885906626 12.334361773349073 12.386987387039699 12.405030664287823 12.331768201525797 12.530426669302111 12.378557737791157 12.461324635284077 12.376344854049245 12.363454674649343 12.409701787405595 12.431032349675977 12.284972438107651 12.323984261426958 12.488775278305246 12.201228655285979 12.515791188625016 12.368719688137952 12.441231344374367 12.240739594542436 12.394296512550575 12.462443622728735 12.267050175438841 12.484148283191624 12.389955997519294 12.294851009382358 12.319457464132496 12.413504490101857 12.543223404620598 12.453042702876926 12.291735826683883 12.287058785652928 12.423950148837891 12.316497872799049 12.365167157551525 12.36748530044815 12.306343095821582 12.361818946840422 12.544603905999367 12.50835386221741 12.508446252495569 12.507396167859953 12.601932895288213 12.348270751222595
leaf_weight=296 261 503 444 105 361 224 63 493 454 405 881 332 71 135 224 497 340 967 70 200 519 109 305 168 490 194 415 341 57 112 207 378 1040 257 511 210 188 553 223 936 76 254 223 98 9.9999999999999982 334 472 522 346 380 378 349 518 190 736 315 332 163 367 44 550 314 387 134 311 140 289 201 405 551 100 275 489 226 18 643 135 412 146 463 328 245 146 154 171 197 118 226
leaf_count=296 261 503 444 105 361 224 63 493 454 405 881 332 71 135 224 497 340 967 70 200 519 109 305 168 490 194 415 341 57 112 207 378 1040 257 511 210 188 553 223 936 76 254 223 98 10 334 472 522 346 380 378 349 518 190 736 315 332 163 367 44 550 314 387 134 311 140 289 201 405 551 100 275 489 226 18 643 135 412 146 463 328 245 146 154 171 197 118 226
internal_value=12.4042 12.3485 12.5361 12.4967 12.2992 12.6313 12.3937 12.3204 12.6067 12.4137 12.2689 12.467 12.3692 12.5313 12.7157 12.2756 12.6275 12.3311 12.4827 12.2366 12.5436 12.4029 12.4282 12.3803 12.3042 12.4541 12.3569 12.5832 12.493 12.6951 12.2841 12.2666 12.3984 12.4101 12.3109 12.4216 12.3516 12.3366 12.4489 12.4346 12.3737 12.4739 12.6163 12.5127 12.432 12.3409 12.386 12.4006 12.3231 12.5368 12.3832 12.461 12.3781 12.3555 12.4077 12.427 12.2788 12.3332 12.4864 12.2232 12.5154 12.3622 12.4447 12.2503 12.391 12.4552 12.2729 12.4778 12.3915 12.2987 12.3289 12.4173 12.5406 12.4581 12.2619 12.2893 12.4198 12.3202 12.3589 12.3688 12.3019 12.3656 12.5538 12.5034 12.5045 12.5136 12.5919 12.345
internal_weight=0 19935 8485 6005 9528 2480 10407 5609 1920 5723 3919 3232 4684 2773 560 3245 1017 3368 1452 674 1669 3267 2456 2457 2241 1780 2227 903 665 336 1679 1566 2030 1237 1001 1205 1107 2017 1011 1251 1128 787 677 1104 946 887 1329 1562 1351 1004 850 769 589 693 993 525 829 1130 424 340 852 1120 610 334 479 401 667 533 468 1240 446 680 624 575 899 850 244 905 561 539 689 559 665 252 241 747 459 414
internal_count=28420 19935 8485 6005 9528 2480 10407 5609 1920 5723 3919 3232 4684 2773 560 3245 1017 3368 1452 674 1669 3267 2456 2457 2241 1780 2227 903 665 336 1679 1566 2030 1237 1001 1205 1107 2017 1011 1251 1128 787 677 1104 946 887 1329 1562 1351 1004 850 769 589 693 993 525 829 1130 424 340 852 1120 610 334 479 401 667 533 468 1240 446 680 624 575 899 850 244 905 561 539 689 559 665 252 241 747 459 414
is_linear=0
shrinkage=1


Tree=1
num_leaves=95
num_cat=0
split_feature=0 0 0 0 0 0 0 0 0 0 0 0 0 0 0 0 0 0 0 0 0 0 0 0 0 0 0 4 0 0 4 60 0 4 16 3 0 5 3 10 3 60 4 3 29 3 0 3 3 15 16 13 29 0 60 4 24 0 57 10 2 49 5 49 0 13 44 5 0 3 60 12 53 60 0 5 49 26 3 43 3 0 9 18 54 45 52 0 16 3 10 60 16 11
split_gain=3352.48 687.23 530.817 101.135 95.1415 86.8141 79.4913 15.7342 14.5766 13.9879 13.8137 12.9299 9.24571 8.81953 6.32778 4.60788 2.67511 2.20954 1.8638 1.4291 1.26148 1.23518 1.11553 0.993657 0.938459 0.885537 0.797101 0.776009 0.720132 0.684976 0.595655 0.562696 0.55702 0.487534 0.477038 0.458085 0.456191 0.614165 0.421141 0.425153 0.387697 0.378449 0.373864 0.365937 0.362998 0.346789 0.339097 0.280943 0.278119 0.276815 0.2672 0.248957 0.240941 0.23455 0.227769 0.221609 0.220039 0.218769 0.218046 0.215905 0.204988 0.197777 0.191666 0.183774 0.238822 0.176957 0.165498 0.160853 0.146 0.136008 0.135381 0.130238 0.125239 0.112032 0.107163 0.105739 0.100917 0.100524 0.0958439 0.0850215 0.0847732 0.12493 0.0819404 0.0796526 0.0766258 0.0574393 0.0487376 0.0479945 0.0322997 0.0320916 0.0307695 0.029789 0.0129972 0.00873214
threshold=12.537811769736161 12.070791236584784 13.164401539777591 12.783839711990991 11.81874278138519 13.622568144293171 12.28746508037309 11.918153278149967 12.957370291005528 12.42409995081975 13.323568833977797 11.59999610830431 13.86209538901007 12.174681196499668 12.65274668042969 11.708983902876891 13.492989079886973 11.982822401022693 12.374953762067564 13.066704776320877 12.867399703066503 12.478102241062146 12.225014677670719 11.877089019004435 12.107390391665204 13.218978450917962 12.747790342366519 -0.76224047315337884 11.786195732624602 13.986036283100498 0.85915748069787534 -0.54893733402937162 13.682420270980076 0.0088478045739275538 -0.10996519597887809 1.692150824615456 11.469390399460428 -0.59643734629944711 -0.56095115939705875 -0.6838870548587902 0.58173927505997092 -0.6345952661110642 -0.77280332627293113 0.15710142195888557 -0.37484038558829985 0.42004908876220731 12.575268746523131 -0.020038747110436388 0.54732727002347981 -0.74227321923976552 -1.0554368760623212 -0.72007301695078818 -0.58100081222019961 12.251891160522986 -0.81928847606856203 0.0088478045739275538 -0.010481890279866143 12.042847142936159 -0.53746704872034334 0.24416867664111427 0.094940268441339862 0.87929197320195607 -1.1166996389977033 0.59275541451616409 12.69677258956939 -0.6785979045153282 -0.54281206433621121 -1.3718152597290851 12.588753690128224 0.98806751631641287 0.044605077902897354 -0.46782007494016714 -0.053889491574340351 -0.87170529147503173 12.151475424432141 -1.0320717007631082 -0.48725329143028256 0.28704138215736497 -0.56095115939705875 1.0000000180025095e-35 -0.19438837270804224 13.405905736113899 -0.39997346529057648 -0.88073394983583919 0.086787372310262512 -0.55539790674328404 -0.062080254795173352 12.617327210723301 -0.12376770225746851 -1.86630391458667 0.54579761670485161 -0.85554054836175564 1.0000000180025095e-35 -0.68555195869374685
decision_type=2 2 2 2 2 2 2 2 2 2 2 2 2 2 2 2 2 2 2 2 2 2 2 2 2 2 2 2 2 2 2 2 2 2 2 2 2 2 2 2 2 2 2 2 2 2 2 2 2 2 2 2 2 2 2 2 2 2 2 2 2 2 2 2 2 2 2 2 2 2 2 2 2 2 2 2 2 2 2 2 2 2 2 2 2 2 2 2 2 2 2 2 2 2
left_child=1 4 3 14 11 10 13 23 20 18 25 36 32 24 27 66 80 40 30 61 34 42 45 75 48 -4 63 46 44 -14 50 77 -7 51 71 -35 37 72 39 -19 52 85 67 89 -17 73 83 -21 79 -28 -8 -23 -9 -43 -22 -18 68 -40 -33 -30 65 82 -38 64 -16 -26 -13 -11 -29 -44 -32 -5 -1 -15 -62 -6 -48 -20 -77 -3 -12 -82 -10 -2 -36 -24 -47 -58 -51 -25 -68 -27 -49 -50
right_child=2 6 5 8 7 12 9 17 19 21 16 15 29 22 26 28 55 38 31 47 54 33 41 43 60 91 49 56 59 -31 70 58 -34 35 84 -37 62 -39 57 -41 -42 53 69 -45 -46 86 76 92 93 88 -52 -53 -54 -55 -56 -57 87 -59 -60 -61 74 -63 -64 -65 -66 -67 90 -69 -70 -71 -72 -73 -74 -75 -76 78 -78 -79 -80 -81 81 -83 -84 -85 -86 -87 -88 -89 -90 -91 -92 -93 -94 -95
leaf_value=-0.15697117538731128 0.011174950887830118 -0.043986031656191985 0.12982406613807571 0.075170533662419395 -0.090361842056347494 0.20176071515063618 0.00017141108022083697 -0.068941530958443506 0.10047189245757158 0 0.17214779091468893 -0.11875091901462348 0.24801692035213377 -0.011593071275222621 0.049911657465338488 -0.10477948721473025 0.19340765867781418 -0.05737021119446855 0.0071641420933202058 0.1226819835493746 0.098106270092985809 0.017851858741288498 -0.012081355285970508 -0.056203422894435896 -0.041402586792106691 0.15653442019573355 0.0552234359372102 0.032346020283056942 -0.094527509046287914 0.27374196665759937 -0.01402167138806432 -0.0037433472514721549 0.22485713392291445 0.017797212684496872 0.071766358421038831 -0.014392376581918991 -0.14581617403168126 -0.12320427843090878 -0.05947051670165035 -0.045611283639073186 -0.07276880734636651 -0.022151662934084288 0.011335176535196534 -0.081223181549751444 -0.09669332719002989 -0.025869623986267576 0.038251956416930959 0.11775825246285117 -0.035968428582960323 0.074300473963235775 -0.0054361261744722677 0.027181133815170677 -0.060808406647528651 -0.015889468949835586 0.085615821516191959 0.17259890222390281 0.02841927323260704 -0.05293327907528253 0.0033128351322652054 -0.080292388532312034 -0.040873451507672458 0.092560638620359348 -0.13025240308556835 0.046486221387060461 0.058480812666766961 -0.031464289925692952 -0.11206839108001457 0.019734913530242676 0.039965103634772917 0.0034148549034714809 -0.0060843191090752787 0.086971329402472028 -0.1939027683583795 -0.023787107253987003 -0.033772016202891032 -0.07879893966180633 0.049166513207129864 0.016291654893953383 -0.08540093823360681 -0.03623565679181933 0.15489436885957861 0.16822813804252862 0.10851460452073647 0.036567078978369548 0.060192317304704694 -0.0036216887761564964 -0.033429123189370649 0.036180741996171523 0.062007300766224988 -0.072148676728078953 -0.090370555095915045 0.14273475566533475 0.10843743522785712 -0.051189501497911766
leaf_weight=70 9.9999999999999982 304 334 178 270 114 440 332 318 18 267 522 112 47 363 882 267 248 108 301 125 179 75 30 117 81 116 283 561 224 363 222 224 434 232 17 123 29 878 400 316 463 663 355 583 113 85 182 21 132 1309 609 701 697 657 72 389 493 770 94 448 119 215 240 406 660 683 298 332 118 141 165 17 483 222 377 306 138 710 181 201 214 446 189 91 90 268 90 73 506 23 482 298 268
leaf_count=70 10 304 334 178 270 114 440 332 318 18 267 522 112 47 363 882 267 248 108 301 125 179 75 30 117 81 116 283 561 224 363 222 224 434 232 17 123 29 878 400 316 463 663 355 583 113 85 182 21 132 1309 609 701 697 657 72 389 493 770 94 448 119 215 240 406 660 683 298 332 118 141 165 17 483 222 377 306 138 710 181 201 214 446 189 91 90 268 90 73 506 23 482 298 268
internal_value=0 -0.0454676 0.10349 0.0713769 -0.0845008 0.179369 -0.00971729 -0.0679414 0.0966784 0.00565499 0.157609 -0.10895 0.24123 -0.029824 0.045239 -0.104607 0.173684 -0.0592467 -0.0023503 0.109521 0.0818911 0.0176361 -0.0209168 -0.0809496 -0.0387727 0.139266 0.0556131 0.0370211 -0.0988159 0.26529 -0.00578328 0.00386376 0.21719 0.0220094 0.0750487 0.0164918 -0.140887 -0.154657 -0.0549322 -0.0501757 -0.0656733 -0.0171228 0.012659 -0.0753205 -0.10159 -0.0263895 0.0431251 0.116206 -0.0446111 0.0648695 -0.0040017 0.0251146 -0.0634625 -0.0184247 0.0876654 0.189111 0.0336912 -0.05715 0.0016919 -0.092548 -0.0356211 0.103562 -0.136039 0.0526272 0.0544898 -0.0330142 -0.11457 0.0186258 0.0365266 0.0101916 -0.0118834 0.0809683 -0.164665 -0.022784 -0.0385824 -0.084615 0.0468999 0.0124531 -0.0831494 -0.0411792 0.165955 0.16187 0.105221 0.0354996 0.068634 -0.00771848 -0.031296 0.0299642 0.0701253 -0.0713336 -0.11142 0.144794 0.112058 -0.0502271
internal_weight=0 19702 8718 6126 9418 2592 10284 5616 3112 5827 1918 3802 674 4457 3014 3348 1021 3368 3491 1664 1448 2336 2236 2248 2221 897 1330 1684 2120 336 2253 1238 338 1239 666 451 454 116 2019 648 1349 1325 1097 891 1465 911 590 781 774 321 1749 788 1033 1160 782 339 1094 1371 992 655 1447 883 338 1009 769 777 1228 316 615 781 504 343 87 530 670 1357 391 246 1087 485 682 415 764 199 323 165 381 479 205 536 706 563 480 289
internal_count=28420 19702 8718 6126 9418 2592 10284 5616 3112 5827 1918 3802 674 4457 3014 3348 1021 3368 3491 1664 1448 2336 2236 2248 2221 897 1330 1684 2120 336 2253 1238 338 1239 666 451 454 116 2019 648 1349 1325 1097 891 1465 911 590 781 774 321 1749 788 1033 1160 782 339 1094 1371 992 655 1447 883 338 1009 769 777 1228 316 615 781 504 343 87 530 670 1357 391 246 1087 485 682 415 764 199 323 165 381 479 205 536 706 563 480 289
is_linear=0
shrinkage=0.2


Tree=2
num_leaves=93
num_cat=0
split_feature=0 0 0 0 0 0 0 0 0 0 0 0 0 0 0 0 0 0 0 0 0 0 0 0 0 0 0 60 16 3 4 3 13 0 3 4 4 3 60 0 3 16 10 3 10 60 3 0 13 40 0 7 2 3 3 3 10 3 10 61 8 0 29 45 8 3 9 3 49 3 12 54 8 4 8 4 60 0 45 54 55 3 58 20 0 60 45 5 18 5 9 4
split_gain=2130.39 426.113 347.956 71.0287 59.8093 54.9269 50.5933 12.1163 9.30753 9.07111 7.94416 6.58319 5.68034 4.6613 4.34324 2.64242 2.13948 1.38131 0.979565 0.977676 0.794232 0.771636 0.766481 0.718519 0.594999 0.592015 0.59118 0.518786 0.517555 0.499835 0.490647 0.411147 0.404065 0.394013 0.36841 0.33882 0.326309 0.324851 0.316665 0.311855 0.30677 0.301375 0.301276 0.288337 0.28257 0.275373 0.271741 0.259973 0.254202 0.248311 0.22881 0.282403 0.207592 0.205363 0.201955 0.194594 0.220185 0.18612 0.286862 0.180856 0.173979 0.167589 0.152371 0.146326 0.138935 0.137091 0.135375 0.131032 0.127571 0.125602 0.124595 0.123002 0.116372 0.107775 0.100172 0.100127 0.0870249 0.0843142 0.0799321 0.115038 0.0719993 0.0718436 0.0717892 0.0642122 0.0593842 0.0515028 0.0458965 0.0376968 0.0270169 0.0141793 0.0112178 0.00512192
threshold=12.525046350382626 12.066115882738176 13.164401539777591 12.783839711990991 11.853435040545362 13.578831203270171 12.266707902581294 11.684593178263778 12.957370291005528 12.394430633850465 13.86209538901007 13.323568833977797 11.941693830708999 12.644913646292791 12.151475424432141 11.554594977658661 11.786195732624602 12.455170645801529 12.341007237555681 13.104930907373442 13.4672260300802 13.682420270980076 12.867399703066503 12.212945945063128 13.245904912128003 12.713144778753046 11.995187248560322 -0.54893733402937162 0.5387525991148715 -0.40273739213589838 -0.77280332627293113 -0.55176763396974005 -1.3717464229417413 12.107390391665204 0.98806751631641287 0.85915748069787534 0.85915748069787534 -0.42590712714318968 -0.6345952661110642 13.986036283100498 1.4836864696223344 -0.10996519597887809 -1.5121176585913811 1.5215159823379449 -0.70423616061703409 -0.58292609294527986 -0.15628755519498524 11.907610846675913 -1.3717464229417413 -0.14161894772049879 12.588753690128224 -0.76629653058610447 0.14940868092219983 0.16691038221699525 0.42004908876220731 -0.03819251519660203 0.51653377205946405 -0.32231703800461936 -0.70423616061703409 0.70028075937526924 0.67930198545405462 12.567437178634419 -0.37484038558829985 -0.71118117750917031 0.089784633358043417 0.61416608570901021 -0.19530145805082003 -0.57366070372109979 0.3766766944149576 0.023884934487388505 -1.0090847688334847 2.5234182671963468 -0.67926754869447881 -0.52985770452323167 -0.67926754869447881 1.0651331165291424 0.044605077902897354 11.89899634732665 -0.19335862551283828 0.066341074983656448 -0.10959638177985612 2.4961012035585228 0.12019984460426532 -1.6133380526251653 11.715328204373735 -0.85554054836175564 -0.8175973716697208 -1.3047982451684963 1.6993869039779252 -1.0389120958977511 -0.48595634165250295 -0.2235349640562195
decision_type=2 2 2 2 2 2 2 2 2 2 2 2 2 2 2 2 2 2 2 2 2 2 2 2 2 2 2 2 2 2 2 2 2 2 2 2 2 2 2 2 2 2 2 2 2 2 2 2 2 2 2 2 2 2 2 2 2 2 2 2 2 2 2 2 2 2 2 2 2 2 2 2 2 2 2 2 2 2 2 2 2 2 2 2 2 2 2 2 2 2 2 2
left_child=1 4 3 13 7 11 14 15 22 18 21 24 29 30 33 65 31 38 35 34 -13 -7 41 46 -4 78 57 82 74 48 61 32 -9 59 64 53 42 -17 63 -12 -38 80 -19 44 -28 86 62 -31 -6 -29 51 -32 -40 -8 -47 56 -18 58 -14 83 87 -2 -16 -11 -10 91 72 -68 -52 -43 -49 -23 -35 -22 -27 -48 -37 -50 -15 -80 -5 -39 -20 -3 -33 -63 -25 -24 -61 -59 -45 -1
right_child=2 6 5 8 12 10 9 16 19 17 39 20 26 25 23 37 55 36 27 -21 73 71 60 45 -26 28 43 49 -30 47 50 84 -34 66 -36 76 40 81 52 -41 -42 69 -44 90 -46 54 75 70 77 -51 68 -53 -54 -55 -56 -57 -58 89 -60 88 -62 85 -64 -65 -66 -67 67 -69 -70 -71 -72 -73 -74 -75 -76 -77 -78 -79 79 -81 -82 -83 -84 -85 -86 -87 -88 -89 -90 -91 -92 -93
leaf_value=-0.11518553710693361 0.02789349080534434 -0.026422254232338894 0.10544530185991119 0.05998485370197109 -0.067562016591012214 0.15990916561146307 -0.0036844591408271444 -0.085900994194556379 0.089904012052405988 0.0079720859231229742 0.19802762227941598 0.13098511964154855 -0.053436344464621033 0.043566020905831032 -0.025075204915102723 -0.091154851026791828 -0.070207865123770447 0.0022749870912857949 0.0027813140047453873 0.09647109781344787 0.15206121030437414 0.1838614873138715 0.046362828683286755 -0.013494918559674524 0.11756644858249699 0.058381654440925683 -0.047421936639165933 0.00015736820566776902 0.039784708945234559 -0.065782759821614564 0 -0.090352388340075265 -0.074099577134477707 -0.010186613892669375 0.076873325662603298 -0.013646011899129871 0.010963875719397866 -0.099091551241015166 0.0074544361511426644 0.21837981335698045 -0.019263483800147811 0.060839958464046065 0.017803685396959975 -0.040393455608178606 -0.040888067713669152 -0.014706768713132269 -0.024295783200729337 -0.044794964730704684 -0.056997734854479454 -0.0058386078307065097 0.032239703790660948 0.024274198625813086 0.0020311136712824465 -0.009172978894295537 -0.021138041951183534 -0.075458671846540273 -0.05467686676217072 -0.0614586324790036 -0.041794100587218795 -0.029671532336521558 0.062320360325491313 0.041732531735949811 -0.014967302434345464 0.017872057694930742 0.082456091386712005 -0.13268322972799171 -0.021764052970978116 -0.029682185839387244 0.024663085282228769 0.049858002898629239 -0.059943560719217574 0.15852760434890292 -0.033509135602665226 0.13778729559327418 0.049303437145504544 -0.03177689940425573 -0.0075257848300046811 -0.049540840182370476 0.039951039479657398 0.03138178131434069 0.069692880360314596 -0.12283030280585559 0.010774228054070767 -0.038127074547965642 -0.083495542691688435 0.033578968066784759 -0.0046814821761508134 0.072725580012690222 -0.01203862925112496 -0.051923021506726078 -0.059021835448824167 -0.097766627076492835
leaf_weight=260 166 44 449 174 88 226 774 241 549 156 108 554 184 276 109 617 832 59 88 444 172 188 10.999999999999998 45 451 161 514 639 222 810 20 273 499 13.999999999999998 286 387 352 375 644 221 12.999999999999998 144 1036 18 1081 578 643 48 305 470 361 730 549 460 382 554 65 60 293 142 162 137 235 128 396 46 175 378 207 177 397 37 439 151 276 132 172 261 362 148 177 21 148 715 764 178 106 598 11.999999999999998 590 78 36
leaf_count=260 166 44 449 174 88 226 774 241 549 156 108 554 184 276 109 617 832 59 88 444 172 188 11 45 451 161 514 639 222 810 20 273 499 14 286 387 352 375 644 221 13 144 1036 18 1081 578 643 48 305 470 361 730 549 460 382 554 65 60 293 142 162 137 235 128 396 46 175 378 207 177 397 37 439 151 276 132 172 261 362 148 177 21 148 715 764 178 106 598 12 590 78 36
internal_value=0 -0.0369642 0.0810055 0.0559508 -0.0679199 0.143327 -0.00877169 -0.0842148 0.0775171 0.00284908 0.187674 0.123838 -0.0521127 0.0352094 -0.0257969 -0.100192 -0.0774952 0.0108417 -0.0046184 0.0877333 0.136384 0.169964 0.0656297 -0.0197473 0.111565 0.0437217 -0.0463436 -0.000505398 0.0484407 -0.0606072 0.028349 -0.0823068 -0.0779991 -0.0328053 0.0845481 -0.00768057 0.0152255 -0.0948315 0.00648036 0.211825 0.0097736 0.060243 0.0170049 -0.0437789 -0.0430197 -0.0160245 -0.0234064 -0.063199 -0.0555702 -0.00234634 0.0262144 0.0236318 0.00499349 -0.00576405 -0.0173091 -0.0715741 -0.0691287 -0.0501549 -0.046372 -0.0360413 0.0702708 0.0341117 -0.0182907 0.0125802 0.0868269 -0.115948 -0.0298272 -0.0272515 0.0295516 0.0549138 -0.0584028 0.17988 -0.03288 0.145517 0.052743 -0.0256235 -0.0118371 -0.0536324 0.0397125 0.0375456 0.0649986 -0.100455 0.00796965 -0.0375032 -0.0853407 0.0372569 -0.00758281 0.0723175 -0.028567 -0.0528671 -0.0559613 -0.113207
internal_weight=0 19534 8919 6362 9310 2557 10224 4583 3118 6075 780 1777 4727 3244 4149 1355 3228 2937 3138 1675 877 451 1443 2230 900 1445 2818 1345 659 1909 1799 1777 740 1919 1231 1793 1460 1013 1477 329 365 672 1095 1691 1595 1111 1119 1255 654 1109 1318 750 1193 1234 960 1451 897 1127 477 913 771 481 344 284 945 342 1006 553 568 321 445 225 453 323 437 775 559 566 786 510 351 396 236 759 1037 315 151 609 154 650 96 296
internal_count=28453 19534 8919 6362 9310 2557 10224 4583 3118 6075 780 1777 4727 3244 4149 1355 3228 2937 3138 1675 877 451 1443 2230 900 1445 2818 1345 659 1909 1799 1777 740 1919 1231 1793 1460 1013 1477 329 365 672 1095 1691 1595 1111 1119 1255 654 1109 1318 750 1193 1234 960 1451 897 1127 477 913 771 481 344 284 945 342 1006 553 568 321 445 225 453 323 437 775 559 566 786 510 351 396 236 759 1037 315 151 609 154 650 96 296
is_linear=0
shrinkage=0.2


Tree=3
num_leaves=100
num_cat=0
split_feature=0 0 0 0 0 0 0 0 0 0 0 0 0 0 0 0 0 0 0 0 0 0 0 0 49 0 0 3 60 57 0 44 3 14 34 0 43 43 16 2 3 34 9 26 3 0 16 3 3 0 12 10 4 44 8 60 53 7 3 59 41 29 53 13 3 3 0 13 3 52 58 3 3 5 53 0 20 54 43 2 29 0 56 51 8 29 5 12 60 4 13 2 10 44 3 13 13 3 10
split_gain=1365.11 268.095 227.013 42.0185 39.7985 38.5922 31.3865 6.97265 6.49221 5.52598 5.37597 5.08591 4.5895 3.05525 2.76061 0.87463 0.851713 0.840996 0.73858 0.723305 0.576488 0.552979 0.491564 0.441262 0.425723 0.417458 0.396684 0.383833 0.37657 0.36918 0.364661 0.289715 0.276783 0.385318 0.268152 0.262937 0.255878 0.249335 0.246495 0.238714 0.226653 0.221911 0.21744 0.204622 0.216345 0.194591 0.190054 0.186104 0.185418 0.183768 0.180251 0.173664 0.171006 0.140564 0.139515 0.134466 0.133969 0.133486 0.133412 0.123541 0.169912 0.157354 0.110333 0.106127 0.105442 0.104536 0.103641 0.103462 0.100489 0.100243 0.0968722 0.118327 0.09595 0.0764877 0.0757631 0.0703949 0.0703241 0.0672154 0.0650082 0.0642316 0.0615161 0.0566298 0.056214 0.0523643 0.0515733 0.0507273 0.047545 0.046954 0.0466614 0.045575 0.0376868 0.0369589 0.0303943 0.0294193 0.0283834 0.0273425 0.0142422 0.0126543 0.00937073
threshold=12.519547474271663 12.066115882738176 13.116983872229396 13.524945271967759 12.77219632535974 11.807240029778237 12.271942147641377 11.912559002414522 13.799880034966142 13.278165338860072 11.648815176173599 12.394430633850465 12.940678600651351 12.166599272358768 12.617327210723301 13.986036283100498 11.982822401022693 11.737517365334474 12.461258417692846 11.507439151243998 12.336508298134786 13.405905736113899 12.683773541072222 12.867399703066503 1.9893140191389336 12.112308491747006 13.218978450917962 0.58173927505997092 -0.54893733402937162 -0.71146796087841901 11.857499117416742 -0.33885376910401205 0.58173927505997092 -0.70722377885141652 -0.087491172671022965 13.056392663138412 -0.070727499799340995 -0.057824893300688109 0.014257360528435762 -0.20393920063118623 0.061598783563235206 0.34548414854133375 -0.55253076144523328 0.49962235248632636 0.22514310178775296 12.23108910811438 0.8475836770983326 1.7463963720250708 0.24247166010906315 13.682420270980076 -0.86486107026715009 -0.65749532956023604 0.85915748069787534 -0.65517214554558967 -0.57118936747687676 -0.58292609294527986 0.2130321841714633 -0.87425720962489362 0.21411421094197811 -0.10936582236306121 0.50214963102042931 -0.34146141991440576 -0.52028532154313434 1.5892892428406389 -0.69220728653743901 -0.83354423787604015 12.225014677670719 -1.3810795512829221 -0.39313365975201564 -0.5811512441101826 -0.34888704586682379 2.2262354266996796 0.54732727002347981 -0.89064344999967437 0.91167546848983483 12.567437178634419 -1.3903106257299329 -0.057802126593094437 1.0684485286684187 -0.42621120092379766 -0.48441555317445306 11.626070024758652 -0.62899390819000789 1.2587008281408658 -0.37111075100792801 -0.41593175568177027 -0.068317917552537896 -0.8302072312815395 -0.80035519756913953 1.0000000180025095e-35 0.19536769508944313 1.5313136298217576 0.51653377205946405 -0.63395523376058793 -0.12038465949269812 -0.6988810847480269 -0.6988810847480269 -0.31151875805956358 -1.6581665381580757
decision_type=2 2 2 2 2 2 2 2 2 2 2 2 2 2 2 2 2 2 2 2 2 2 2 2 2 2 2 2 2 2 2 2 2 2 2 2 2 2 2 2 2 2 2 2 2 2 2 2 2 2 2 2 2 2 2 2 2 2 2 2 2 2 2 2 2 2 2 2 2 2 2 2 2 2 2 2 2 2 2 2 2 2 2 2 2 2 2 2 2 2 2 2 2 2 2 2 2 2 2
left_child=1 5 4 9 14 10 13 30 47 26 19 20 23 25 34 -10 36 65 37 29 52 94 55 38 35 48 56 45 78 42 67 86 33 -18 62 64 69 57 85 93 -30 -39 -1 44 -20 68 88 49 63 -5 -34 -38 58 81 -47 79 -4 -13 -8 61 -61 -27 90 -3 -14 96 76 -7 -15 -9 71 -36 -40 -50 -33 -64 -29 -57 -22 -16 -72 -21 -54 -41 -25 -6 -19 -68 -24 -28 -2 -45 -69 -32 -11 -55 -12 -37 -67
right_child=2 6 3 8 12 7 11 16 15 21 17 18 24 27 22 -17 32 31 43 53 28 -23 46 84 -26 59 89 66 40 -31 39 74 50 -35 70 97 51 41 72 83 -42 -43 -44 91 -46 54 -48 -49 73 -51 -52 -53 82 95 -56 77 -58 -59 -60 60 -62 -63 75 -65 -66 98 87 92 -70 -71 80 -73 -74 -75 -76 -77 -78 -79 -80 -81 -82 -83 -84 -85 -86 -87 -88 -89 -90 -91 -92 -93 -94 -95 -96 -97 -98 -99 -100
leaf_value=-0.095730387634617664 0.016526465949107835 -0.026233887067131242 0.083823374180348686 0.12718184381256689 0.046509612405021328 -0.063269809633158106 -0.0029352124689177128 -0.029872192411774964 0.15377555198131065 0.10450496492274391 -0.068482625430072358 -0.003763074628424859 0.072697626644893612 -0.011048136102301721 0.025423164681978857 0.17470386062445309 -0.038457766475352914 -0.066940198603082077 0.013319665924121774 -0.093143736063311416 0.0024385579733015254 0.11128131894647152 0.045736785759563275 0.059009504727102605 0.054433461593327563 -0.023213837561734355 0.095314425213058218 -0.0020397961168048696 0.00042267490107175763 -0.089979935617244822 -0.050018757203234503 -0.06008244332095336 -0.026740253691534235 -0.03104748901267811 0.016543696778203814 0.078381175859038241 -0.044102849940715831 0.0098891737994851667 0.046337281299194261 -0.053890474486278039 -0.0050166495376027416 0 -0.13108522998514655 0.017493310022930236 0.0068553776139402296 -0.0029481542199241203 0.031004093223347063 0.10757604607426133 -0.013694680535994909 0.14302324773072858 -0.041544582286092722 -0.034454065602572546 -0.0068875702435863455 -0.080496904784574733 -0.011217218580609818 0.029284789798833595 0.075215519066638772 0.0040019336492210294 -0.0077635265294936423 -0.027616870704311788 -0.016788348020392599 -0.016316119557588531 0.023175411734031884 -0.0092285848318909864 0.06412580454831425 -0.077379527777078752 -0.00708880630515477 -0.055233026685571424 -0.016696538325858986 -0.044757621685590755 0.015052280218104197 -0.0021108399308112694 0.036578056992473927 -0.032316212816132062 -0.049694679378872335 0.029938561650817958 -0.021917776688400128 0.023221735430591105 0.0095163921651989121 0.03679434598906816 0.022744879281988827 -0.079375160985181381 -0.011848116970223836 -0.044664366918514824 0.052648335678567776 0.054308817646928347 -0.05737638087383648 -0.01659760597174861 0.037390218523488047 0.084850459496799077 0.023172204558091422 0.0072369130934008576 -0.047098408130206409 -0.043766861943800618 0.096214315975468201 -0.07065951031986642 -0.060576100495196974 0.070662827209720322 -0.070698550548884423
leaf_weight=31 125 511 396 308 166 128 700 36 223 254 354 94 166 248 56 221 523 642 493 113 116 445 84 307 120 476 177 11.999999999999998 642 170 201 528 54 907 424 159 162 578 217 604 565 112 27 284 423 116 263 36 17 95 434 326 258 244 477 354 275 807 378 399 94 261 227 23 641 174 40 893 489 932 92 9.9999999999999982 121 476 85 212 342 216 135 163 313 90 234 87 357 275 92 278 541 164 173 30 96 352 299 114 134 360 777
leaf_count=31 125 511 396 308 166 128 700 36 223 254 354 94 166 248 56 221 523 642 493 113 116 445 84 307 120 476 177 12 642 170 201 528 54 907 424 159 162 578 217 604 565 112 27 284 423 116 263 36 17 95 434 326 258 244 477 354 275 807 378 399 94 261 227 23 641 174 40 893 489 932 92 10 121 476 85 212 342 216 135 163 313 90 234 87 357 275 92 278 541 164 173 30 96 352 299 114 134 360 777
internal_value=0 -0.0298717 0.0642329 0.110434 0.0424643 -0.0543591 -0.00731347 -0.0441732 0.146885 0.094401 -0.0706877 0.00219016 0.0595599 -0.0203748 0.0272689 0.164286 -0.0382942 -0.0664929 0.00830464 -0.0854473 -0.00349263 0.105126 0.0329618 0.0514591 0.0676153 -0.0254449 0.0837835 -0.0146382 -0.000597379 -0.0959936 -0.0525571 -0.062603 -0.035387 -0.0337867 0.0211848 0.0687769 -0.0420952 0.00541155 0.047832 -0.0498552 -0.00208911 0.00831007 -0.112904 0.0120131 0.0103798 -0.0125727 0.0363818 0.129191 -0.0285858 0.131019 -0.0399914 -0.0377422 -0.0061549 -0.0810872 -0.00966964 0.02906 0.0803574 0.00314577 -0.00466675 -0.0227886 -0.0256364 -0.0208274 0.0241613 -0.0255792 0.0659405 -0.0701052 -0.0186645 -0.0555292 -0.0148522 -0.0442469 0.0185207 0.0160183 0.0429664 -0.0317583 -0.0587097 0.026536 -0.0213612 0.02706 0.00641068 0.0340761 0.0210999 -0.0872439 -0.0093312 -0.0527889 0.0556519 0.0514672 -0.065798 -0.015532 0.0385784 0.0904036 0.0205238 0.0166456 -0.0544854 -0.0461143 0.100097 -0.0774802 -0.0663966 0.0731074 -0.0719646
internal_weight=0 19418 9035 2893 6142 9310 10108 5735 883 2010 3575 5849 2889 4259 3253 444 3374 2786 2821 789 3028 998 1677 1443 1446 2257 1012 2002 1458 228 2361 1347 1918 1430 1576 1326 1456 1591 779 1244 1207 690 58 1230 916 1330 888 439 1027 403 488 488 1570 561 593 789 671 901 1078 1230 493 737 737 534 807 1439 672 1117 737 968 839 434 338 493 613 439 354 570 251 219 405 203 492 691 664 441 734 318 625 341 298 314 989 553 553 358 488 519 951
internal_count=28453 19418 9035 2893 6142 9310 10108 5735 883 2010 3575 5849 2889 4259 3253 444 3374 2786 2821 789 3028 998 1677 1443 1446 2257 1012 2002 1458 228 2361 1347 1918 1430 1576 1326 1456 1591 779 1244 1207 690 58 1230 916 1330 888 439 1027 403 488 488 1570 561 593 789 671 901 1078 1230 493 737 737 534 807 1439 672 1117 737 968 839 434 338 493 613 439 354 570 251 219 405 203 492 691 664 441 734 318 625 341 298 314 989 553 553 358 488 519 951
is_linear=0
shrinkage=0.2


Tree=4
num_leaves=95
num_cat=0
split_feature=0 0 0 0 0 0 0 0 0 0 0 0 0 0 0 0 0 0 0 8 0 5 3 15 5 3 3 44 3 60 3 3 3 46 35 9 0 8 0 0 60 5 0 3 14 0 3 0 60 12 5 5 0 29 54 5 4 11 0 16 12 5 46 9 53 0 3 58 53 18 27 58 3 41 15 8 5 41 12 39 42 9 10 3 15 53 3 3 3 4 56 3 10 15
split_gain=885.012 186.658 132.424 28.7877 25.9118 21.1521 18.7019 4.99491 3.27366 3.11143 3.10504 2.99021 2.60481 2.26115 2.24231 1.19209 0.766701 0.608154 0.484785 0.427439 0.404101 0.386377 0.461893 0.394848 0.365605 0.352018 0.338073 0.323426 0.309532 0.288354 0.276276 0.258842 0.251863 0.222805 0.211505 0.206622 0.199319 0.193857 0.2565 0.188367 0.187853 0.180742 0.175579 0.168314 0.219396 0.160617 0.147738 0.139868 0.13952 0.139323 0.136143 0.123638 0.121525 0.119361 0.116601 0.114652 0.113417 0.112504 0.106708 0.105466 0.0975531 0.0969691 0.09346 0.0912952 0.0896503 0.241135 0.0893362 0.0865692 0.0851712 0.0851557 0.0810406 0.0764846 0.0678059 0.0667644 0.0596816 0.0593714 0.0590365 0.055611 0.0528469 0.0488355 0.0470035 0.0452175 0.0359685 0.030445 0.0256006 0.0240993 0.0238916 0.0187581 0.0182341 0.0172158 0.0160584 0.0357049 0.0155245 0.00881227
threshold=12.550837084239141 12.097012544802537 13.184245156825233 11.853435040545362 12.826072218618444 13.622568144293171 12.31837415166987 11.692118173654253 11.956751333184913 12.420059219399109 12.991836996584224 13.362950359391656 12.199567784030611 13.86209538901007 12.69677258956939 11.59999610830431 11.802679526759301 12.038258101126464 12.496652110004286 0.073706887391789086 13.4672260300802 -0.61227175938993694 -0.63150501750884314 -0.74227321923976552 2.1951843843209002 -0.39313365975201564 -0.14022728358933467 -0.54281206433621121 1.2238508521987437 -0.74792118007786679 0.68631676976356759 -0.11144039805945337 1.3226892209469459 0.064366995652584094 -1.0999886273233443 -1.2417572113032886 12.251891160522986 0.69270010709259966 12.917511471531681 12.609341643946514 -0.6345952661110642 -1.2069030249723218 11.89899634732665 -0.32231703800461936 -0.64111607457473163 12.721347810437278 0.27109284548310941 13.278165338860072 -0.71165508072350592 -0.86486107026715009 1.845948385012532 -0.9294016500297847 13.056392663138412 -0.057334116480704571 -0.5961437872393236 -1.3718152597290851 0.0088478045739275538 -0.69004454636848311 11.907610846675913 1.1322603690942599 -0.96626534811862119 -0.55314753231882086 0.89822426527049493 -1.1434623902403382 0.59667634762995314 11.469390399460428 -1.407195777315277 0.04002692372718409 0.64113244967621796 0.46976722801226006 0.32733393667668637 -0.22689221569863702 0.58173927505997092 -2.0262805340366294 0.25870582843964712 -0.49258705386407564 -1.3718152597290851 -0.83088968645791461 -0.87575743169276943 -0.49233516138098937 2.0737375755445293 -0.45299127939306255 0.50842667963426991 0.44049966687619174 2.651615151365303 -0.26902451972727975 2.1274218468543213 -0.68124402788049421 -1.6931317706519839 -0.60379767636009662 1.5651803592839424 -0.02959402271959161 -0.97713611446241966 -0.3170498540318108
decision_type=2 2 2 2 2 2 2 2 2 2 2 2 2 2 2 2 2 2 2 2 2 2 2 2 2 2 2 2 2 2 2 2 2 2 2 2 2 2 2 2 2 2 2 2 2 2 2 2 2 2 2 2 2 2 2 2 2 2 2 2 2 2 2 2 2 2 2 2 2 2 2 2 2 2 2 2 2 2 2 2 2 2 2 2 2 2 2 2 2 2 2 2 2 2
left_child=1 3 4 7 14 11 12 15 26 21 37 47 33 50 29 64 27 43 40 45 -13 53 71 -24 35 41 42 70 -15 90 52 62 -26 34 88 -20 48 38 85 68 73 -14 76 44 -10 89 -42 72 -27 -45 -7 -38 -12 66 78 -36 83 -33 84 -56 -60 -29 -19 -44 65 -1 -8 -32 -31 -43 -9 -23 -4 -11 77 -47 -5 -21 -35 -41 92 -55 86 -22 -28 -6 -17 -54 -3 -16 91 -2 -18 -40
right_child=2 6 5 8 10 13 9 16 17 18 30 20 25 28 19 82 80 31 24 74 56 22 23 -25 32 36 58 61 -30 39 67 57 -34 54 55 -37 51 -39 93 79 46 69 63 49 -46 75 -48 -49 -50 -51 -52 -53 87 81 59 -57 -58 -59 60 -61 -62 -63 -64 -65 -66 -67 -68 -69 -70 -71 -72 -73 -74 -75 -76 -77 -78 -79 -80 -81 -82 -83 -84 -85 -86 -87 -88 -89 -90 -91 -92 -93 -94 -95
leaf_value=-0.086236073914391198 0.02294010668139488 -0.00015791640156477107 0.072332660654849598 -0.051196717165262862 0.040784671666337979 0.11513690510693293 0 -0.055846398114207788 -0.031998637066082657 0.0054827721731601879 0.055600677769549627 0.085001832943021091 -0.021094097989904238 0.13843810906867465 0.032152835970751859 -0.059552072378866006 -0.047157766732801643 -0.022452379148672895 -0.005919565053376756 0.022084968072696422 0.1030017221446764 0.0049157924647483912 -0.0052969499347215211 0.0017841746632779182 0.007153482466496535 -0.0046724569726811632 -0.043439534756729653 -0.050904669319011955 0.10942913006889657 0.01887045190413093 0.050150365726578473 -0.02039810326606982 -0.02527693177375593 -0.0076715428289472103 -0.040043107989019583 0.014159204274613917 0.003210934051941883 0.03837636276534695 0.054267988694384151 0.024845803369234642 0.0079357379168873213 -0.0051823985683364026 -0.041189707714015519 -0.023960413564599336 -0.024504798612785161 0.040580913125055934 0.0034380215696664281 0.077973889855455641 -0.013397709630829216 -0.033547767046852445 0.10013949494281425 -0.0083678523281493656 0.067523620080074329 0.0023027292774821287 -0.013334997929759094 -0.020594918460414363 0.086888339422495353 -0.028281670544500107 -0.025741676045203988 -0.02084417179735067 -0.03893688874527601 -0.045108747202529789 -0.014291451910694558 -0.031094536560131315 -0.063196078816055865 -0.070918113522933895 -0.0068693472997261324 0.058571719503589782 0.013345018185378416 0 -0.047988148787984575 0.011416808601699859 0.062282406730079766 0.013406796836708196 0.010939505556735979 0.034249494755598395 -0.037573085034787429 0.029373997346255079 -0.024834171781076522 0.020353047997161356 -0.02122899315424601 -0.0048475236602644719 -0.042707107236126272 0.091922029250553441 -0.028046677395305558 0.046216401465598966 -0.077867701635282935 0.060518651041712328 -0.013274269428100866 0.02361904853151469 0.020509264776914424 0.030362624601246169 -0.043165447914309069 0.047617740234185531
leaf_weight=90 107 10.999999999999998 459 32 404 253 77 848 372 75 352 448 27 301 114 964 496 423 18 111 186 219 448 1055 21 99 627 666 31 513 323 128 15.999999999999998 15.999999999999998 17 954 33 250 166 302 803 561 71 100 422 272 525 340 702 908 88 1003 152 124 709 1011 128 717 44 111 507 366 102 502 88 271 449 169 229 170 148 145 104 255 17 275 464 366 85 495 9.9999999999999982 49 22 130 20 247 18 574 161 68 66 184 608 266
leaf_count=90 107 11 459 32 404 253 77 848 372 75 352 448 27 301 114 964 496 423 18 111 186 219 448 1055 21 99 627 666 31 513 323 128 16 16 17 954 33 250 166 302 803 561 71 100 422 272 525 340 702 908 88 1003 152 124 709 1011 128 717 44 111 507 366 102 502 88 271 449 169 229 170 148 145 104 255 17 275 464 366 85 495 10 49 22 130 20 247 18 574 161 68 66 184 608 266
internal_value=0 -0.0229481 0.054131 -0.0421961 0.0381288 0.09316 -0.00353161 -0.0538647 -0.0323305 0.00469441 0.0517412 0.0817543 -0.0126682 0.123519 0.0254458 -0.0636601 -0.0493216 -0.0281325 0.00947841 0.0321876 0.090174 -0.000261718 0.00122269 -0.000298892 0.0129887 -0.00838858 -0.038186 -0.0517736 0.135854 0.0210752 0.0578573 -0.0247945 -0.005749 -0.0178847 -0.0198046 0.0137447 -0.00990542 0.0445066 0.0458834 0.0197786 0.00731712 -0.00465781 -0.0352953 -0.0306473 -0.028068 0.0354631 0.0061889 0.0733911 -0.0123711 -0.0326378 0.111388 -0.00795898 0.0599775 -0.00428587 -0.0153381 -0.0209569 0.0952993 -0.0271366 -0.0407309 -0.0144021 -0.0379585 -0.0488893 -0.0209459 -0.0324178 -0.0726599 -0.0748519 -0.00578676 0.0531274 0.0172211 -0.00399396 -0.0547204 0.00761948 0.0705498 0.0117316 0.0272698 0.0374737 -0.0385357 0.0277648 -0.0225262 0.0221075 -0.0448206 3.76559e-05 -0.059594 0.0985749 -0.0430278 0.0429093 -0.0599301 0.0620424 -0.0126767 0.0291924 0.0265488 0.027776 -0.0449967 0.0502692
internal_weight=0 19983 8490 10034 6022 2468 9949 4595 5439 5233 2903 1795 4716 673 3119 1453 3142 3172 2667 1223 892 2566 1867 1503 1009 2595 2267 2028 332 1896 1570 1370 37 2121 1200 972 1837 1333 1083 1539 1658 758 1069 1802 794 729 1328 903 801 1008 341 1036 1078 699 921 1028 444 845 1198 820 551 1032 525 573 449 361 526 492 742 731 996 364 563 330 494 547 496 477 101 797 1114 173 1004 316 647 651 982 726 172 182 357 291 1104 432
internal_count=28473 19983 8490 10034 6022 2468 9949 4595 5439 5233 2903 1795 4716 673 3119 1453 3142 3172 2667 1223 892 2566 1867 1503 1009 2595 2267 2028 332 1896 1570 1370 37 2121 1200 972 1837 1333 1083 1539 1658 758 1069 1802 794 729 1328 903 801 1008 341 1036 1078 699 921 1028 444 845 1198 820 551 1032 525 573 449 361 526 492 742 731 996 364 563 330 494 547 496 477 101 797 1114 173 1004 316 647 651 982 726 172 182 357 291 1104 432
is_linear=0
shrinkage=0.2


Tree=5
num_leaves=97
num_cat=0
split_feature=0 0 0 0 0 0 0 0 0 0 0 0 0 0 0 0 0 0 0 57 0 43 49 3 60 0 60 13 26 7 50 3 3 0 3 3 3 60 0 3 5 58 3 27 10 3 4 3 57 10 41 41 35 3 5 2 4 26 22 52 60 49 0 16 3 59 3 5 11 7 9 28 2 44 47 3 50 15 4 12 3 18 35 40 44 58 52 12 3 7 2 10 0 12 0 3
split_gain=567.441 123.655 81.2156 17.339 14.4027 14.1443 13.9772 3.11737 2.83659 2.5408 2.06774 1.92735 1.74394 1.00024 0.907156 0.711151 0.5451 0.36964 0.327335 0.320085 0.290284 0.273166 0.267803 0.281715 0.23522 0.228845 0.225617 0.218752 0.205163 0.204052 0.200843 0.195868 0.193968 0.179259 0.171092 0.166667 0.164599 0.162225 0.161259 0.159226 0.168625 0.155828 0.150809 0.150291 0.148059 0.146556 0.146422 0.134194 0.125793 0.122323 0.111623 0.111298 0.109485 0.108641 0.105933 0.126749 0.105081 0.0989479 0.0883084 0.0863851 0.0852783 0.0828519 0.0807551 0.0806057 0.085089 0.0802213 0.0796548 0.0791846 0.0784815 0.0759956 0.0759453 0.0739777 0.0720502 0.0710303 0.0664742 0.0660432 0.0620665 0.0601223 0.0595172 0.0576396 0.0493121 0.0483109 0.0450947 0.0399448 0.0387419 0.0350473 0.0296236 0.0282514 0.0219098 0.0199564 0.0159036 0.015035 0.00894253 0.00341597 0.00186986 0.00134711
threshold=12.567437178634419 12.087817179162842 13.164401539777591 11.848912690926145 13.682420270980076 12.808935192601647 12.308772093445993 11.656550368637809 13.436568276022788 12.439273846923397 11.941693830708999 12.991836996584224 12.186618764449284 12.672003303158313 11.757441978376741 13.986036283100498 13.298360812197219 12.033287967297271 11.507439151243998 -0.53746704872034334 12.50706290122009 -0.017015679471431362 2.3397391499361224 1.4836864696223344 -0.80035519756913953 12.251891160522986 -0.71165508072350592 0.31669017657011417 0.32071530775047857 -0.75589380963246577 -0.81774785715712139 -0.64479899930393081 -0.68124402788049421 12.141875718307388 0.43045213534182758 -0.46748402692557606 0.66215110007269951 -0.7741351324041692 12.411437019754546 -0.2819089936473535 -1.0320717007631082 -0.43327706207161015 -0.8188423341709129 0.34201325703149749 -0.6372565340435733 0.31779373531007166 0.0088478045739275538 -0.14813289628521867 -0.71146796087841901 -0.38972160545846957 -0.32552225196947676 0.6806997299830595 -0.83326416436958306 -0.61955398446025745 -1.3007328859297584 0.79729529291842005 0.85915748069787534 -0.09854080255476845 -1.2099405661969382 -0.22401742890965279 -0.83455514096041983 -0.26901369811777293 13.104930907373442 -0.92431306641571254 -0.55176763396974005 -0.5631963708679133 -0.60925821049807383 -1.4019225926199124 -0.75371565812303665 -0.71277601919163913 -0.55253076144523328 1.5850125039650858 1.003364490409792 -0.19545173665342749 0.81758157861738401 0.97377716769917211 -0.43309483946283872 1.3205469990018779 0.0088478045739275538 -1.0436017630358785 -1.6415725339691389 -1.6398499163794591 -1.0999886273233443 1.2193215488259816 -0.59105026760396717 -0.39820281941574093 -0.1978140154018288 -0.86486107026715009 0.07090630170816889 2.1844218133900264 -0.11932753014673032 -0.38972160545846957 12.88199522894876 -0.33333146838210009 11.912559002414522 -1.6415725339691389
decision_type=2 2 2 2 2 2 2 2 2 2 2 2 2 2 2 2 2 2 2 2 2 2 2 2 2 2 2 2 2 2 2 2 2 2 2 2 2 2 2 2 2 2 2 2 2 2 2 2 2 2 2 2 2 2 2 2 2 2 2 2 2 2 2 2 2 2 2 2 2 2 2 2 2 2 2 2 2 2 2 2 2 2 2 2 2 2 2 2 2 2 2 2 2 2 2 2
left_child=1 3 5 7 8 13 12 18 16 19 31 37 33 28 43 36 63 35 48 52 27 38 29 -24 -13 41 88 45 65 -22 -26 68 49 54 51 44 -6 92 -21 93 -41 72 -23 84 -12 -11 59 81 70 -16 -37 -19 83 -18 -3 -56 75 82 -29 -10 -43 -54 -32 -4 -65 67 -59 -2 -5 -67 -1 79 -14 90 -49 -27 -58 -34 -38 -33 -70 -39 -35 -8 -9 -30 -45 -36 -15 -87 -20 -50 -7 -28 -73 -75
right_child=2 6 4 10 15 11 9 14 46 20 17 24 25 26 32 -17 53 34 73 21 22 42 23 -25 30 56 39 58 85 -31 62 71 77 57 87 50 78 47 -40 40 -42 60 -44 86 -46 -47 -48 74 91 -51 -52 -53 61 -55 55 -57 76 66 -60 -61 -62 -63 -64 64 -66 69 -68 -69 80 -71 -72 94 -74 95 -76 -77 -78 -79 -80 -81 -82 -83 -84 -85 -86 89 -88 -89 -90 -91 -92 -93 -94 -95 -96 -97
leaf_value=-0.06129243638342953 0.0085993860879302678 -0.031314682961647959 0.062407268425728857 -0.034515969551590697 0.10106379577342524 0.035998893404876268 0.0033240566508435845 -0.047396239090309648 0.087837119931616789 0.0064626981400357332 -0.025602185425141845 0.054148255775036236 -0.010827032759674683 0.025880752189692602 -0.036137518026014767 0.11218006015318781 0.072511802868785211 -0.019103891414919971 -0.051280090451911536 -0.0014314728351054566 -6.4900605280417061e-05 0.0085979273913765596 0.0055564396776391486 -0.029891854255633468 0.052304879134392315 -0.0030724745553715222 0.029817792208462136 0.0050715108409359472 0.013303983350674387 0.012718270462962254 0.041835478584701519 -0.025983287819509718 -0.038211385023334238 -0.0071433405797815628 -0.015425637581772542 -0.03081996940639203 0.095089165147024701 0.016421772072800097 0.0036205367211287506 0.034253937403305838 0.021024659542204938 -0.0014373949994070075 0.0024168038254804109 -0.035318491325980611 -0.019329277801389159 0.00064102176936801057 0.07090713071829606 0.03076628658251028 -0.060387855972653774 -0.028143249795745659 -0.025329493116238 -0.0092994945545704488 0 0.062995788341949618 -0.015221841332609013 -0.020826334540530789 -0.0031948546116167785 -0.0050985395118804139 0.011335246984676856 0.076771325697679471 -0.008214705407898348 -0.0063591472047868948 0.04726380016761883 0.061910953402028172 0.052897792787377856 0.021083278243868166 -0.012047702283084617 0.020059060427667856 -0.017720402064098362 0.013009586201271961 -0.087009373173495649 -0.022132420276490483 -0.018142587597967347 -0.038464376197988669 0.037280612451411115 -0.0083009402269909188 -0.0089646048217894483 -0.04425530788923579 0.078763555867121374 -0.033397809305088386 -0.027013232798921889 0.038153554000851388 -0.01645849340658237 -0.0057084081002508552 -0.043372980738199375 0.022981093056239191 -0.042308568171383523 -0.024420936881118835 0.03487726497323098 0.016523525172001837 -0.058904142172210142 -0.047183303771722335 0.043683437288495455 0.023033464952390406 -0.0061799947521122035 -0.048940748825122192
leaf_weight=32 42 26 173 88 195 107 100 656 112 576 380 167 438 69 414 219 145 715 247 1292 46 212 32 11.999999999999998 174 685 202 148 50 920 787 98 1132 40 42 289 79 10.999999999999998 312 52 819 102 767 149 412 271 243 624 134 170 947 68 116 423 965 260 121 106 440 310 611 417 329 122 493 71 412 241 55 672 24 12.000000000000002 87 43 157 129 417 179 67 1415 357 395 324 22 658 294 238 426 116 79 137 40 154 73 9.9999999999999982 234
leaf_count=32 42 26 173 88 195 107 100 656 112 576 380 167 438 69 414 219 145 715 247 1292 46 212 32 12 174 685 202 148 50 920 787 98 1132 40 42 289 79 11 312 52 819 102 767 149 412 271 243 624 134 170 947 68 116 423 965 260 121 106 440 310 611 417 329 122 493 71 412 241 55 672 24 12 87 43 157 129 417 179 67 1415 357 395 324 22 658 294 238 426 116 79 137 40 154 73 10 234
internal_value=0 -0.01803 0.0441725 -0.0341514 0.0736062 0.0308023 -0.00284195 -0.0433205 0.065684 0.00383483 -0.0264015 0.040576 -0.0108846 0.0205742 -0.0406496 0.102122 0.0602918 -0.0232448 -0.0540533 0.000147041 0.00870173 0.0011607 0.0113618 -0.00316822 0.0458082 -0.00736571 0.0246011 0.00680056 0.0168466 0.0120666 0.0446964 -0.0314675 -0.0374917 -0.0151381 -0.0203576 -0.0250054 0.0955415 0.0352825 -0.000422918 0.0234115 0.0218621 -0.00937878 0.0037977 -0.0441433 -0.0223914 0.00464903 0.076617 0.0340581 -0.0615364 -0.0338815 -0.0266468 -0.0183054 -0.00378698 0.0654981 -0.0167874 -0.0164452 -0.00549169 -0.0127516 0.00982923 0.0798066 -0.00730336 -0.00504183 0.0434729 0.0564863 0.0547532 0.015165 -0.0107058 0.018505 -0.0274775 0.0138369 -0.073055 -0.0327402 -0.0121184 -0.0513868 0.032129 -0.00395204 -0.00774408 -0.0390683 0.0878815 -0.032945 -0.0258734 0.037667 -0.0155488 0.00135513 -0.0454131 0.0208274 -0.0397245 -0.0237023 0.0317461 0.0217247 -0.0541082 -0.0575908 0.0406921 0.0281678 -0.0167675 -0.0474643
internal_weight=0 20207 8266 9801 2581 5685 10406 4487 2021 5683 5314 2905 4723 2780 3596 560 1356 3279 891 3238 2445 2583 1010 44 1457 2590 1331 1435 1449 966 1290 2035 1895 2133 1251 2028 341 1448 1604 1146 871 1238 979 1701 792 847 665 1187 230 584 1236 783 655 568 1251 1225 1352 882 588 422 713 533 1116 788 615 1026 518 283 500 743 56 1535 525 661 781 814 538 1311 146 1513 412 406 364 122 1314 423 387 468 185 373 384 174 261 275 22 277
internal_count=28473 20207 8266 9801 2581 5685 10406 4487 2021 5683 5314 2905 4723 2780 3596 560 1356 3279 891 3238 2445 2583 1010 44 1457 2590 1331 1435 1449 966 1290 2035 1895 2133 1251 2028 341 1448 1604 1146 871 1238 979 1701 792 847 665 1187 230 584 1236 783 655 568 1251 1225 1352 882 588 422 713 533 1116 788 615 1026 518 283 500 743 56 1535 525 661 781 814 538 1311 146 1513 412 406 364 122 1314 423 387 468 185 373 384 174 261 275 22 277
is_linear=0
shrinkage=0.2


Tree=6
num_leaves=92
num_cat=0
split_feature=0 0 0 0 0 0 0 0 0 0 0 0 0 0 0 0 0 8 3 8 29 46 4 7 3 3 4 4 29 0 15 34 0 14 16 0 61 26 60 3 3 57 4 3 29 15 3 12 59 0 0 29 29 57 59 3 7 10 3 4 57 8 60 55 2 2 10 16 7 60 9 10 0 52 3 0 42 60 3 10 3 57 47 7 6 41 52 0 13 0 8
split_gain=362.549 81.591 50.1455 12.3036 10.0505 8.82072 7.93204 2.51562 1.57903 1.28519 1.11301 1.07734 1.04789 0.894596 0.536169 0.493549 0.35263 0.231681 0.230435 0.208241 0.199991 0.219974 0.194857 0.231703 0.187614 0.183145 0.179842 0.170989 0.167658 0.162266 0.159265 0.158988 0.153322 0.149782 0.148698 0.147428 0.168566 0.137671 0.125237 0.123647 0.123188 0.117422 0.116988 0.115026 0.10861 0.10231 0.100251 0.0880463 0.0856566 0.0851506 0.0795202 0.075433 0.075326 0.0715408 0.0660506 0.0653943 0.0651169 0.0635686 0.0887154 0.105622 0.0612934 0.0596542 0.0573441 0.0564766 0.0562171 0.0557837 0.0553464 0.0527293 0.0511911 0.0508131 0.0697193 0.0492942 0.0470015 0.0463407 0.0414605 0.0406721 0.0382403 0.0377601 0.0368312 0.0353152 0.0347462 0.0339626 0.0311305 0.0203842 0.0191507 0.0152903 0.0111426 0.00984133 0.00926132 0.00238398 0.000740876
threshold=12.581663151781465 12.102365484527631 13.218978450917962 11.866459425114302 12.88199522894876 12.354440688089683 13.682420270980076 11.700172455181471 12.225014677670719 12.747790342366519 13.436568276022788 11.977324007920997 12.461258417692846 13.03147030161537 13.86209538901007 11.59999610830431 11.802679526759301 0.048399324296758146 0.67412657960813205 -0.37914962399105573 -0.58100081222019961 0.0085411749624174724 0.79049893542078642 -0.78213985379486284 1.692150824615456 -0.50878250595672614 1.1179473821269033 0.79049893542078642 -0.46281687055554172 12.146578738737617 -0.56025489707155141 -0.087491172671022965 12.661167644313101 -0.73376552877742951 -0.068557677143106802 13.116983872229396 1.2729729299715051 -0.44668110801184502 -0.80035519756913953 0.15710142195888557 -1.1357060905037824 -0.12070447084034923 1.2711087523604092 1.295417319223181 -0.58987283045677252 -0.71955136003018028 -0.48653490775891611 -0.68616166028218495 -0.41376389297410693 12.052148818988902 12.411437019754546 -0.58501339652460793 -0.14170792639416033 0.21966947376782911 -0.52127465439541842 1.4836864696223344 -0.43242897580623735 -1.1194388958307455 -0.50878250595672614 -0.47704343892547102 0.29321709841221744 -0.07188603441374089 0.037957299098154255 0.41652345375023064 -2.0700115925100948 3.3062545527218186 -1.0663512146014549 -0.56544790317236171 -1.1100010379554246 -0.54893733402937162 -0.53178643621050636 0.60147921819443917 12.066115882738176 -0.41567142487789316 -0.19438837270804224 11.894058706231126 0.072551158529150006 -0.019082036879302735 0.1933085320162769 -0.4614301568770332 -0.45719733025077874 -0.46773316100038209 0.60232705396038699 -0.86213705832513476 -0.87239534044558209 -0.16007252155223498 -0.22401742890965279 14.109708310489122 0.31669017657011417 13.298360812197219 0.70967106116809109
decision_type=2 2 2 2 2 2 2 2 2 2 2 2 2 2 2 2 2 2 2 2 2 2 2 2 2 2 2 2 2 2 2 2 2 2 2 2 2 2 2 2 2 2 2 2 2 2 2 2 2 2 2 2 2 2 2 2 2 2 2 2 2 2 2 2 2 2 2 2 2 2 2 2 2 2 2 2 2 2 2 2 2 2 2 2 2 2 2 2 2 2 2
left_child=1 3 4 7 9 8 10 15 26 32 57 18 17 38 -8 56 28 31 33 39 72 37 23 77 48 63 29 69 79 30 -3 42 34 75 47 61 90 -22 -6 81 -35 50 -7 87 -25 -12 83 -2 -24 -23 -19 -18 -31 -33 84 -27 73 -4 89 -60 -43 -15 -28 -21 -53 80 -30 -41 -48 -11 -71 76 85 -1 -29 -5 -17 -14 -63 -9 -34 -10 -36 -40 -20 -13 -47 -16 -74 -59 -37
right_child=2 5 6 11 13 12 14 16 19 27 45 20 22 35 43 71 51 41 54 25 21 49 24 44 -26 55 62 74 66 52 -32 53 65 40 82 36 -38 -39 46 67 -42 60 -44 -45 -46 86 68 -49 -50 -51 -52 64 -54 -55 -56 -57 -58 58 59 -61 -62 78 -64 -65 -66 -67 -68 -69 -70 70 -72 -73 88 -75 -76 -77 -78 -79 -80 -81 -82 -83 -84 -85 -86 -87 -88 -89 -90 -91 -92
leaf_value=-0.038968407857862319 0.0092516998982241933 -0.0072255989015700232 0.027482951948645806 -0.028068646059536507 0.036697772171685385 0.0051684883833777104 0.073284856300065496 -0.036475159803858112 -0.0033603016386010327 0.028933730271907973 0.056199999986638938 -0.023442885108904271 0.0022516065690983463 0.039346166954970764 0.085216974500451168 -0.039556952082564732 -0.031199228741732529 -0.0054818094712470039 -0.012994231106868745 -0.0011159942689094851 -0.02403104318622349 -0.015172635914542111 0.0085885691067946329 0.0060617475543630391 -0.018656097887276648 -0.0060622418857075103 -0.016469779460623318 0.024133028596500333 -0.033063777683455677 -0.0098457301645044192 -0.01404442740112713 0.002054979144159674 0.020879896310672559 -0.013850177617910395 0.0097933857974310309 0.043829651383253086 0.032117630077533335 -0.01689425481581534 0.020189752118662099 -0.0049175729484578542 -0.021339575806578453 0.0038493495215546542 -0.0021003011861730489 0.062600870137276429 0.010493567287600241 0.069328748726491571 0.010839404187107188 0.01699152056268741 0.0029520538114782648 -0.010348740917966809 0 -0.013786570779934115 -0.006321930313732016 -0.0025884748077880243 -0.029752820472568439 -0.011461268596142889 -0.030371684123787726 0.049922631551225519 0.052057598960509655 0.045243692154438631 -0.00092601623450833538 0.037380472420567017 -0.010314067743568585 -0.0064478067223911742 -0.02736388789263099 0.002830722316121781 -0.028455515459815839 1.4831679082555841e-05 0.02874481313114979 0.030100703689855252 0.022620014206159372 -0.015697437486173756 -0.017708279057041833 -0.049100046874595932 0.016737852336530867 -0.023203657460945375 -0.034537987873349905 -0.0062005660741242001 0.031219583391473057 -0.032078025842800818 0.016609850576915462 0.00075737942276338103 0.015575857810653274 0.035462444234987393 -0.024337507470553132 -0.019555810095006374 0.061321828156599915 0.095462819892047857 -0.010033297351220591 0.057966803373873402 0.03683195021493841
leaf_weight=67 96 217 12.999999999999998 216 194 1075 225 650 94 245 247 255 78 325 208 857 459 249 25 466 164 502 189 332 12.999999999999998 1218 305 84 401 709 593 405 206 134 427 491 104 853 17 446 998 218 88 18 1234 129 13.999999999999998 505 336 316 164 25 516 193 319 119 23 126 336 377 191 202 133 105 973 17 505 87 778 104 478 9.9999999999999982 262 361 200 549 240 29 257 340 653 522 75 213 111 404 293 115 34 165 86
leaf_count=67 96 217 13 216 194 1075 225 650 94 245 247 255 78 325 208 857 459 249 25 466 164 502 189 332 13 1218 305 84 401 709 593 405 206 134 427 491 104 853 17 446 998 218 88 18 1234 129 14 505 336 316 164 25 516 193 319 119 23 126 336 377 191 202 133 105 973 17 505 87 778 104 478 10 262 361 200 549 240 29 257 340 653 522 75 213 111 404 293 115 34 165 86
internal_value=0 -0.0140926 0.0360993 -0.0269179 0.0262095 -0.0016 0.0614246 -0.0340894 -0.00704607 0.0184069 0.0544738 -0.0200604 0.00467352 0.0351869 0.0820561 -0.0408141 -0.0309523 0.00191653 -0.0232657 -0.00398486 -0.0173435 -0.0160018 0.0078756 0.00896525 0.00441004 -0.00527739 -0.0108134 0.0239175 -0.0328948 -0.00995751 -0.0122689 0.0032155 0.0152923 -0.0221818 0.0135479 0.038633 0.0412792 -0.0180859 0.0310011 -0.00180241 -0.0204897 -0.000815819 0.00458281 0.0877219 0.0095805 0.0610988 0.0298791 0.0158243 0.00506024 -0.0133599 -0.00322734 -0.0283961 -0.00839529 0.000486949 -0.0276933 -0.00657382 -0.0468238 0.050075 0.0503262 0.0485129 0.00151783 0.0362816 -0.0146953 -0.00216912 -0.0270654 0.0174413 -0.030541 -0.00403462 0.0284807 0.0255316 0.0240281 -0.0383283 -0.0198782 -0.047611 0.0190713 -0.0246315 -0.0384967 0 0.0340213 -0.0350069 0.0176822 6.16695e-05 0.01074 0.034514 -0.0225575 -0.0211229 0.0638678 0.0889934 -0.0169669 0.0546264 0.0428586
internal_weight=0 20377 8023 10053 5771 10324 2252 4911 5530 3090 1686 5142 4794 2681 566 1558 3353 2583 2352 3057 2790 1835 2211 1673 538 1908 2473 1111 1896 2035 810 1761 1979 1897 1103 1465 681 1017 1216 1149 1132 822 1163 341 1566 669 1022 601 525 818 413 1457 1225 598 455 1337 451 1017 1004 713 409 784 438 571 998 876 906 533 792 827 582 1107 955 428 284 765 1097 107 459 990 859 616 502 230 136 659 422 323 296 291 577
internal_count=28400 20377 8023 10053 5771 10324 2252 4911 5530 3090 1686 5142 4794 2681 566 1558 3353 2583 2352 3057 2790 1835 2211 1673 538 1908 2473 1111 1896 2035 810 1761 1979 1897 1103 1465 681 1017 1216 1149 1132 822 1163 341 1566 669 1022 601 525 818 413 1457 1225 598 455 1337 451 1017 1004 713 409 784 438 571 998 876 906 533 792 827 582 1107 955 428 284 765 1097 107 459 990 859 616 502 230 136 659 422 323 296 291 577
is_linear=0
shrinkage=0.2


Tree=7
num_leaves=94
num_cat=0
split_feature=0 0 0 0 0 0 0 0 0 0 0 0 0 0 0 0 5 10 3 10 46 3 14 3 29 26 3 3 3 10 3 14 15 2 4 43 43 4 3 14 43 7 49 29 52 27 8 3 16 5 29 3 2 13 16 56 12 42 58 46 2 4 0 12 45 8 0 8 3 41 13 0 42 38 5 52 38 3 13 12 3 12 1 4 0 5 3 3 28 14 16 29 3
split_gain=233.036 47.535 36.2316 7.01244 6.28816 6.21833 6.15846 1.04099 1.00939 0.935461 0.930085 0.863088 0.807094 0.771051 0.387049 0.220145 0.214673 0.184627 0.184049 0.205673 0.183993 0.18616 0.178186 0.164872 0.158981 0.160836 0.149066 0.141474 0.140598 0.145033 0.139047 0.136391 0.134325 0.130961 0.120792 0.114029 0.112378 0.11044 0.107653 0.104961 0.103526 0.095693 0.0952876 0.0928192 0.091632 0.0906697 0.0893399 0.0892811 0.0841687 0.0822163 0.0812119 0.0806587 0.0784582 0.0783622 0.0755118 0.0721232 0.0675945 0.0650897 0.104688 0.0600358 0.0599475 0.0589604 0.0580602 0.0575938 0.057514 0.0543601 0.0732424 0.0533866 0.0511317 0.0485579 0.0450185 0.043384 0.0425918 0.0418038 0.041029 0.0387298 0.0362692 0.0351164 0.0347483 0.0284842 0.0290269 0.0281624 0.0250353 0.0216075 0.0214443 0.0190592 0.0168399 0.014461 0.0141534 0.013965 0.00868064 0.00738516 0.00156085
threshold=12.537811769736161 12.061875807273124 13.133737535717623 13.578831203270171 11.812088945489752 12.783839711990991 12.304232103179727 11.936268832098984 11.678566929277553 13.278165338860072 13.799880034966142 12.174681196499668 12.411437019754546 12.92933035638608 12.65274668042969 11.507439151243998 1.9472263932100387 -0.41448249411726812 -0.11144039805945337 -0.42941237944478067 0.7659369228335956 0.14693755372218867 -1.460092621333797 -0.11144039805945337 -0.37484038558829985 -0.46791728532493398 1.2675613151636747 -0.61955398446025745 1.2022060054243926 0.48151620371100251 -0.14022728358933467 -1.6233202089542789 -0.83349271608954423 0.23623129195007311 0.80106178854033872 0.056756396517862594 -0.47865879899200114 0.0088478045739275538 -0.074861911630751274 -0.91940598100514948 -0.0096012542496347487 -1.0325652066495341 0.3766766944149576 -0.58501339652460793 -0.42300522880502633 0.34201325703149749 0.067454430627134007 0.45061419626519711 0.88381525607963196 -1.0467011662011545 -0.58100081222019961 1.0962032471585177 3.3062545527218186 -0.72007301695078818 0.66297515562218534 0.17626774560850847 -0.55614382630652315 -0.026020498642460584 0.12019984460426532 -0.032368305616962932 3.3062545527218186 -0.43479202644726245 12.588753690128224 -0.24999299540320422 0.58361358982130129 -0.67926754869447881 13.384684570709597 0.17374619562626312 -1.5121290986312244 -0.32552225196947676 -1.3717464229417413 14.109708310489122 -1.2394679390962522 -0.181043150004741 -1.1575798689928603 -0.12463528064920458 3.4365373675211459 0.27109284548310941 0.31669017657011417 -1.0090847688334847 0.61416608570901021 -0.80811100352003784 1.6318916689744907 -0.52985770452323167 11.743407264511843 1.3439966551419327 -0.39313365975201564 -0.39313365975201564 -0.3619041227816176 -1.2849615990167289 -0.082360183421697222 1.0000000180025095e-35 1.8660710013246973
decision_type=2 2 2 2 2 2 2 2 2 2 2 2 2 2 2 2 2 2 2 2 2 2 2 2 2 2 2 2 2 2 2 2 2 2 2 2 2 2 2 2 2 2 2 2 2 2 2 2 2 2 2 2 2 2 2 2 2 2 2 2 2 2 2 2 2 2 2 2 2 2 2 2 2 2 2 2 2 2 2 2 2 2 2 2 2 2 2 2 2 2 2 2 2
left_child=1 4 5 9 8 14 11 31 15 38 51 28 17 37 42 57 40 44 19 70 21 22 -14 68 75 76 36 67 29 45 -12 -6 -23 35 -25 -33 56 50 -4 -27 74 -38 43 77 88 -3 -46 53 52 -28 90 -5 59 -17 61 -21 -13 58 -1 -16 -51 -22 -45 -40 -35 -29 -67 -11 -19 -31 -10 -32 -20 -52 -15 89 -26 -2 -77 -44 -81 -30 -56 -50 -74 -83 -39 -42 -8 -9 -7 -54 -88
right_child=2 6 3 10 7 13 12 24 18 27 30 26 20 16 48 47 -18 23 72 55 54 32 -24 34 25 39 49 65 81 69 71 33 -34 64 -36 -37 41 86 63 -41 87 -43 79 62 46 -47 -48 -49 83 60 73 -53 91 -55 82 -57 -58 -59 -60 -61 -62 -63 -64 -65 -66 66 -68 -69 -70 -71 -72 -73 84 -75 -76 78 -78 -79 -80 80 -82 85 -84 -85 -86 -87 92 -89 -90 -91 -92 -93 -94
leaf_value=-0.040359731040627962 0.0093496423084017104 -0.011924207950291468 0.03805297678396527 0.055771725795727534 -0.029211924008939301 0.02020681750269462 -0.0004144176239994581 -0.019326498026465896 -0.028950921881724115 0.052541914966630035 0.074456885355164051 -0.0037716772976732053 -0.0021737850354903213 0.010383821897975072 0.014042012671212809 -0.032913156747594777 0.020546029053137783 0.0084912531585427161 -0.01635412849598699 -0.018351392989252452 0.0079958859888394768 -0.0045763759606494477 0.0061816552312701873 0.00029204191568380351 -0.02133479758997547 -0.016742922727623847 0.0047247884455409415 0.04557530197413711 -0.0093301732599828935 -0.011393316353452882 0.061466396474862753 -0.020755898958757513 0.0023864024871514426 -0.023449270713273535 -0.0042356116767506809 -0.016678025659499111 -0.015693857565982672 0.021421917155563276 0.034781921572349835 -0.011728000544965667 0.034413062712750214 -0.0032277533739809208 0.014911961970869029 0.0099169501938816892 -0.0026040721447976377 -0.0078339298880861427 -0.0082737320828509802 -0.039901226007029181 0.00041894164795183014 -0.011226021465172344 0.0214936479807569 0.043594797539309692 0.0058439537096901598 -0.027353472707396683 0.0033457516603153364 -0.024799684818708114 -0.0075587993542118358 -0.032795049602258243 -0.060752916097592424 0.01793175546168687 0.00076073737326067458 0.018991833919421029 0.013766491362381676 0.028535528475489666 -0.012397715876811105 0.036059688059997604 0.042875633222364165 0.042213416960291905 0.0021603140619868254 -0.0061955121066778838 -0.025005355822671549 0.073907574743810697 -0.031632021212541876 0.026670776066931298 0.027156891155703595 -0.019037917615873777 -0.0061986750571300687 0.0042177019447659867 -0.013578213197887257 0.0038723918894723814 0.0080286526086840865 -0.016861325871772463 -0.0059818880665567509 0.011610342147136634 -0.027697971985642129 -0.0095651712996727006 0.017176566808041908 0.029597645660192247 0.0033790148169292457 -0.014547455501458278 0.013557198842113524 0 0.0095502268865304725
leaf_weight=127 209 1106 377 269 103 136 46 95 430 164 180 335 106 13.999999999999998 534 655 181 61 25 281 445 123 988 758 145 268 10.999999999999998 308 72 113 214 1218 900 809 333 535 27 137 317 956 198 1398 25 433 488 359 162 95 14.999999999999998 252 260 64 14.000000000000002 259 78 184 687 76 22 455 10.999999999999998 27 462 214 36 224 339 90 769 550 642 58 361 292 840 674 14.999999999999998 122 114 169 231 220 10.999999999999998 299 518 47 301 438 78 513 61 11.999999999999998 27
leaf_count=127 209 1106 377 269 103 136 46 95 430 164 180 335 106 14 534 655 181 61 25 281 445 123 988 758 145 268 11 308 72 113 214 1218 900 809 333 535 27 137 317 956 198 1398 25 433 488 359 162 95 15 252 260 64 14 259 78 184 687 76 22 455 11 27 462 214 36 224 339 90 769 550 642 58 361 292 840 674 15 122 114 169 231 220 11 299 518 47 301 438 78 513 61 12 27
internal_value=0 -0.0119533 0.0273695 0.0460175 -0.0225007 0.0184025 -0.00280527 -0.0181885 -0.0289207 0.0397611 0.0621673 -0.00772185 0.00193431 0.0250344 0.0119682 -0.0337078 0.0278992 -0.000495354 -0.0264837 -0.0249491 0.0043949 0.00350516 0.00533415 0.000537039 -0.0154153 -0.0137356 -0.00523489 0.0437613 -0.010448 -0.00978384 0.0684197 -0.0210274 0.00150867 -0.0206869 -0.00105188 -0.019535 -0.00470659 0.0210569 0.0347593 -0.0128599 0.0287646 -0.00349307 0.00984471 0.0108053 -0.00311128 -0.0109502 -0.00408096 -0.0322262 0.0145749 -0.00980155 0.0227982 0.053556 0.0155757 -0.0313831 0.00767845 -0.0209922 -0.00635803 -0.0401674 -0.0436493 0.0158735 -0.0105669 0.00871281 0.0119505 0.0323427 -0.0230275 0.0421727 0.0402375 0.0490456 0.00267559 -0.007144 -0.0266267 0.0642719 -0.0290471 0.0243074 0.0269305 -0.0170507 -0.0201751 0.00758348 -0.0183007 0.0069761 0.00637637 -0.014495 0.00172666 0.0112079 -0.0293609 -0.0157324 0.018163 0.031162 0.00163714 -0.0153624 0.0183584 0.00265098 0.0166753
internal_weight=0 19717 8683 2818 9156 5865 10561 5481 3675 2033 785 5188 5373 2885 2980 1234 1671 2695 2441 1537 2678 2117 1094 1921 2780 1384 2721 1125 2467 2128 452 2701 1023 2598 1091 1753 2447 1214 908 1224 1490 1425 1651 1226 774 1465 650 1009 1329 274 749 333 1015 914 561 465 1022 225 149 989 263 472 895 531 845 871 563 254 830 663 1072 272 904 552 854 1396 160 331 788 425 400 339 89 314 879 267 465 636 124 608 197 26 328
internal_count=28400 19717 8683 2818 9156 5865 10561 5481 3675 2033 785 5188 5373 2885 2980 1234 1671 2695 2441 1537 2678 2117 1094 1921 2780 1384 2721 1125 2467 2128 452 2701 1023 2598 1091 1753 2447 1214 908 1224 1490 1425 1651 1226 774 1465 650 1009 1329 274 749 333 1015 914 561 465 1022 225 149 989 263 472 895 531 845 871 563 254 830 663 1072 272 904 552 854 1396 160 331 788 425 400 339 89 314 879 267 465 636 124 608 197 26 328
is_linear=0
shrinkage=0.2


Tree=8
num_leaves=99
num_cat=0
split_feature=0 0 0 0 0 0 0 0 0 0 0 0 0 0 0 29 59 60 2 51 3 10 4 29 5 3 59 22 10 5 3 3 9 57 10 61 58 15 29 47 3 56 2 60 49 52 13 42 27 60 35 60 51 41 12 15 10 0 3 3 43 2 53 60 60 0 8 2 60 3 5 0 50 52 2 0 2 3 28 3 54 39 2 0 2 13 30 0 11 10 15 44 3 2 8 4 52 44
split_gain=149.555 29.2548 24.761 4.82803 3.9644 3.84763 3.80129 0.688629 0.679981 0.632362 0.584387 0.582393 0.379157 0.362025 0.250069 0.169677 0.158828 0.155263 0.139829 0.132117 0.127754 0.134808 0.126256 0.124552 0.120655 0.10132 0.100879 0.101551 0.100583 0.096364 0.0916642 0.0908569 0.0908392 0.153297 0.149122 0.098528 0.0873835 0.0867362 0.117678 0.0854436 0.0847544 0.0812512 0.0756463 0.0735161 0.0726325 0.0708197 0.0701028 0.0696364 0.067872 0.0634049 0.0626251 0.0825176 0.0603289 0.0567599 0.0528934 0.052781 0.0526411 0.0514342 0.0504975 0.0503025 0.047174 0.0462071 0.0456427 0.0450596 0.0435874 0.042927 0.0400166 0.0373372 0.0384235 0.0823681 0.0370383 0.0368731 0.0417149 0.034872 0.034515 0.0378022 0.0344321 0.0330805 0.0311895 0.0280989 0.027679 0.0235511 0.0225791 0.0167578 0.0154739 0.0133567 0.0133343 0.0129755 0.0116537 0.00994637 0.00836493 0.00540625 0.00402285 0.0034251 0.00316999 0.000772869 0.000535065 0.000299103
threshold=12.519547474271663 12.052148818988902 13.164401539777591 12.77219632535974 13.622568144293171 12.266707902581294 11.807240029778237 12.975415713335567 11.894058706231126 11.656550368637809 13.362950359391656 12.390419004931209 13.86209538901007 12.136809353245889 12.672003303158313 -0.39819982785546598 -0.095155785313795538 -0.7741351324041692 0.073297939560330413 0.034932643213734425 -0.56095115939705875 -1.5985971900917237 0.92781602597496426 -0.59978216798581829 -0.61227175938993694 -0.69220728653743901 -0.26163220307594154 0.31150117730931909 0.52502607286236602 -0.7052757465377224 1.5215159823379449 0.74910412713722008 -0.49005047914338917 -0.53746704872034334 -1.0663512146014549 -0.49013899417183365 -0.43327706207161015 0.46163367104715841 -0.57964453527901416 0.46565165877962272 0.49529776186124325 0.07284513064550685 1.711841555451288 0.027324834632870516 1.9893140191389336 -0.18801653493974368 -1.3810795512829221 2.5406461427932387 2.4490489573520677 -0.81928847606856203 -0.67516550106472051 -0.74792118007786679 0.94024995415789137 -0.27051653585927055 -1.0436017630358785 -0.7755174632499805 -0.42941237944478067 12.005552799767722 -1.0781009459145754 -0.8188423341709129 -0.070727499799340995 1.3845113458056553 -0.32204332485809511 -0.71165508072350592 0.038162465153330591 13.066704776320877 0.72038955847892694 3.3062545527218186 -0.44698345564552305 0.55843019307776709 1.3439966551419327 11.715328204373735 -1.3408142259446652 -0.42300522880502633 1.8736529596650826 12.559181217722863 2.4384387363924773 -0.14022728358933467 -0.23233659221698941 0.76366500602378473 -0.6468234365614498 -0.93923245654079957 -0.27061806082499851 12.808935192601647 -0.35313003789042713 0.056959039180662585 0.10649519492073338 12.206582040755 -0.98693842177259528 -1.1018649701161249 -0.77797899799768555 1.120427294347728 -0.78153907268045597 -0.026773713954213806 -0.36217866991556424 1.0809773962084706 1.5839662945895576 -0.67779579165455073
decision_type=2 2 2 2 2 2 2 2 2 2 2 2 2 2 2 2 2 2 2 2 2 2 2 2 2 2 2 2 2 2 2 2 2 2 2 2 2 2 2 2 2 2 2 2 2 2 2 2 2 2 2 2 2 2 2 2 2 2 2 2 2 2 2 2 2 2 2 2 2 2 2 2 2 2 2 2 2 2 2 2 2 2 2 2 2 2 2 2 2 2 2 2 2 2 2 2 2 2
left_child=1 6 3 14 10 13 9 32 48 31 50 28 55 23 36 54 60 61 24 -18 21 -19 42 29 64 90 78 -28 39 41 77 56 35 83 -35 97 74 38 -38 45 44 -3 46 87 -30 -7 -15 -22 52 -27 -4 -52 53 -8 93 -6 73 -56 95 -26 -17 70 -41 -60 -11 -51 94 68 79 -70 -13 -20 -73 -1 80 -76 -42 -14 -25 -16 -2 -39 -53 -34 -31 -54 -44 -24 -37 -57 -9 -69 -45 -10 -33 -12 -63 -5
right_child=2 5 4 7 12 11 8 25 15 18 58 17 30 22 67 16 19 20 71 -21 47 -23 43 26 59 49 27 -29 40 84 -32 66 33 34 -36 88 37 81 -40 62 76 -43 86 92 -46 -47 -48 -49 -50 65 51 82 85 -55 57 89 -58 -59 63 -61 -62 96 -64 -65 -66 -67 -68 91 69 -71 -72 72 -74 -75 75 -77 -78 -79 -80 -81 -82 -83 -84 -85 -86 -87 -88 -89 -90 -91 -92 -93 -94 -95 -96 -97 -98 -99
leaf_value=-0.022298318572968445 0.0016665930682508623 -0.018339095579834468 0.034194749769495186 0.0076200582043840824 0.040820935663874562 -0.0013538787768334927 -0.021206300002467239 0.019553846619748225 -0.0081427710978927148 -0.020986248811585409 0.047864211589772901 0.0049518825073277296 0.062155645576451382 -0.01080469303782642 0.011828029926766029 -0.011574047084242582 -0.015794665909776958 -0.0017256994737052285 -0.027033543341060586 -0.010439382733401455 0.00065060615294447932 0.005611200236997068 -0.011773248505707866 -0.0076053724531935018 -0.013748107496880916 0.027166900009178596 -0.010829681195746767 -0.004059635429116035 0.0020317792770307825 -0.0073294546713488021 0.031668420979493593 -0.029310322727445333 0.0082723428469997293 0 0.018013462302590769 0.0087843099720984284 0.003116642771610249 0.021486003635022101 0.0091013628624818394 -0.0021099799987957728 -0.0027971103682449573 -0.00032551600528616699 -0.010724913274455596 -0.0020521623750727361 -0.0074981246754725842 -0.0043303703744346743 -0.0039994416494952365 0.0055544125263914321 0 0.019683083329878764 0.034474585385544328 0.030016125245083944 -0.01605091617442991 -0.017703480878498754 -0.015798427184948362 0.03491062306932901 -0.022178038033280754 -0.012722016362344846 0.040598514297343902 -0.019239872372926459 -0.0079346909428864906 0 0.0016302270027142738 0.034827153037034042 -0.02542366602493212 0.023239780140155698 -0.018557183135887469 0.0050479327283372774 0.013085451233407298 0.0084142717224761476 0.0094549471842016522 -0.0063014846878759016 -0.023010189860395679 -0.029126796682495949 -0.0084911967138993748 0.0047017959732968684 0.0037773973146110204 0.053347425187854049 -0.0040713076064667958 0.019062020331943388 0.0068004205489087298 0.011868356081959732 0.025602783354564004 0.013432929427118595 -0.011089975337084324 -0.01056439903037755 -0.00093665601810717734 -0.0081700355797375123 0.023929809164824886 0.050710722173639436 0.028454710515188025 0 -0.0055128391662655069 0 -0.043920187688435308 0.033516183873545442 -0.0032550051112956073 0.015582944079294635
leaf_weight=93 68 129 192 27 142 649 418 38 49 1086 63 342 146 71 100 344 531 112 270 386 1601 564 165 253 167 159 575 130 676 144 12.999999999999998 25 84 19 1021 10.999999999999998 175 27 1081 231 346 15.999999999999998 105 63 32 748 1739 129 11.999999999999998 538 133 263 188 1214 1172 20 144 495 189 370 488 10.000000000000002 300 611 216 571 12.999999999999998 10.000000000000002 477 326 139 12.999999999999998 591 579 12.999999999999998 26 30 170 303 84 716 132 427 256 359 83 15.999999999999998 263 209 175 242 11.999999999999998 166 9.9999999999999982 42 25 9.9999999999999982 47
leaf_count=93 68 129 192 27 142 649 418 38 49 1086 63 342 146 71 100 344 531 112 270 386 1601 564 165 253 167 159 575 130 676 144 13 25 84 19 1021 11 175 27 1081 231 346 16 105 63 32 748 1739 129 12 538 133 263 188 1214 1172 20 144 495 189 370 488 10 300 611 216 571 13 10 477 326 139 13 591 579 13 26 30 170 303 84 716 132 427 256 359 83 16 263 209 175 242 12 166 10 42 25 10 47
internal_value=0 -0.00991295 0.0212322 0.0146248 0.0378541 -0.00269211 -0.0182662 0.0201206 -0.0148813 -0.02331 0.0331442 0.000651999 0.0512494 -0.00710289 0.00915859 -0.0131686 -0.0116608 0.00267603 -0.02172 -0.0135857 0.00198299 0.00433424 -0.00552143 -0.00922512 -0.0205665 0.023239 -0.00795961 -0.00964016 -0.0012877 -0.0116237 0.0566519 -0.028078 0.0172121 0.0163847 0.0176868 0.0209544 0.00792337 0.00894362 0.00830054 -0.00215644 0.00021916 -0.0166376 -0.00465445 -0.00800641 0.00154244 -0.00297729 -0.00428931 0.00104025 -0.0179676 0.0222886 0.0296568 0.0285477 -0.0180637 -0.0186261 -0.0146724 0.0458521 -0.027224 -0.0149098 0.0370837 -0.0176093 -0.0094893 0.00592148 0 0.0362425 -0.0217543 0.0215518 -0.0362705 0.0118572 0.01205 0.0112407 0.00633945 -0.0240995 -0.0227193 -0.0282435 0.00611882 0 -0.00216219 0.0575484 -0.00575407 0.015356 0.00640807 0.0137625 0.0273451 0.01228 -0.0100959 -0.0145237 -0.00977353 -0.00965608 0.0233612 0.049303 0.0273949 0.00132403 -0.00474198 -0.00726254 -0.0390881 0.0442596 -0.00205607 0.0132383
internal_weight=0 19415 9038 6469 2569 10416 8999 3222 5390 3609 1903 5919 666 4497 3247 3475 1749 2907 2713 917 2406 676 2588 1909 1839 1548 1261 705 3012 648 329 896 1674 1380 1040 294 2238 1415 1256 1928 1084 145 1931 657 708 1397 1810 1730 1915 1268 1015 823 1903 1632 1726 337 816 1667 888 537 832 501 531 800 1302 1109 80 1009 987 803 481 874 604 672 823 39 376 316 556 184 784 159 690 340 503 271 121 428 220 195 280 22 229 59 67 88 20 74
internal_count=28453 19415 9038 6469 2569 10416 8999 3222 5390 3609 1903 5919 666 4497 3247 3475 1749 2907 2713 917 2406 676 2588 1909 1839 1548 1261 705 3012 648 329 896 1674 1380 1040 294 2238 1415 1256 1928 1084 145 1931 657 708 1397 1810 1730 1915 1268 1015 823 1903 1632 1726 337 816 1667 888 537 832 501 531 800 1302 1109 80 1009 987 803 481 874 604 672 823 39 376 316 556 184 784 159 690 340 503 271 121 428 220 195 280 22 229 59 67 88 20 74
is_linear=0
shrinkage=0.2


Tree=9
num_leaves=99
num_cat=0
split_feature=0 0 0 0 0 0 0 0 0 0 0 0 0 0 0 3 43 43 2 59 59 0 45 43 29 3 3 26 29 5 43 3 3 15 61 13 10 25 8 57 2 13 3 47 2 14 18 2 11 5 3 9 60 2 14 0 3 15 11 40 12 13 3 59 2 57 48 15 12 3 60 60 2 57 3 59 43 57 0 51 11 35 59 23 2 45 11 12 37 3 10 5 0 40 54 52 11 0
split_gain=96.1538 18.1581 16.4901 3.04952 2.77803 2.48297 2.37589 0.587808 0.467422 0.35408 0.333452 0.325171 0.275552 0.26622 0.203524 0.116886 0.131388 0.11347 0.104603 0.103319 0.100667 0.115644 0.0949138 0.0921141 0.0895268 0.0998579 0.0879209 0.0828998 0.0795158 0.0781112 0.0759831 0.0936795 0.0754937 0.0738029 0.071455 0.0686995 0.0684798 0.0674492 0.0660626 0.0750627 0.0647486 0.0641196 0.0629929 0.0623835 0.0608759 0.0563178 0.0550039 0.0537392 0.0578813 0.0501243 0.056543 0.0500478 0.0929087 0.0538658 0.0513545 0.0473607 0.0468409 0.0519539 0.0460734 0.04516 0.0444686 0.0429539 0.0419668 0.0408223 0.0397776 0.0371789 0.0366405 0.0359813 0.0351872 0.0466253 0.0330935 0.0320319 0.0319502 0.0284463 0.0273162 0.0254099 0.024986 0.0246678 0.0205603 0.0203802 0.018202 0.0160381 0.0154963 0.0148503 0.0132952 0.012486 0.0123274 0.0116223 0.0112629 0.0090373 0.00836919 0.00764635 0.00667084 0.00479336 0.004692 0.000914313 0.000831624 0.000594934
threshold=12.50706290122009 12.042847142936159 13.116983872229396 13.524945271967759 12.77219632535974 12.266707902581294 11.764165856298336 11.894058706231126 13.799880034966142 13.263000482842962 12.362043403314821 12.910002693922609 11.626070024758652 12.151475424432141 12.609341643946514 0.76366500602378473 -0.017015679471431362 -0.044628295166704975 0.2954068686306634 2.3932326144646185 2.4901749185031918 12.530841846563574 0.18357142383945418 0.056756396517862594 -0.41308514779288236 1.0022506765788857 -0.91045634014337506 -0.49797747567408041 -0.73503319618815477 -0.94665386026240117 -0.057824893300688109 0.77632484216759179 1.7463963720250708 0.3493498167864571 1.2473765971040605 -0.51358983283418158 0.50842667963426991 -0.9519717504825036 0.067454430627134007 1.7071575382253619 -0.443911487302658 1.8325842500039891 -1.1166883974120778 0.46827574950941681 0.036948342135232799 -0.97704339848817578 1.7659229992647696 0.13923574407060371 -0.4695594876959398 -0.19743400693647994 0.74910412713722008 -0.49005047914338917 -0.33495754555971063 0.49928500521829006 -0.96073784341495527 12.69677258956939 -1.3781545333167164 0.3493498167864571 2.2190288506447593 -0.0012141061059176661 -0.19771178999850836 -1.5190215507746441 -0.14022728358933467 -0.76733107827438929 -2.0700115925100948 -0.39730272834849295 -0.23547036265352581 -0.12147956583502273 -0.2738704988345077 0.74910412713722008 -0.49259218969519142 0.20027618264963196 -0.66875851938246489 -0.55224170989078158 0.67412657960813205 -0.095155785313795538 -0.38162009830742977 0.13358787902632246 12.212945945063128 2.3645732929165315 -0.70492406639973348 -0.67516550106472051 -0.76559087945107851 -0.042994292833967614 0.017822784690033646 0.17669520079534126 -0.97775081878080095 2.0189409090793928 -0.22615827956143619 0.68631676976356759 -1.6581665381580757 -0.055517595197932257 12.336508298134786 -0.29306915269596484 -0.20828710865961461 -0.42300522880502633 2.4556919700244211 14.109708310489122
decision_type=2 2 2 2 2 2 2 2 2 2 2 2 2 2 2 2 2 2 2 2 2 2 2 2 2 2 2 2 2 2 2 2 2 2 2 2 2 2 2 2 2 2 2 2 2 2 2 2 2 2 2 2 2 2 2 2 2 2 2 2 2 2 2 2 2 2 2 2 2 2 2 2 2 2 2 2 2 2 2 2 2 2 2 2 2 2 2 2 2 2 2 2 2 2 2 2 2 2
left_child=1 6 4 9 14 13 12 18 32 34 33 51 49 24 20 16 36 22 23 47 30 -22 37 61 35 29 60 73 85 -26 31 -2 94 40 81 43 -9 -12 39 -19 76 -18 -30 -3 -40 -11 55 86 -49 50 82 53 96 90 -54 77 -47 -58 -32 79 71 -8 -10 91 -25 92 -37 -42 69 -28 -65 -14 -48 84 -23 -57 -7 -16 -75 -20 -52 -4 -1 -67 -15 -29 -13 -83 -27 -24 -6 -17 -35 -55 -5 -70 -53 -64
right_child=2 5 3 8 11 10 7 15 62 45 17 19 26 27 46 63 41 38 59 -21 21 74 89 64 25 88 68 28 42 -31 58 -33 -34 65 -36 66 -38 -39 44 -41 67 -43 -44 -45 -46 56 72 48 -50 -51 80 52 54 93 -56 75 57 -59 -60 -61 -62 -63 97 70 -66 83 -68 -69 95 -71 -72 -73 -74 78 -76 -77 -78 -79 -80 -81 -82 87 -84 -85 -86 -87 -88 -89 -90 -91 -92 -93 -94 -95 -96 -97 -98 -99
leaf_value=-0.028867902342220454 0.0057119296562997508 -0.01272910322107532 0.026032954408134482 0.039626545754394935 0.01176263686994472 -0.0017196251799723662 -0.01895650367172998 -0.011635834781475 0.048228458199124601 0.0071861483503964348 -0.0039736937160141138 0.0049033891791592892 -0.014820742346614424 -0.0042129677777701059 0.0079336930417610915 -0.0030485091969367265 -0.0083822914312901998 0.0053055561444633739 -0.015598753881450812 0.011783063774146806 -0.015186499795482864 -0.0016723624548816694 0.0053256147515718423 0 0.0019128177296181251 -0.0081231359938690444 -0.018021176213255757 -0.0063039963256528416 0.0020335551804600625 -0.00559835830631097 0.0083331089799670594 0.00039987180811772578 0.021611914598585674 -0.0040567042857543598 0.016304456783751902 -0.0047806506936413041 -0.0068125198241019494 0.0005334257399885995 0.003116356031845297 0.0018099766032103903 -0.0025656305045208185 0 -0.0031336340632817832 -0.0057950559313649994 -0.0023213593835301719 0.037175989257810661 0.0036955255641313977 0.013982892759689766 0.018315109688765829 -0.014177412474187049 -0.016796460671775683 0.015908530951997395 0 0 0.010818665361403216 0.011258380244671122 0.026092019610766973 0.031124214724575251 0.0036201910527032832 -0.01942591234585157 -0.019000952420263634 -0.014234144009631156 0.039156472102453932 -0.024754887630290261 -0.011502040782016006 0.00020915251605015681 -0.0083263943807971984 -0.0065061638984610787 -0.015787699842514182 -0.024641037181024367 -0.013807211261814112 0 0.013449114254885507 -0.0075789285331623775 0.0045403329613774874 0.0080570798161901155 0.00074812499387786333 0.0050906342467843674 -0.0032412649895165535 -0.0040060548608701297 -0.036820171504769204 0.020926115820540055 -0.022498091165716824 0.0027106804060519521 -0.011053832427728833 -0.001694670874464201 0.019471216987730251 0.027761815318631495 -0.01394147111712123 0 0.021478830087909722 -0.010209232762421264 0 0.010273303101653712 0.033346143764695232 -0.022235034501343884 0.00885597357748104 0.048160039681359804
leaf_weight=76 608 280 164 106 27 315 146 1583 177 10.999999999999998 144 9.9999999999999982 395 38 602 30 897 598 496 164 17 31 172 18 50 93 917 426 92 1030 603 192 35 67 138 225 175 1612 168 496 1004 42 1266 95 157 43 28 368 417 39 10.999999999999998 270 10.999999999999998 9.9999999999999982 659 333 850 214 136 302 255 1353 210 22 492 284 626 122 49 85 455 9.9999999999999982 171 119 83 377 317 287 152 15.999999999999998 40 540 387 183 107 52 813 53 69 17 86 48 42 31 302 437 29 53
leaf_count=76 608 280 164 106 27 315 146 1583 177 11 144 10 395 38 602 30 897 598 496 164 17 31 172 18 50 93 917 426 92 1030 603 192 35 67 138 225 175 1612 168 496 1004 42 1266 95 157 43 28 368 417 39 11 270 11 10 659 333 850 214 136 302 255 1353 210 22 492 284 626 122 49 85 455 10 171 119 83 377 317 287 152 16 40 540 387 183 107 52 813 53 69 17 86 48 42 31 302 437 29 53
internal_value=0 -0.00809216 0.0167227 0.0292424 0.0110181 -0.00244142 -0.0147954 -0.0125823 0.0391242 0.0248871 0.000361905 0.0156042 -0.0197577 -0.00583439 0.00717779 -0.0107023 -0.0100962 0.00164214 -0.0147334 0.0173593 0.00551896 0 0.000622939 -0.0138378 -0.00729263 -0.00598195 -0.0186438 -0.00421786 -0.00359216 -0.0052122 0.00597227 0.0044889 0.0341092 -0.00146553 0.0216932 -0.00858657 -0.0111793 0.000140191 0.00300991 0.00375865 -0.00211358 -0.00802425 -0.00275302 -0.0110831 0.000361844 0.0274069 0.00869544 0.0179022 0.0163371 -0.0240094 -0.0246747 0.012798 0.0121027 0.0169034 0.0105856 0.00822273 0.0275703 0.0271431 0.00752193 -0.0168927 -0.0163192 -0.0147218 0.044079 -0.0135727 -0.0111583 0.000440324 -0.00743768 -0.00302943 -0.019647 -0.0186242 -0.0143991 -0.0145282 0.0122853 -0.00687958 0.00248692 0.00961698 -0.000416188 0.00706253 -0.00529912 -0.0153175 -0.033315 0.0226207 -0.0236333 0.00127826 -0.00954723 -0.00588937 0.0193446 0.021607 -0.0108575 0.0048886 0.0195245 -0.0079871 -0.00276906 0.00866733 0.0350795 -0.0216704 0.0153633 0.0411287
internal_weight=0 19194 9259 2896 6363 10418 8776 6075 883 2013 5698 2895 2701 4720 3468 3252 2697 3364 2823 1772 1670 131 1945 2009 2468 1242 2148 2252 1836 1080 1539 800 443 2334 895 1226 1758 1756 1419 1094 1758 939 1358 375 325 1118 1798 1608 785 553 514 1123 969 154 670 1599 1107 1064 739 814 660 1499 440 555 510 576 851 1126 1488 1002 477 405 199 416 114 710 632 889 271 512 51 757 463 467 145 478 823 593 162 189 113 78 109 41 408 486 299 263
internal_count=28453 19194 9259 2896 6363 10418 8776 6075 883 2013 5698 2895 2701 4720 3468 3252 2697 3364 2823 1772 1670 131 1945 2009 2468 1242 2148 2252 1836 1080 1539 800 443 2334 895 1226 1758 1756 1419 1094 1758 939 1358 375 325 1118 1798 1608 785 553 514 1123 969 154 670 1599 1107 1064 739 814 660 1499 440 555 510 576 851 1126 1488 1002 477 405 199 416 114 710 632 889 271 512 51 757 463 467 145 478 823 593 162 189 113 78 109 41 408 486 299 263
is_linear=0
shrinkage=0.2


Tree=10
num_leaves=97
num_cat=0
split_feature=0 0 0 0 0 0 0 0 0 0 0 0 0 60 44 59 0 3 58 29 3 58 3 13 50 27 60 4 5 40 12 46 3 40 57 3 46 4 7 35 12 5 9 11 3 35 10 8 3 3 10 4 29 59 52 22 57 43 3 34 1 3 45 3 3 4 3 60 12 0 38 29 49 59 8 3 36 3 46 3 15 37 0 45 41 2 2 50 53 12 12 3 0 3 3 3
split_gain=61.6843 11.6132 10.5899 2.49546 1.50175 1.48177 1.35074 0.431524 0.322252 0.298253 0.290396 0.177594 0.138026 0.119177 0.11619 0.137237 0.10184 0.0922094 0.106275 0.0911581 0.089691 0.0851936 0.0791021 0.0862748 0.0787693 0.103983 0.0766135 0.0730418 0.0727031 0.0696818 0.0691564 0.0688841 0.0642073 0.0635175 0.0632264 0.0642587 0.0592454 0.0724316 0.0685217 0.0578164 0.0578034 0.0539579 0.0522717 0.0519855 0.0636029 0.0512442 0.071801 0.0742256 0.0566858 0.0506084 0.0503051 0.058746 0.0486835 0.0473746 0.0448202 0.0477231 0.0419757 0.0405374 0.0405096 0.041561 0.0390928 0.0372904 0.0353024 0.0407997 0.0333519 0.0318318 0.0296455 0.0282597 0.0279966 0.0276131 0.0274718 0.0256208 0.024718 0.0236012 0.0214705 0.0197472 0.0165689 0.0155996 0.0154781 0.0137482 0.0124974 0.0118735 0.0118033 0.0105546 0.00955076 0.0123896 0.00936145 0.0059331 0.00432025 0.00614866 0.0138093 0.00349592 0.00251403 0.00237379 0.00228531 0.00182227
threshold=12.50706290122009 12.052148818988902 13.202496528636475 12.795884605203319 12.246963957508818 11.750685705845553 13.799880034966142 11.907610846675913 13.004899012918955 13.436568276022788 12.415825865101807 12.603933816845396 11.554594977658661 -0.7741351324041692 -0.62572954297949757 -0.10566191643988548 12.126199683828796 1.8660710013246973 0.35939188629650409 -0.58987283045677252 -0.16589076351630164 -0.45730740393496977 -0.91045634014337506 -1.3717464229417413 -0.89372708688269287 0.24390478398593327 -0.58292609294527986 0.92781602597496426 -1.0389120958977511 0.0032603410662791366 -0.71509783371652846 -0.032368305616962932 0.83173873934904896 -1.0837682574352183 -0.58425952145206217 1.9434021622986111 -0.14039035275379366 0.0088478045739275538 -0.76277935986806089 -1.5791673013941296 -0.83491729111057478 -0.90370876178164006 -1.1282687815639756 -0.98693842177259528 -0.19438837270804224 -1.3655012841437593 -0.69416282991981826 -0.36753791857098245 -0.59659890356440248 0.74910412713722008 -1.6272984733971325 0.6320561386275042 0.030803414977098802 -0.027265547343621622 -0.1978140154018288 0.40684588929967169 0.29321709841221744 -0.044628295166704975 0.088648331185462656 -0.087491172671022965 -1.1634486093550043 -1.0969870405765578 0.20094602669067038 0.97377716769917211 0.12736729608666189 1.5246172272296608 0.97377716769917211 0.037957299098154255 -0.55614382630652315 13.986036283100498 -0.28146749835497853 -0.58987283045677252 1.8093854587311176 -0.23047631337431848 0.56854417990874351 -1.9489564177618994 0.74214463915673468 -0.73009410591226243 0.40516574401918265 2.3425079294825064 -0.47691436347067917 0.63275203356021115 12.461258417692846 0.0089911827124715699 -0.19799666453836681 -0.31664133098204611 1.2039823343673834 -0.17081425893240895 0.59667634762995314 -1.1192536505696762 -0.55231370136845004 -0.094448359049510336 12.487571251722313 0.527295946331518 -1.6415725339691389 1.6416609152938448
decision_type=2 2 2 2 2 2 2 2 2 2 2 2 2 2 2 2 2 2 2 2 2 2 2 2 2 2 2 2 2 2 2 2 2 2 2 2 2 2 2 2 2 2 2 2 2 2 2 2 2 2 2 2 2 2 2 2 2 2 2 2 2 2 2 2 2 2 2 2 2 2 2 2 2 2 2 2 2 2 2 2 2 2 2 2 2 2 2 2 2 2 2 2 2 2 2 2
left_child=1 5 3 11 16 12 9 14 36 57 13 29 88 75 52 60 45 24 87 62 -11 68 53 -24 76 -26 -22 43 -10 31 40 49 -28 77 35 -31 38 71 41 -17 -23 -5 -32 -18 -45 84 47 -47 -48 -2 83 -52 56 -15 70 -56 -7 80 72 -60 -16 -36 63 -14 -40 66 -8 86 73 -67 -21 -38 -30 -13 -33 -6 -9 92 -77 -39 -4 -70 -79 -35 85 -3 -29 -19 89 -1 -91 -86 -12 -69 -59 -82
right_child=2 4 6 8 10 7 65 17 28 20 33 21 19 22 15 39 27 18 -20 54 26 30 23 -25 25 -27 32 67 58 34 42 74 -34 50 61 -37 37 79 64 -41 -42 -43 -44 44 -46 46 48 -49 -50 -51 51 -53 -54 -55 55 -57 -58 94 59 -61 -62 -63 -64 -65 -66 69 -68 93 81 -71 -72 -73 -74 -75 -76 78 -78 82 -80 -81 95 -83 -84 -85 91 -87 -88 -89 -90 90 -92 -93 -94 -95 -96 -97
leaf_value=-0.007192063583546595 0.0044252841724611901 -0.00091558654302347983 0.017129481512961928 0.006673004538051374 0.010350260541162233 -0.01268785256123031 0.03791525929208546 -0.006314407387474217 1.4056310852649792e-05 0.029606760575510212 0.002683288168595636 0.007783711433610784 -0.016905083666874182 0.0018949443205452392 -0.0035484286514780128 -0.0074817699381997151 -0.012233200490238962 -0.01043339996630558 -0.028391716277613461 -0.014264488619040269 0.029457018127262757 0.0071910575950258106 -0.010810340092300761 -0.0015050748866601979 -0.0096115248964188313 -0.0067796223183025379 0.024705564547817242 -0.0064682930371124372 0.017700474429413277 0.00027035125431169155 0.014793191861901409 0.0078881068174822943 0.017926635428688675 0 0.01161759828099726 -0.016088293608439819 0.010321330289673969 0.0099921988919808476 0.012627260219745027 -0.012733540692770526 0 -0.0055527289506583938 0.0083636227307691356 -0.0013276880943325687 -0.0039724267285021347 0.00023794404898061156 -0.0029080209029334553 -0.010119857423280698 -0.0063700867155582989 -0.00097174330662554869 0.0035281106275253347 0.00080827645650510891 0 -0.0022949842875411033 -0.015892348938058073 -0.0099376480663831545 -0.016376984344231148 0.031284236005709752 0.016957967253275728 0.013201600039246631 -0.0090818836023415402 0.0032365254789751478 -0.0013463878380863428 -0.024778947056541913 0.0086783787902726239 0.016820403767299704 0.029884842019945713 -0.0036454742868311388 0.0038229072060456636 0.03224675883979318 -0.010324275126180114 0.014692686136933815 0.0070090865058297803 0 0.0033548358699266854 0 -0.002760809032441349 -0.0034773649435017595 0.0023458370702064912 0 0.021338640077088786 0.0082197308351204691 0 -0.0033297734288903398 0 0.0057998751607937007 -0.011152154617083285 0 -0.015311013548427328 -0.026171318691508263 -0.019475803523524647 -0.0038050700653112866 0 0 0.021713086609650066 0.0087811969639822549
leaf_weight=9.9999999999999982 316 13.000000000000002 352 45 12.999999999999998 1022 300 289 17 264 32 249 642 448 82 136 29 28 23 263 121 112 42 3032 1696 947 238 302 636 169 73 392 160 52 27 9.9999999999999982 142 318 244 1050 81 18 1048 588 1261 22 298 292 966 74 1201 491 13.999999999999998 135 786 101 257 22 320 560 797 499 10.999999999999998 54 333 22 83 151 482 39 283 573 22 20 86 131 125 101 373 12.999999999999998 234 47 57 58 22 15.999999999999998 52 9.9999999999999982 66 74 177 36 11.999999999999998 10.999999999999998 499 11.999999999999998
leaf_count=10 316 13 352 45 13 1022 300 289 17 264 32 249 642 448 82 136 29 28 23 263 121 112 42 3032 1696 947 238 302 636 169 73 392 160 52 27 10 142 318 244 1050 81 18 1048 588 1261 22 298 292 966 74 1201 491 14 135 786 101 257 22 320 560 797 499 11 54 333 22 83 151 482 39 283 573 22 20 86 131 125 101 373 13 234 47 57 58 22 16 52 10 66 74 177 36 12 11 499 12
