tree
version=v3
num_class=1
num_tree_per_iteration=1
label_index=0
max_feature_idx=63
objective=regression
feature_names=target target_4_week_logdyn target_13_week_logdyn target_26_week_logdyn KeyRate CPI VIX PPI MortgageRate30 Electricity Water Plywood Steel Glass Concrete Unemployment Yield10Y DJI S&P500 KeyRate_4_week_logdyn CPI_4_week_logdyn VIX_4_week_logdyn PPI_4_week_logdyn MortgageRate30_4_week_logdyn Electricity_4_week_logdyn Water_4_week_logdyn Plywood_4_week_logdyn Steel_4_week_logdyn Glass_4_week_logdyn Concrete_4_week_logdyn Unemployment_4_week_logdyn Yield10Y_4_week_logdyn DJI_4_week_logdyn S&P500_4_week_logdyn KeyRate_13_week_logdyn CPI_13_week_logdyn VIX_13_week_logdyn PPI_13_week_logdyn MortgageRate30_13_week_logdyn Electricity_13_week_logdyn Water_13_week_logdyn Plywood_13_week_logdyn Steel_13_week_logdyn Glass_13_week_logdyn Concrete_13_week_logdyn Unemployment_13_week_logdyn Yield10Y_13_week_logdyn DJI_13_week_logdyn S&P500_13_week_logdyn KeyRate_26_week_logdyn CPI_26_week_logdyn VIX_26_week_logdyn PPI_26_week_logdyn MortgageRate30_26_week_logdyn Electricity_26_week_logdyn Water_26_week_logdyn Plywood_26_week_logdyn Steel_26_week_logdyn Glass_26_week_logdyn Concrete_26_week_logdyn Unemployment_26_week_logdyn Yield10Y_26_week_logdyn DJI_26_week_logdyn S&P500_26_week_logdyn
feature_infos=[11.180217699826681:14.212723712160317] [-8.4953863516429653:8.0061326944833624] [-5.5655206242767905:5.0696115792062368] [-5.5071119764350334:4.5233528803490817] [-0.82033616531091569:3.7111278229769544] [-1.8664804737405434:2.4541615261949055] [-1.2426316171607139:6.362582875651924] [-1.1898259341349733:2.8531393292879734] [-1.6082039823003136:3.8939579705957832] [-1.4345035333603164:3.2082684136560093] [-2.4520104311283442:1.776667496602768] [-1.1473917129697329:3.7389783760149022] [-1.129974520621404:2.5842130401434291] [-1.7083530648256595:2.3635582017658185] [-1.6544386460994471:2.6757252780465928] [-0.96299985156145229:4.7043728319569862] [-2.1734398846281451:2.878277413335947] [-1.9209748566795761:1.820042400312839] [-1.8026184164076979:2.1320959779097994] [-8.6371211416160207:3.8443431921053035] [-3.4901389837657066:3.4258649319249788] [-2.9005086283593848:5.4601333314142924] [-3.4488926776763256:3.2578995924536507] [-2.2443967786109935:4.4500422997416855] [-5.2193025523310626:5.007767821751651] [-5.0377664666562483:4.7163862229244096] [-5.3127849774391311:3.1873929261357015] [-2.3735887170033525:3.959124786270543] [-5.9159259830459741:4.155305345395079] [-1.9865029562070635:3.6550588900063099] [-1.7092694482164521:11.188054794315493] [-6.4987773214229723:2.6581986054963957] [-9.0245892644891761:4.8982854126234399] [-8.2434180579483698:4.6753093757868793] [-4.9562685829197273:3.1447919810248517] [-2.7966921698530944:2.5295048437883967] [-2.3702640424354233:4.6351660089944451] [-3.1086017250998981:3.5682959217993422] [-1.5631475213991415:3.7724055345145806] [-1.8225352780037547:3.1123708652684101] [-3.823238071916542:3.1582788898270513] [-4.9345447393000024:2.9176373339402923] [-2.081748214333567:3.0410840743932557] [-3.7571174411856627:2.6312545813603516] [-1.3311790277138944:2.7002455871236672] [-1.9667440503048235:6.579051950695094] [-4.4011622054047423:2.4580048316498777] [-6.0526449863355785:4.0685802935932243] [-5.1964939504722976:3.981787096012575] [-3.5248500660126183:3.0038988678842604] [-23.961848227839173:2.4919075240534885] [-2.6445798222451122:3.6359739134760232] [-6.525098881147783:3.567621910039946] [-1.90731620275403:3.7594571111847452] [-14.196666736171535:3.103786367898806] [-49.5377278712498:1.4373174109708688] [-3.2214065289566229:3.6968412750460327] [-3.0749989570719989:3.1106024609130629] [-23.961761757854902:2.7217531370408916] [-24.786627397243429:2.6491235185016122] [-2.4919544478626579:4.9045221794446574] [-3.0420909811751868:2.4711747992394724] [-13.732081811145543:3.6533720724995269] [-14.828267633441513:3.4480278491812459]
tree_sizes=3781 3951 3985 4000 4042 4069 4083 4114 4123 4159 4169 4187 4186 4210 4209 4201 4224 4227 4244 4278 4218 4213 4170 3604 3879 4211 4023 4049 3466 3370 4231 3133 3861 4263 3604 4236 3422 3216 2726 3018 3128 2166 2845 2838 3081 1990 2719 2646 3596 2803 2918 2641 3771 3423 3577 2668 2273 3410 2685 3384 2815 2357 2462 2654 3492 3315 3395 4065 3680 3317 3398 3926 3221 4188 2654 3186 2757 2624 4276 2846 2857 2481 2857 4152 3381 3625 3142 4251 3798 3892 3589 3752 4241 3136 3477 3276 3549 3457 3374 3021 3206 1904 3514 4197 3775 3218 4194 2724 3885 4226 2258 3181 2725 4228 2587 3754 2278 4216 4028 2751 2846 2382 4052 4245 3575 3593 4243 3044 3587 3016 3879 3687 4162 4239 2951 2750 3366 2355 3213 3009 3887 3068 3323 3301 4007 4136 3055 3723 3510 3585 3122 2915 3210 3500 2192 3034 2793 2845 2565 2929 3878 4205 2849 2835 2383 4147 4067 3809 4275 3321 4236 3333 3419 3073 3031 2859 2936 4300 3781 4256 3642 4068 3813 4230 4070 2270 4237 3579 4243 2747 3323 2601 3211 2102 3995 3812 4226 1826 2843 3617 3239 3409 2784 2675 3913 3251 3314 3950 3124 4243 3322 2781 3991 3385 3229 3923 4257 4278 3403 3315 3380 3986 4254 3238 2663 2833 2832 3820 3981 4291 4271 4231 3616 3984 2859 4281 2734 3790 3021 3275 4254 4293 3329 4244 2678 4009 2767 4286 4012 2233 2664 3393 3650 4264 2648 3027 3427 3825 4282 2882 3518 3591 3160 4109 2762 2886 2647 4169 2946 3023 3969 2297 4280 2942 3436 2755 3784 4289 2286 3065 3736 3432 4279 4308 3717 3059 2945 4269 2392 4279 2682 4302 2572 4249 3327 3919 3474 3847 3407 4304 3432 4275 4342 4167 4278 4324 3795 4020 3179 3692 3994 4282 4264 3530 2408 3348 3646 3554 2503 2979 2086 4091 4299 2124 3151 3905 4280 4265 4285 3394 3278 4272 4278 4310 2390 3715 4265 2684 4238 3246 3960 3055 4259 3518 4323 4306 3249 4256 3731 2690 3497 3381 3705 2386 2221 2217 3534 4265 3124 3801 3126 3460 3433 3738 3008 3516 4290 4219 3835 3254 3684 2099 4282 3420 3803 3072 3108 4294 3794 3537 2583 3269 2738 3616 2760 3798 3645 3620 2941 4316 3328 4109 3693 3541 4173 3712 2927 4284 4319 3049 4287 3106 2866 4232 3520 3890 3918 4181 2672 2794 3692 3157 4285 4302 3966 3164 3838 2975 4251 3899 4013 3984 4017 2423 4267 3430 4282 2790 4112 3950 2487 3126 4075 4299 3070 4290 3626 4266 4268 3425 3295 3240 3707 3607 4285 3883 4239 3332 3534 3070 3995 4311 4278 4279 4295 3712 4280 2479 4197 3456 3720 4103 4074 3359 2202 4307 2809 3362 4283 4258 4182 3061 4277 3162 3929 4290 3142 2794 3640 2982 3822 3505 3176 3737 4248 3452 3723 4093 3053 4180 3250 3649 3887 3832 4191 4184 3059 3927 4301 4284

Tree=0
num_leaves=44
num_cat=0
split_feature=0 0 0 0 0 0 0 0 0 0 0 0 0 0 0 0 0 0 0 0 0 0 0 0 0 0 0 0 0 0 0 0 0 0 0 0 0 0 0 0 0 0 0
split_gain=5600.44 1215.39 823.495 166.745 151.217 146.326 141.262 29.2257 24.4645 23.4239 22.0151 20.0507 18.3806 15.619 13.5018 9.90701 4.33802 4.09396 3.02575 2.68267 2.52984 2.51217 2.50983 2.48778 2.32433 2.28386 2.2101 2.01502 1.97187 1.80599 1.62297 1.43989 0.808373 0.620262 0.608664 0.564639 0.427157 0.426693 0.414877 0.396668 0.393619 0.385378 0.380118
threshold=12.58071040274084 12.099317073001043 13.174744113983285 11.847622912833524 12.848937993686153 13.633627905115963 12.338709810325332 11.697039123184743 13.375822038924566 11.975456711266524 12.217872156473943 12.457554796884603 13.006896508528513 13.862826354174866 12.703171241226631 11.558432606548342 11.771084322146715 13.503740806521646 11.90934417755245 12.276625652398407 13.086922647819373 12.396316053895566 12.037113670416327 13.26929951536418 13.97612049516861 12.514710407666657 12.159257388524335 12.932228119430706 12.779147619342632 12.639184486212384 11.469574484868277 13.687155752758846 11.640873417742247 11.816713339845009 13.446784048951395 14.107469598648807 13.234975338862947 11.877479545442428 13.806719774745931 12.067596447365185 11.738189206609681 13.311590154449005 11.939298177871732
decision_type=2 2 2 2 2 2 2 2 2 2 2 2 2 2 2 2 2 2 2 2 2 2 2 2 2 2 2 2 2 2 2 2 2 2 2 2 2 2 2 2 2 2 2
left_child=1 3 4 7 14 8 10 15 23 18 26 21 27 31 29 30 40 34 37 -12 -14 -8 -11 36 -15 -13 -3 -6 -16 -2 -1 -7 -17 -18 -10 -26 -4 -5 -33 -24 -9 -25 -20
right_child=2 6 5 9 12 13 11 16 17 22 19 25 20 24 28 32 33 -19 42 -21 -22 -23 39 41 35 -27 -28 -29 -30 -31 -32 38 -34 -35 -36 -37 -38 -39 -40 -41 -42 -43 -44
leaf_value=12.136306046010072 12.445816224316179 12.32614957250151 12.593767500246027 12.2591443210653 12.517664238371736 12.707365809747325 12.385618831138551 12.223369075154455 12.645616263285891 12.29599709883168 12.355845474254977 12.415587971773853 12.555376720709255 12.774928295963262 12.47809765717531 12.196872020200528 12.242239194702051 12.685856250587406 12.274813009053274 12.370993480086488 12.57559476684049 12.399813561258796 12.306615396312413 12.616127316734758 12.805819035729684 12.430709661562421 12.341094608713032 12.536624467374461 12.496941263510907 12.461764230116525 12.17165238239788 12.730786584486024 12.210997068213624 12.25194077741943 12.661878211544993 12.830003666868912 12.607356092340634 12.267728588478994 12.751867289386098 12.31490868923296 12.232018749547807 12.630228824738808 12.283034486202386
leaf_weight=123 946 1440 362 720 842 120 1555 721 362 1443 1304 1313 836 119 837 361 949 358 601 1662 720 1562 724 240 124 1190 1084 600 593 836 239 120 849 728 239 118 241 728 114 718 605 245 847
leaf_count=123 946 1440 362 720 842 120 1555 721 362 1443 1304 1313 836 119 837 361 949 358 601 1662 720 1562 724 240 124 1190 1084 600 593 836 239 120 849 728 239 118 241 728 114 718 605 245 847
internal_value=12.39 12.3208 12.556 12.2592 12.5055 12.6696 12.3783 12.2235 12.6356 12.2874 12.3497 12.4061 12.5459 12.767 12.4678 12.1959 12.238 12.6647 12.2715 12.3643 12.5647 12.3927 12.3034 12.6099 12.8035 12.4228 12.3326 12.5256 12.4859 12.4533 12.1596 12.7296 12.2068 12.2465 12.6521 12.8176 12.5992 12.2635 12.7411 12.3107 12.2273 12.6233 12.2796
internal_weight=0 21466 8972 10356 6210 2762 11110 4575 2047 5781 5490 5620 2998 715 3212 1572 3003 959 2896 2966 1556 3117 2885 1088 361 2503 2524 1442 1430 1782 362 354 1210 1677 601 242 603 1448 234 1442 1326 485 1448
internal_count=30438 21466 8972 10356 6210 2762 11110 4575 2047 5781 5490 5620 2998 715 3212 1572 3003 959 2896 2966 1556 3117 2885 1088 361 2503 2524 1442 1430 1782 362 354 1210 1677 601 242 603 1448 234 1442 1326 485 1448
is_linear=0
shrinkage=1


Tree=1
num_leaves=44
num_cat=0
split_feature=0 0 0 0 0 0 0 0 0 0 0 0 0 0 0 0 0 0 0 0 0 0 0 0 0 0 0 0 0 0 12 0 0 0 0 0 0 0 0 0 0 0 0
split_gain=3152.62 640.654 503.447 94.5704 87.8463 86.1727 77.7013 14.5554 13.1961 12.5273 12.2111 11.9513 11.7817 10.154 8.0597 4.05604 2.98992 1.69428 1.6497 1.63504 1.57817 1.5713 1.49195 1.44695 1.30744 1.24195 1.16763 1.13027 1.12158 0.965823 0.960342 0.918317 0.653733 0.456592 0.362928 0.349858 0.335908 0.317611 0.269869 0.245791 0.233369 0.228924 0.182089
threshold=12.552278994437252 12.084156053267888 13.155711196129735 12.816698101475826 13.591675751850964 11.833668209913418 12.307472743506517 11.667487131752079 11.959817408165252 13.345418937453539 13.862826354174866 12.425494640434886 12.976744159640591 12.190580839681903 12.674921936820216 11.511516100242254 11.759290223487289 11.889752352621626 13.474177364698217 13.053932190308775 12.014335157493177 12.369084357263608 13.687155752758846 12.485563258562701 13.97612049516861 12.244966044253733 13.234975338862947 12.74215653073127 12.890484836553343 12.134086163221065 -0.64258604381393647 12.620660761464469 11.60471531779921 11.714370742182879 13.113391874848533 13.419397846490101 11.789351930065887 14.107469598648807 11.920316683573644 13.552338137156754 13.806719774745931 12.052666654997575 12.946888456272273
decision_type=2 2 2 2 2 2 2 2 2 2 2 2 2 2 2 2 2 2 2 2 2 2 2 2 2 2 2 2 2 2 2 2 2 2 2 2 2 2 2 2 2 2 2
left_child=1 5 3 14 9 7 13 15 17 26 22 21 28 29 31 30 33 -7 35 -14 -10 -8 -6 -13 -12 -15 -4 -16 -5 -3 -1 -2 -17 -9 -21 -11 -18 -26 -19 -20 -24 -22 -30
right_child=2 6 4 12 10 8 11 16 20 18 24 23 19 25 27 32 36 38 39 34 41 -23 40 -25 37 -27 -28 -29 42 -31 -32 -33 -34 -35 -36 -37 -38 -39 -40 -41 -42 -43 -44
leaf_value=-0.20382383724781036 0.038078906541539954 -0.051987855105235986 0.15164800966285966 0.088470550252169863 0.23516931022256066 -0.098413278958991338 -0.0085912692072270831 -0.13058474717431176 -0.074886615286424749 0.18712701755519745 0.28865922762511176 0.013198306015373985 0.11857448717535551 -0.030898737240142259 0.060377929563213341 -0.15474759182778675 -0.11514186111365979 -0.089792587373014029 0.20877606874972912 0.13055110384838498 -0.065550055380902361 0.0024433219564901892 0.25555291821034903 0.024689564823153962 0.3118273037051692 -0.019866214646422031 0.16815454203122257 0.073912890220132796 0.10030143601084916 -0.04193648040116537 -0.16979729412282166 0.049407798056426255 -0.13928325904764821 -0.12201305612905315 0.14057783281462552 0.19934178712752681 -0.10759505905577378 0.32996582700447546 -0.083231314827863778 0.2226353763689759 0.27136347414626566 -0.059666459180195017 0.10842669154056282
leaf_weight=75 1183 1199 482 597 239 1326 1678 722 1202 361 119 1322 717 1092 833 238 599 733 233 594 967 1553 120 1421 124 1533 603 718 600 1191 168 719 606 841 364 247 959 118 842 122 114 722 242
leaf_count=75 1183 1199 482 597 239 1326 1678 722 1202 361 119 1322 717 1092 833 238 599 733 233 594 967 1553 120 1421 124 1533 603 718 600 1191 168 719 606 841 364 247 959 118 842 122 114 722 242
internal_value=0 -0.053911 0.119987 0.0817586 0.207096 -0.0996972 -0.0122455 -0.126924 -0.0799162 0.179242 0.275493 0.00701546 0.11335 -0.0351897 0.0532684 -0.151839 -0.118247 -0.0918286 0.199997 0.127603 -0.0679626 -0.00328743 0.249064 0.0191513 0.31012 -0.0244557 0.160822 0.0666436 0.0967596 -0.046979 -0.1803 0.0423615 -0.143644 -0.125973 0.134361 0.192089 -0.110497 0.320672 -0.0862849 0.213539 0.263256 -0.063035 0.102637
internal_weight=0 20989 9449 6567 2882 10000 10989 4208 5792 2048 834 5974 3114 5015 3453 1087 3121 2901 963 1675 2891 3231 473 2743 361 2625 1085 1551 1439 2390 243 1902 844 1563 958 608 1558 242 1575 355 234 1689 842
internal_count=30438 20989 9449 6567 2882 10000 10989 4208 5792 2048 834 5974 3114 5015 3453 1087 3121 2901 963 1675 2891 3231 473 2743 361 2625 1085 1551 1439 2390 243 1902 844 1563 958 608 1558 242 1575 355 234 1689 842
is_linear=0
shrinkage=0.25


Tree=2
num_leaves=44
num_cat=0
split_feature=0 0 0 0 0 0 0 0 0 0 0 0 0 0 0 0 0 0 0 0 0 0 0 0 0 0 0 0 0 0 0 0 0 0 0 0 0 0 0 0 0 0 0
split_gain=1774.09 391.248 255.488 57.9269 48.9008 43.4972 41.7098 10.6334 7.43334 6.78929 6.21805 6.02419 5.92109 4.88535 4.59393 3.36808 1.56542 0.974994 0.949886 0.876448 0.850945 0.827401 0.807677 0.773934 0.735434 0.726185 0.693043 0.668252 0.653065 0.502053 0.42233 0.410868 0.315822 0.242754 0.178657 0.165227 0.136799 0.131271 0.127072 0.125517 0.122446 0.110588 0.100215
threshold=12.587182985252005 12.113872045775475 13.192505854152174 11.86139155829745 12.861110658851524 13.633627905115963 12.348403936342917 11.705493430498501 11.994020450500395 13.392521369346854 12.239410848871048 12.463964442308562 13.032240378800102 13.862826354174866 12.72945263203256 11.558432606548342 11.795097294526448 13.552338137156754 12.177046276987562 13.293669224863963 12.654641143576088 11.932535657853112 12.96135664513068 12.521251200928438 13.97612049516861 12.408777236984312 12.057921880149706 13.113391874848533 12.291052859018 11.469574484868277 13.687155752758846 12.801841739144697 11.651414379938808 11.752041336920731 14.107469598648807 13.474177364698217 12.903939719763654 13.806719774745931 11.82272384637624 12.378441315416906 11.899907574849438 12.545200334988795 12.144791586414746
decision_type=2 2 2 2 2 2 2 2 2 2 2 2 2 2 2 2 2 2 2 2 2 2 2 2 2 2 2 2 2 2 2 2 2 2 2 2 2 2 2 2 2 2 2
left_child=1 3 4 7 14 9 10 15 21 19 18 25 22 30 20 29 33 35 42 -4 -2 40 36 -13 -15 39 -10 -14 -12 -1 -7 -16 -17 -9 -26 -11 -6 -32 -18 -8 -5 -25 -3
right_child=2 6 5 8 12 13 11 16 26 17 28 23 27 24 31 32 38 -19 -20 -21 -22 -23 -24 41 34 -27 -28 -29 -30 -31 37 -33 -34 -35 -36 -37 -38 -39 -40 -41 -42 -43 -44
leaf_value=-0.14281017659876455 0.033089042079523491 -0.035914633245640079 0.12041497234171544 -0.070387563652522384 0.070605841225643048 0.17919518844779747 -0.0030231447957776215 -0.092307257957898181 -0.050086315193887301 0.14805696740246799 -0.0169206218374316 0.01502448887051693 0.096513604286317278 0.21649467142799586 0.053723007757471075 -0.1077338591263805 -0.081192463897602568 0.17021517157062743 -0.024314304782122338 0.13470693804465958 0.043360401437911235 -0.05986234668385864 0.086115956731426788 0.020863360030501456 0.23387073484215734 0.0069691736230551426 -0.042311043535719808 0.10741518506678117 -0.0091063844944838067 -0.12315103835681658 0.19166489865897654 0.063211507217020166 -0.099722258382806905 -0.086294484027598969 0.24747464644907441 0.15658213851706537 0.076744596368962914 0.20352284287179251 -0.076551090896386315 0.0013012746376389545 -0.065957543586317835 0.025798506786109631 -0.031737527351991771
leaf_weight=123 1069 719 597 847 365 120 842 841 1570 365 1173 1313 833 119 714 483 595 241 1207 487 954 1324 598 471 124 1320 1318 608 1554 239 120 475 847 838 118 233 600 114 970 836 723 714 717
leaf_count=123 1069 719 597 847 365 120 842 841 1570 365 1173 1313 833 119 714 483 595 241 1207 487 954 1324 598 471 124 1320 1318 608 1554 239 120 475 847 838 118 233 600 114 970 836 723 714 717
internal_value=0 -0.0386019 0.0942905 -0.0724924 0.0666251 0.159479 -0.00517296 -0.0923842 -0.055511 0.139905 -0.0208427 0.0101375 0.0895538 0.212126 0.0451811 -0.108451 -0.0840041 0.15679 -0.0294839 0.126836 0.0379328 -0.0644656 0.0788965 0.0192049 0.23259 0.00258228 -0.0465379 0.101113 -0.0124676 -0.129831 0.191257 0.0575136 -0.102632 -0.0893063 0.240504 0.151379 0.0744227 0.197442 -0.0783157 -0.000868667 -0.0683475 0.023837 -0.033829
internal_weight=0 21584 8854 10718 6216 2638 10866 4936 5782 1923 5370 5496 3004 715 3212 1692 3244 839 2643 1084 2023 2894 1563 2498 361 2998 2888 1441 2727 362 354 1189 1330 1679 242 598 965 234 1565 1678 1570 1185 1436
internal_count=30438 21584 8854 10718 6216 2638 10866 4936 5782 1923 5370 5496 3004 715 3212 1692 3244 839 2643 1084 2023 2894 1563 2498 361 2998 2888 1441 2727 362 354 1189 1330 1679 242 598 965 234 1565 1678 1570 1185 1436
is_linear=0
shrinkage=0.25


Tree=3
num_leaves=44
num_cat=0
split_feature=0 0 0 0 0 0 0 0 0 0 0 0 0 0 0 0 0 0 0 0 0 0 0 0 0 0 12 0 0 0 0 0 0 0 10 0 4 0 60 54 44 0 0
split_gain=998.199 209.806 153.187 28.1192 27.8761 27.5335 25.6599 5.60341 4.01143 3.84183 3.81685 3.52044 3.49363 3.30924 2.57577 1.57724 1.05663 0.52085 0.494987 0.48054 0.459303 0.447693 0.435699 0.424022 0.419533 0.413682 0.409761 0.409592 0.347104 0.330136 0.28996 0.277046 0.244247 0.18365 0.131432 0.102753 0.102277 0.0904895 0.0862643 0.084078 0.0739542 0.0735287 0.0661315
threshold=12.566481128629549 12.090021633823495 13.155711196129735 11.852455130030995 13.591675751850964 12.83263254068137 12.32079125722205 11.681662586374182 13.345418937453539 12.440756312401868 13.862826354174866 12.202862272120639 11.987777229218844 12.99205922617092 12.684288508442334 11.511516100242254 11.7831578468428 11.920316683573644 13.446784048951395 12.498779292388869 13.073657982162208 13.687155752758846 12.26040504199149 12.383454333738776 13.255719690857687 13.97612049516861 -0.62922418280243175 12.754638637249929 12.128253499097573 12.913880358167562 12.612675173007718 11.60471531779921 12.032143097118945 11.732869142054223 -0.029063345055697947 12.170395414696856 -0.47704343892547102 11.884790458720445 -0.10842187960751155 -0.55250892438108001 0.094965719187623213 11.82272384637624 12.877115231286309
decision_type=2 2 2 2 2 2 2 2 2 2 2 2 2 2 2 2 2 2 2 2 2 2 2 2 2 2 2 2 2 2 2 2 2 2 2 2 2 2 2 2 2 2 2
left_child=1 3 5 7 8 14 11 15 24 23 21 28 17 29 30 26 33 37 -10 -11 -15 -6 -13 -8 -4 38 -1 -16 -3 42 -2 -17 -14 -9 -27 -30 -20 -5 -12 -23 -19 -18 -7
right_child=2 6 4 12 10 13 9 16 18 19 25 22 32 20 27 31 41 40 36 -21 -22 39 -24 -25 -26 34 -28 -29 35 -31 -32 -33 -34 -35 -36 -37 -38 -39 -40 -41 -42 -43 -44
leaf_value=-0.11716835835998693 0.021466142238258344 -0.02923229437434343 0.086028071773380149 -0.054443826180058504 0.13269616345638155 0.049598937465427741 -0.0032127218985503231 -0.071377514490367222 0.10698074904235878 0.0090469603976076236 0.16894061390395651 -0.016121893039559392 -0.039243395552488437 0.068429857886920048 0.035047737286560847 -0.087200203822963882 -0.061414832066540276 -0.04684700486164535 0.12176789065929658 0.015812013335741636 0.07705496500847947 0.1559812589152349 -0.0097575661302403104 0.0025181134531943833 0.095918282482472111 0.16392435853817169 -0.095023212278227631 0.043191758200324698 -0.024806694293653102 0.059573287318096455 0.027863828770353816 -0.07754438133326888 -0.034182024967783491 -0.066318775025076007 0.18244456723023655 -0.020647983062473431 0.1144382196126799 -0.050636066171867666 0.15546085194878867 0.14523398902708584 -0.042740554682045497 -0.057980941185261987 0.054388269287838555
leaf_weight=76 827 958 601 719 239 358 1675 846 485 1315 61 1192 1083 833 832 238 838 1075 253 1310 719 62 1542 1557 484 27 167 720 954 722 953 846 1325 955 215 608 225 853 58 172 368 729 363
leaf_count=76 827 958 601 719 239 358 1675 846 485 1315 61 1192 1083 833 832 238 838 1075 253 1310 719 62 1542 1557 484 27 167 720 954 722 953 846 1325 955 215 608 225 853 58 172 368 729 363
internal_value=0 -0.0297772 0.0687794 -0.0558215 0.116554 0.0470176 -0.00606045 -0.0699859 0.100864 0.0053184 0.155083 -0.0187453 -0.0435587 0.0644127 0.0313819 -0.0837453 -0.0645646 -0.0492294 0.112608 0.012423 0.0724257 0.140308 -0.0125324 -0.00045192 0.09044 0.174443 -0.101949 0.0388259 -0.0254858 0.0557944 0.0248914 -0.0796644 -0.0364584 -0.0686951 0.180379 -0.0231879 0.118318 -0.0523777 0.162371 0.148082 -0.0457998 -0.0598173 0.0520102
internal_weight=0 21229 9209 10118 2882 6327 11111 4695 2048 5857 834 5254 5423 2995 3332 1327 3368 3015 963 2625 1552 473 2734 3232 1085 361 243 1552 2520 1443 1780 1084 2408 1801 242 1562 478 1572 119 234 1443 1567 721
internal_count=30438 21229 9209 10118 2882 6327 11111 4695 2048 5857 834 5254 5423 2995 3332 1327 3368 3015 963 2625 1552 473 2734 3232 1085 361 243 1552 2520 1443 1780 1084 2408 1801 242 1562 478 1572 119 234 1443 1567 721
is_linear=0
shrinkage=0.25


Tree=4
num_leaves=44
num_cat=0
split_feature=0 0 0 0 0 0 0 0 0 0 0 0 0 0 0 0 0 0 0 0 58 0 0 0 0 0 0 0 0 0 0 0 0 0 0 0 58 0 41 48 44 37 44
split_gain=561.745 125.844 79.4645 17.8157 15.6148 14.2415 12.8622 3.28941 2.3721 2.35135 1.96244 1.85318 1.83689 1.59075 1.52666 0.949116 0.580956 0.35153 0.337706 0.322793 0.306442 0.283416 0.265183 0.251047 0.240424 0.235386 0.230322 0.212078 0.199628 0.196335 0.181349 0.172148 0.149362 0.0789749 0.0745091 0.0700292 0.0661561 0.0653484 0.0613173 0.0582174 0.0569744 0.0553793 0.0530124
threshold=12.594109508399587 12.109240548151257 13.209672946585647 11.857103825760275 12.877115231286309 12.356993658450033 13.633627905115963 11.689231883590212 11.999194621471363 12.229385379674399 13.042360293763577 12.48023418226091 13.392521369346854 12.717804463577965 13.862826354174866 11.511516100242254 11.777783386881739 11.945156546945073 12.295532221121762 13.552338137156754 -0.21161991211356143 12.417429445183116 12.946888456272273 12.790955054470466 13.127857196947078 14.107469598648807 12.170395414696856 13.311590154449005 12.532827842110384 11.627985016157607 12.663320055083092 12.072441590771177 13.806719774745931 13.97612049516861 11.720528119649321 11.894950863593911 -0.39899641759070797 11.810342374700673 0.1778187199598906 -0.5176618131093218 -0.2124438255353199 0.037622606556088629 -0.2587065518009351
decision_type=2 2 2 2 2 2 2 2 2 2 2 2 2 2 2 2 2 2 2 2 2 2 2 2 2 2 2 2 2 2 2 2 2 2 2 2 2 2 2 2 2 2 2
left_child=1 3 4 7 13 9 12 15 17 26 22 21 27 30 32 20 34 35 -11 -14 -1 -7 -6 -15 -12 33 -3 -4 -13 -17 -2 42 36 -16 -9 -5 -8 -18 -20 -27 -19 -23 -10
right_child=2 5 6 8 10 11 14 16 31 18 24 28 19 23 25 29 37 40 38 -21 -22 41 -24 -25 -26 39 -28 -29 -30 -31 -32 -33 -34 -35 -36 -37 -38 -39 -40 -41 -42 -43 -44
leaf_value=-0.070472606984633437 0.019247029320955799 -0.019382084437440585 0.069427653101526238 -0.040104614982459895 0.041686566211052489 0.00017617424427029686 0.10013565493738669 -0.054067825678363109 -0.02889196653980499 -0.0097750945486259431 0.055253600839922146 0.0095641337212267665 0.085207165806342355 0.029196429486938017 0.12177866967806081 -0.064260976117190477 -0.046768616624437334 -0.034522510599604046 -0.0055844974111150152 0.096045382385519754 -0.089623021791464433 0.0035784216049342551 0.048226899939110918 0.035812236422639462 0.061793819121277495 0.14838461236490774 -0.014559307474121038 0.077073070806079863 0.014278186746225561 -0.057264908527164857 0.024386202888341015 -0.023185534720566774 0.11517909991267715 0.13080040196714951 -0.050331977021216751 -0.037069407130927171 0.1084440552262676 -0.043689710024761297 -0.0022134654435573024 0.13631134516400339 -0.031068995999891838 0.006701323751286477 -0.026184841342855814
leaf_weight=167 1069 1432 599 846 720 1677 123 483 891 1536 836 1185 598 720 119 356 711 659 1207 241 76 803 839 714 606 36 1090 365 1067 848 717 839 114 124 1080 1084 117 1094 468 82 546 636 918
leaf_count=167 1069 1432 599 846 720 1677 123 483 891 1536 836 1185 598 720 119 356 711 659 1207 241 76 803 839 714 606 36 1090 365 1067 848 717 839 114 124 1080 1084 117 1094 468 82 546 636 918
internal_value=0 -0.0215225 0.0535476 -0.0410077 0.0383808 -0.00292014 0.0910188 -0.052241 -0.0316547 -0.0115848 0.0513548 0.0063337 0.0797669 0.0262892 0.119393 -0.06221 -0.047958 -0.0363081 -0.00709777 0.0883205 -0.0764622 0.00238478 0.0452064 0.0324905 0.0580021 0.130832 -0.0172977 0.0723225 0.0117977 -0.0593335 0.0213102 -0.0261454 0.107726 0.126383 -0.0514864 -0.0383999 0.104186 -0.0449025 -0.00464262 0.139995 -0.0329577 0.00495866 -0.0275182
internal_weight=0 21699 8739 10598 6221 11101 2518 4815 5783 5733 3001 5368 1803 3220 715 1447 3368 3135 3211 839 243 3116 1559 1434 1442 361 2522 964 2252 1204 1786 2648 354 243 1563 1930 240 1805 1675 118 1205 1439 1809
internal_count=30438 21699 8739 10598 6221 11101 2518 4815 5783 5733 3001 5368 1803 3220 715 1447 3368 3135 3211 839 243 3116 1559 1434 1442 361 2522 964 2252 1204 1786 2648 354 243 1563 1930 240 1805 1675 118 1205 1439 1809
is_linear=0
shrinkage=0.25


Tree=5
num_leaves=44
num_cat=0
split_feature=0 0 0 0 0 0 0 0 0 0 0 0 0 0 0 0 0 0 50 0 0 0 0 0 0 0 0 0 0 0 0 0 57 0 44 5 44 58 44 37 44 37 61
split_gain=316.134 65.3309 49.6203 9.35362 8.50414 8.45452 8.40862 1.47937 1.43267 1.37879 1.19379 1.19348 1.18707 1.04959 0.748339 0.456824 0.250626 0.193483 0.224294 0.171464 0.161368 0.158109 0.154853 0.144559 0.142977 0.132408 0.130548 0.130494 0.117139 0.116425 0.0956985 0.0912571 0.0861892 0.0807189 0.0651233 0.0635289 0.0565584 0.0519428 0.050702 0.0492014 0.0459931 0.0451774 0.0449868
threshold=12.55894185625624 12.077846043300607 13.140307415793671 13.591675751850964 12.816698101475826 12.316299918774446 11.82852224591308 11.627985016157607 13.311590154449005 11.954192210046829 13.862826354174866 12.436250219936786 12.196348670447163 12.976744159640591 12.684288508442334 11.744701845879343 13.419397846490101 11.511516100242254 -0.46642092960408515 12.008923085195965 11.871742228572939 13.687155752758846 12.265583988858262 13.065479283536884 12.50328353643715 14.107469598648807 12.3648906021967 12.123758808660659 13.209672946585647 12.620660761464469 12.754638637249929 12.890484836553343 -0.91043131595288895 11.674849057287153 -0.36155003445844064 -0.82082166512313048 -0.12893380435762594 -0.34635095247267023 -0.2423821123799754 0.43070436638667725 -0.31851202223886738 0.34976513548788035 1.4210115260371514
decision_type=2 2 2 2 2 2 2 2 2 2 2 2 2 2 2 2 2 2 2 2 2 2 2 2 2 2 2 2 2 2 2 2 2 2 2 2 2 2 2 2 2 2 2
left_child=1 6 4 8 14 12 7 17 28 20 21 26 27 31 29 33 -10 18 -1 40 -8 -5 -14 -15 38 32 -7 -3 -4 -2 -16 39 -12 -9 -17 -18 -29 -23 -13 -6 -11 -28 -22
right_child=2 5 3 10 13 11 9 15 16 19 25 24 22 23 30 34 35 -19 -20 -21 42 37 -24 -25 -26 -27 41 36 -30 -31 -32 -33 -34 -35 -36 -37 -38 -39 -40 -41 -42 -43 -44
leaf_value=-0.069531722649924424 0.012112111150321576 -0.016936562928407461 0.046849709469969414 0.07451076635505427 0.026972012466210574 -0.0024286033953163483 -0.031878686189797452 -0.043564766207312533 0.058331764970114809 -0.025731352891569699 0.080878831310005742 0.0035790539807839437 -0.0091829551450900975 0.037735687586945864 0.019674703625836117 -0.037072318945610354 0.078318117064459569 -0.048195750168983323 -0.052611798016125345 -0.020132919785997308 -0.028249362476329851 0.080203854997718108 -0.0054189926348728774 0.04257639671096481 0.0088912988957826899 0.10499665574654846 0.00013903307772615054 -0.014797912700609194 0.052070751436639168 0.016052452283093082 0.023814924625983766 0.032269138566691648 0.096381853638988935 -0.040027357844225765 -0.033951901621115131 0.065442738925604038 -0.011786332934939088 0.087678738454876629 0.0064454112962074291 0.032328948951582892 -0.022626853144999036 0.0030211151484818739 -0.021051081295222745
leaf_weight=68 1065 1075 487 239 457 1318 1088 605 483 547 25 711 1430 837 832 819 25 356 175 1689 1756 126 1308 715 1068 118 1472 815 599 837 601 842 218 1209 854 577 747 108 843 140 656 442 56
leaf_count=68 1065 1075 487 239 457 1318 1088 605 483 547 25 711 1430 837 832 819 25 356 175 1689 1756 126 1308 715 1068 118 1472 815 599 837 601 842 218 1209 854 577 747 108 843 140 656 442 56
internal_value=0 -0.0169171 0.0383423 0.0647937 0.0257773 -0.00387194 -0.0317465 -0.0404307 0.0561488 -0.0256201 0.0872974 0.00270126 -0.0110309 0.0354563 0.0170967 -0.0384591 0.0625739 -0.0519081 -0.0573467 -0.0217575 -0.029472 0.0790341 -0.00738483 0.0399658 0.00666442 0.0981244 -0.000513895 -0.0148167 0.0497295 0.0138461 0.0214111 0.0305927 0.094787 -0.0412072 -0.0354795 0.0659775 -0.0133577 0.0836539 0.00513397 0.0282283 -0.0240385 0.000804593 -0.0280269
internal_weight=0 21107 9331 3005 6326 11229 9878 4086 2171 5792 834 5854 5375 2991 3335 3487 1085 599 243 2892 2900 473 2738 1552 2622 361 3232 2637 1086 1902 1433 1439 243 1814 1673 602 1562 234 1554 597 1203 1914 1812
internal_count=30438 21107 9331 3005 6326 11229 9878 4086 2171 5792 834 5854 5375 2991 3335 3487 1085 599 243 2892 2900 473 2738 1552 2622 361 3232 2637 1086 1902 1433 1439 243 1814 1673 602 1562 234 1554 597 1203 1914 1812
is_linear=0
shrinkage=0.25


Tree=6
num_leaves=44
num_cat=0
split_feature=0 0 0 0 0 0 0 0 0 0 0 0 0 0 0 0 0 0 0 0 0 0 0 0 11 0 50 0 0 37 10 37 4 44 0 7 44 44 37 56 37 59 13
split_gain=177.295 35.5865 28.9593 5.53779 4.92613 4.86943 4.30758 0.893662 0.829628 0.74622 0.73474 0.698116 0.613385 0.586534 0.412489 0.193336 0.192068 0.141526 0.109715 0.104887 0.0964396 0.0861167 0.0844088 0.0813131 0.0711449 0.0698208 0.251544 0.0684322 0.0569264 0.056098 0.052099 0.0494693 0.0546676 0.0479032 0.0460747 0.0421871 0.040653 0.0405561 0.0392249 0.038961 0.0388442 0.0379547 0.0364283
threshold=12.545200334988795 12.062671189172585 13.127857196947078 13.552338137156754 12.295532221121762 12.801841739144697 11.800734066916698 13.806719774745931 11.932535657853112 12.421390536063948 13.26929951536418 11.60471531779921 12.96135664513068 12.183623794703168 12.647404193655833 11.720528119649321 13.97612049516861 13.419397846490101 12.004308265993435 12.352716461288987 11.866579986366288 13.042360293763577 12.494782469219524 12.717804463577965 1.6985528762536826 11.469574484868277 -0.46066698997852767 12.118945633513743 12.25519320678338 0.082043255574859877 -0.029063345055697947 -0.29678071760253194 0.6320561386275042 -0.33885376910401205 12.861110658851524 2.1352838360041337 -0.41601710837500255 -0.36155003445844064 -0.084186056946460211 -0.33421657171554631 0.089001213936423282 -0.41953431373850852 -1.02408739223274
decision_type=2 2 2 2 2 2 2 2 2 2 2 2 2 2 2 2 2 2 2 2 2 2 2 2 2 2 2 2 2 2 2 2 2 2 2 2 2 2 2 2 2 2 2
left_child=1 6 5 10 13 14 11 31 20 19 -4 25 24 27 29 41 -9 42 -10 39 -8 38 35 -16 34 26 -1 -3 -15 -2 -18 -5 -33 -17 -7 -11 -21 -22 -14 -6 -23 -13 -12
right_child=2 4 3 7 9 12 8 16 18 22 17 15 21 28 23 33 30 -19 -20 36 37 40 -24 -25 -26 -27 -28 -29 -30 -31 -32 32 -34 -35 -36 -37 -38 -39 -40 -41 -42 -43 -44
leaf_value=-0.061137760444449699 0.0084436608115242215 -0.012993673219241043 0.035906362581700622 0.053309007101901576 -0.0041710353716495809 0.019525410737348033 -0.02442521166757947 0.066486740120531296 -0.018632347768454651 0.0029082928168006456 0.033754998498878676 -0.033187660477471972 0.025880872503409758 -0.0073042100441220005 0.013312767247552336 -0.02911511959411411 0.065693969130101865 0.048504709391165114 -0.015614852540087692 -0.0012834322431434274 -0.023058798500942758 0.030249628869971672 0.006095176299956543 0.016691508396972907 0.026717264828228091 -0.038236893678425379 -0.037154388490321801 -0.010487533052931396 -0.004811952554029132 0.011574134979624269 0.077756202052055884 0.057203440674392834 0.06870241840087396 -0.026358631182104068 0.022718433197475955 0.0077740641397107436 0.0010581664128823825 -0.020383090070742609 0.029629461326618128 -0.0016257629632755058 0.034302487438501686 -0.030618669995169216 0.043290234829878496
leaf_weight=41 1142 1296 970 208 636 434 1553 239 1567 1548 26 679 419 1445 951 843 25 478 1450 786 641 654 1080 837 197 355 82 1435 949 521 215 238 29 740 809 120 1129 791 299 919 191 764 685
leaf_count=41 1142 1296 970 208 636 434 1553 239 1567 1548 26 679 419 1445 951 843 25 478 1450 786 641 654 1080 837 197 355 82 1435 949 521 215 238 29 740 809 120 1129 791 299 919 191 764 685
internal_value=0 -0.0128895 0.0282168 0.0480216 -0.00343417 0.0186642 -0.0241719 0.0638841 -0.0201057 0.00129572 0.0410125 -0.031137 0.0260256 -0.00917279 0.0122585 -0.0297345 0.0715038 0.0451781 -0.0171821 -0.00114149 -0.0230607 0.0294551 0.00437326 0.0148944 0.0223032 -0.0400156 -0.045149 -0.0116768 -0.00631626 0.00942441 0.0764998 0.0562002 0.0584525 -0.0278266 0.0216036 0.00325835 9.70715e-05 -0.0215808 0.0274419 -0.00266679 0.0311657 -0.0318275 0.0429416
internal_weight=0 20849 9567 3113 11343 6454 9506 954 6002 6218 2159 3504 3003 5125 3451 3026 479 1189 3017 3470 2985 1563 2748 1788 1440 478 123 2731 2394 1663 240 475 267 1583 1243 1668 1915 1432 718 1555 845 1443 711
internal_count=30416 20849 9567 3113 11343 6454 9506 954 6002 6218 2159 3504 3003 5125 3451 3026 479 1189 3017 3470 2985 1563 2748 1788 1440 478 123 2731 2394 1663 240 475 267 1583 1243 1668 1915 1432 718 1555 845 1443 711
is_linear=0
shrinkage=0.25


Tree=7
num_leaves=44
num_cat=0
split_feature=0 0 0 0 0 0 0 0 0 0 0 0 0 0 0 0 0 49 0 0 0 0 37 44 0 0 0 44 37 56 41 41 22 44 44 44 44 3 44 37 42 5 2
split_gain=99.8885 22.7142 13.8728 3.52734 2.45838 2.44068 2.2735 0.665701 0.48012 0.470858 0.378388 0.342933 0.278716 0.216015 0.208319 0.186016 0.123067 0.0967345 0.0934265 0.0828335 0.0719802 0.0672741 0.0577615 0.0534954 0.0510639 0.05023 0.0487424 0.0469555 0.0461102 0.0454695 0.0425751 0.0405735 0.040446 0.0392944 0.0391127 0.0376851 0.032825 0.0328217 0.0316618 0.0306229 0.0298499 0.0296959 0.0316225
threshold=12.601819955080332 12.128253499097573 13.192505854152174 11.866579986366288 12.861110658851524 13.633627905115963 12.329348081415079 11.667487131752079 12.446451649386949 12.023383600360857 13.392521369346854 13.020256031107666 13.97612049516861 12.223637132770746 12.72945263203256 11.765851948019888 11.558432606548342 0.66234675387862774 11.954192210046829 13.503740806521646 12.509173429931829 13.806719774745931 0.10501416822651238 -0.41601710837500255 13.100779547506114 13.26929951536418 12.919945238133788 -0.26990874045870034 -0.18797189183393762 -1.2763708537356429 -0.19488069334764604 -0.32251733835502555 0.42675217628999695 0.57408118889890225 -0.2124438255353199 -0.19545173665342749 -0.2587065518009351 -1.1201886688437834 0.22718396508612401 0.63275203356021115 0.79327989254700582 -0.19034635545191556 -0.65184884779308261
decision_type=2 2 2 2 2 2 2 2 2 2 2 2 2 2 2 2 2 2 2 2 2 2 2 2 2 2 2 2 2 2 2 2 2 2 2 2 2 2 2 2 2 2 2
left_child=1 3 4 7 14 10 13 16 22 18 25 26 21 36 28 -9 17 -1 38 -12 -10 37 -8 -15 -13 -4 -6 -11 -2 -29 -28 -25 -16 -30 -17 -20 -3 -7 -5 -22 -23 -14 -43
right_child=2 6 5 9 11 12 8 15 20 27 19 24 41 23 32 34 -18 -19 35 -21 39 40 -24 31 -26 -27 30 29 33 -31 -32 -33 -34 -35 -36 -37 -38 -39 -40 -41 -42 42 -44
leaf_value=-0.029929668162533341 0.0078905542271855474 -0.0081640229057477181 0.028319721813773045 -0.016344275738484015 0.016704012542682698 0.051083449052270802 -0.00062916644217130208 -0.022301131754974099 0.0032156769676736554 -0.011298959453207651 0.035139509562932617 0.022445455897205261 0.049393848317586149 -0.0049197830120787421 0.012950472750627591 -0.01978965967017194 -0.025432966308781644 -0.045492465175491714 -0.014486381018572426 0.040168890458554568 0.0050953300245835985 0.048301010891317803 0.0016735395359620756 -0.0046905336555224811 0.025309933543200158 0.031748930444441131 0.017760626972486922 -0.014110041233476174 0.0094804537962483795 -0.0086730845229565107 0.021315539085947171 -0.0018328919498808917 0.016688735795335297 0.012864403285090765 -0.017713825448837574 -0.012037674649313419 -0.0060902063359575733 0.042680039378695925 -0.013615834333189521 0.0077701170988942626 0.054858758868264176 0.054162902860040774 0.060554613163753657
leaf_weight=331 750 904 485 1595 596 34 2102 1691 1431 1256 478 834 26 1090 977 1244 721 27 803 358 1328 182 1007 431 729 594 395 105 740 1139 451 1111 222 302 1043 769 1010 200 319 335 57 74 140
leaf_count=331 750 904 485 1595 596 34 2102 1691 1431 1256 478 834 26 1090 977 1244 721 27 803 358 1328 182 1007 431 729 594 395 105 740 1139 451 1111 222 302 1043 769 1010 200 319 335 57 74 140
internal_value=0 -0.00898261 0.0228041 -0.0169457 0.0161659 0.0379497 -0.000801744 -0.0218069 0.00231081 -0.0128389 0.0333008 0.0212163 0.0504357 -0.00504882 0.011092 -0.020313 -0.0273144 -0.0311034 -0.0147166 0.0372933 0.00451559 0.0469147 0.000116676 -0.00357923 0.0237815 0.0302075 0.0184358 -0.0102207 0.00938533 -0.009132 0.0196557 -0.00263162 0.0136426 0.0104612 -0.018843 -0.0132885 -0.00706969 0.0439011 -0.0158895 0.00563415 0.0498651 0.0573749 0.0583445
internal_weight=0 21792 8624 11043 5996 2628 10749 5057 6203 5986 1915 3005 713 4546 2991 3978 1079 358 3486 836 3094 473 3109 2632 1563 1079 1442 2500 1792 1244 846 1542 1199 1042 2287 1572 1914 234 1914 1663 239 240 214
internal_count=30416 21792 8624 11043 5996 2628 10749 5057 6203 5986 1915 3005 713 4546 2991 3978 1079 358 3486 836 3094 473 3109 2632 1563 1079 1442 2500 1792 1244 846 1542 1199 1042 2287 1572 1914 234 1914 1663 239 240 214
is_linear=0
shrinkage=0.25


Tree=8
num_leaves=44
num_cat=0
split_feature=0 0 0 0 0 0 0 0 0 0 0 0 0 0 0 0 0 0 12 16 61 1 10 44 20 5 5 60 11 1 37 41 0 44 41 8 5 60 1 58 44 61 37
split_gain=56.2309 13.0361 7.62649 2.22572 1.40755 1.28991 1.17873 0.483333 0.256462 0.204501 0.20194 0.192081 0.130707 0.127454 0.124665 0.104516 0.084006 0.0599628 0.057025 0.0537483 0.048579 0.0440921 0.0401951 0.0586844 0.0396543 0.0388171 0.0382745 0.0377182 0.0358066 0.0340835 0.0333886 0.0331187 0.0322042 0.0308943 0.0298526 0.0292478 0.0289667 0.0283951 0.0282293 0.0273204 0.0272005 0.02646 0.0261758
threshold=12.607218237942755 12.149909512671139 13.209672946585647 11.904066572237429 12.913880358167562 13.687155752758846 12.388724335308071 11.720528119649321 13.474177364698217 12.766071360137989 12.032143097118945 12.265583988858262 13.065479283536884 12.48023418226091 11.558432606548342 13.97612049516861 11.795097294526448 13.345418937453539 -0.92882033425299004 -0.068557677143106802 1.3613819028873959 0.082404477498527598 1.4528826609488685 -0.17687424289525622 0.91620814679654627 -0.83096699888640846 -0.8155232633624333 0.12830441850578048 1.6985528762536826 -0.049917825742093754 0.19851801622599943 -0.15140757454945861 12.694186200554817 -0.52987818361281169 -0.20133538782517021 0.63285516377376261 2.1964465581425343 0.12830441850578048 0.31429752678592765 -0.62595839633632622 0.1199634516402978 0.99340464738225098 -0.37791012988609629
decision_type=2 2 2 2 2 2 2 2 2 2 2 2 2 2 2 2 2 2 2 2 2 2 2 2 2 2 2 2 2 2 2 2 2 2 2 2 2 2 2 2 2 2 2
left_child=1 3 4 7 9 8 11 14 17 32 21 31 22 34 18 19 38 -4 -1 -7 35 41 23 -6 -15 -10 -21 -18 -27 -11 -12 -3 39 -33 -8 -13 -34 -19 -9 -2 -23 -5 -14
right_child=2 6 5 10 12 15 13 16 25 29 30 20 42 24 -16 -17 27 37 -20 26 -22 40 -24 -25 -26 28 -28 -29 -30 -31 -32 33 36 -35 -36 -37 -38 -39 -40 -41 -42 -43 -44
leaf_value=-0.033229668126478276 0.004139011385144162 -0.00547598667943961 0.022216846297038212 -0.011539162235040963 0.013662725866271194 0.039604607135651441 3.838629206352079e-05 -0.016457195258308716 0.037721738622097822 0.010175899884150187 -0.0078198809697366898 -0.0013754274616016534 0.016751949945921073 0.0032801377369394646 -0.01815560757446006 0.043031270236348583 -0.013690399300912695 0.025013210902070971 -0.022322127721864728 0.024317607574993697 0.0018317284042308401 -0.010177318385780586 0.011984773505002709 0.017162160080549119 0.0055439844568203108 0.028390084061173489 0.034807133956420114 -0.010052599068524603 0.033208770531033507 0.01272346515166267 -0.0056679189230781158 -0.0050851124326187561 0.009274791132066345 -0.0026517218420250128 0.0019462713235355289 -0.0034550817822205679 0.0052672130900822374 0.030667494867821828 -0.01396853473911361 0.0071975854361574689 -0.007805422830460461 -0.0078707910332675175 0.019379111885184153
leaf_weight=33 225 1022 727 1483 517 164 785 1072 38 652 2166 2468 325 1840 1563 240 2314 531 325 25 260 791 215 712 656 433 167 193 124 661 569 533 710 840 1477 510 134 62 388 967 489 134 876
leaf_count=33 225 1022 727 1483 517 164 785 1072 38 652 2166 2468 325 1840 1563 240 2314 531 325 25 260 791 215 712 656 433 167 193 124 661 569 533 710 840 1477 510 134 62 388 967 489 134 876
internal_value=0 -0.0066745 0.0172758 -0.0124659 0.0124303 0.0288422 -0.000253834 -0.0158645 0.0256811 0.00902573 -0.00891287 -0.00270099 0.0167411 0.00264336 -0.0191195 0.0389991 -0.0142883 0.0237387 -0.0233276 0.0362807 -0.00144546 -0.0103674 0.0151384 0.0156901 0.00387512 0.0299903 0.0334414 -0.0134103 0.0294628 0.0114584 -0.00737218 -0.00439844 0.00745691 -0.00359637 0.00128416 -0.00173158 0.00863852 0.0256044 -0.0157958 0.00662026 -0.00927118 -0.0112352 0.0186682
internal_weight=0 21911 8505 11520 5994 2511 10391 5888 1915 3349 5632 5633 2645 4758 1921 596 3967 1320 358 356 3238 2897 1444 1229 2496 595 192 2507 557 1313 2735 2395 2036 1373 2262 2978 844 593 1460 1192 1280 1617 1201
internal_count=30416 21911 8505 11520 5994 2511 10391 5888 1915 3349 5632 5633 2645 4758 1921 596 3967 1320 358 356 3238 2897 1444 1229 2496 595 192 2507 557 1313 2735 2395 2036 1373 2262 2978 844 593 1460 1192 1280 1617 1201
is_linear=0
shrinkage=0.25


Tree=9
num_leaves=44
num_cat=0
split_feature=0 0 0 0 0 0 0 0 0 0 0 0 0 0 0 59 1 11 0 57 1 37 26 10 38 54 37 13 56 7 26 26 59 3 7 55 59 41 26 13 26 60 38
split_gain=31.7684 6.282 5.27411 0.958181 0.946586 0.843582 0.782212 0.188694 0.143526 0.121928 0.117451 0.106496 0.0969818 0.0958683 0.0924303 0.0416029 0.0401953 0.0386921 0.0385596 0.0690328 0.0382307 0.0380947 0.0341784 0.0336123 0.0327914 0.0311372 0.0310516 0.0305821 0.0298301 0.0275165 0.0255942 0.0254339 0.024236 0.0239619 0.0228197 0.0227272 0.0222073 0.0222031 0.021618 0.0211434 0.0205909 0.0200151 0.0181733
threshold=12.539040606463832 12.072441590771177 13.140307415793671 12.83263254068137 13.591675751850964 11.838632102777849 12.299897654827305 11.658766716809334 13.345418937453539 12.404876228248472 13.862826354174866 11.965388751645051 12.190580839681903 12.663320055083092 12.99205922617092 -0.40815989626699772 0.063944375628000691 1.5412240230661503 11.511516100242254 -0.40686556976883298 -0.36222279623540365 -0.2216683602600957 -0.11843204214060628 1.4921379392939336 3.1584292486425536 -0.21607272109414857 0.2956999477895188 -0.39077323212345222 -0.6972577579815683 -0.74003330081392393 -0.11843204214060628 0.38145302642777262 -0.36121604519759659 0.080906072184966274 2.1352838360041337 0.2341903355788654 -0.71351091305169867 0.1778187199598906 -0.15596976562421846 1.9088610834370969 -0.11177465897801529 0.12830441850578048 -0.25898521263271052
decision_type=2 2 2 2 2 2 2 2 2 2 2 2 2 2 2 2 2 2 2 2 2 2 2 2 2 2 2 2 2 2 2 2 2 2 2 2 2 2 2 2 2 2 2
left_child=1 5 3 13 8 7 12 18 30 16 25 26 24 22 34 -9 -8 40 19 -1 -16 -13 -2 -15 28 -6 33 -12 -3 -23 -4 -10 -20 -7 38 -27 -14 -38 -5 -29 -11 -17 -19
right_child=2 6 4 14 10 11 9 15 31 17 27 21 36 23 20 41 -18 42 32 -21 -22 29 -24 -25 -26 35 -28 39 -30 -31 -32 -33 -34 -35 -36 -37 37 -39 -40 -41 -42 -43 -44
leaf_value=-0.025822111474310475 0.0031456763185101514 -0.0069827070342850014 0.01476358774937412 0.0085889580961151721 0.027968663516959327 -0.0087297336356381115 -0.0014713228094440441 -0.012783388450034875 0.019257908021257444 0.00043700475309108429 0.025795668982673773 -0.0083351582692221728 -0.0040667058287488164 0.0070993247103009263 0.011081161262640624 -0.01118781949232092 0.00040986497617203027 0.00078897426879688201 -0.016330139941573747 -0.016069730574701017 0.013760860330842253 -0.0082598101736963917 0.0051999904994818732 0.0039253602494537876 0.0034519830980034075 0.021507002442269423 -0.00660599503339835 0.033002704616845263 -0.0045211663470416706 -0.0057432623375263548 0.017072135871260687 0.022081768207613262 -0.013434942567886831 -0.01028362290215026 0.013277533516164029 0.025776171179444037 -0.0027247534669280764 -0.00084556946161772268 0.010614608585545594 0.026954807267190947 0.0018559785419097999 -0.0067530040646924276 0.0043774359765567337
leaf_weight=61 1025 357 563 621 162 1539 1621 1570 669 1163 56 761 488 1548 521 1754 1263 113 366 177 921 335 1000 241 30 152 285 259 2228 1434 643 284 357 1039 119 160 1346 555 701 42 1419 66 402
leaf_count=61 1025 357 563 621 162 1539 1621 1570 669 1163 56 761 488 1548 521 1754 1263 113 366 177 921 335 1000 241 30 152 285 259 2228 1434 643 284 357 1039 119 160 1346 555 701 42 1419 66 402
internal_value=0 -0.00550632 0.0118359 0.00793814 0.0205661 -0.0101273 -0.00140741 -0.012717 0.0178064 0.000522221 0.027736 -0.0080379 -0.00371379 0.00533825 0.0113776 -0.0118404 -0.000647488 0.00161148 -0.0158092 -0.0185693 0.0127927 -0.0068561 0.00416015 0.00667175 -0.00476575 0.0251565 -0.00908224 0.0311607 -0.00486112 -0.00621983 0.0159944 0.0200994 -0.0149006 -0.00935599 0.00996157 0.0236964 -0.00256231 -0.00217612 0.00966308 0.0321588 0.00121684 -0.011027 0.00359007
internal_weight=0 20729 9687 6697 2990 9744 10985 4351 2159 5981 831 5393 5004 3814 2883 3390 2884 3097 961 238 1442 2530 2025 1789 2615 474 2863 357 2585 1769 1206 953 723 2578 1441 312 2389 1901 1322 301 2582 1820 515
internal_count=30416 20729 9687 6697 2990 9744 10985 4351 2159 5981 831 5393 5004 3814 2883 3390 2884 3097 961 238 1442 2530 2025 1789 2615 474 2863 357 2585 1769 1206 953 723 2578 1441 312 2389 1901 1322 301 2582 1820 515
is_linear=0
shrinkage=0.25


Tree=10
num_leaves=44
num_cat=0
split_feature=0 0 0 0 0 0 0 0 0 0 0 0 0 0 1 56 40 59 44 9 44 4 44 7 1 58 45 54 60 56 37 58 1 0 60 58 5 1 45 12 56 37 46
split_gain=17.8714 3.71654 2.81336 0.575669 0.497935 0.486044 0.43807 0.0975848 0.0935404 0.0796783 0.0746519 0.0680549 0.0582025 0.0531977 0.0358254 0.0330443 0.0322183 0.0413964 0.0320931 0.0349439 0.0308666 0.0285524 0.0294913 0.0284454 0.0282082 0.0254194 0.023484 0.0233776 0.0232489 0.0227566 0.0225068 0.0200928 0.0197473 0.0201498 0.0189915 0.0189491 0.0189174 0.0188786 0.0180842 0.0210551 0.0177186 0.0173862 0.0171296
threshold=12.55894185625624 12.077846043300607 13.192505854152174 12.801841739144697 11.800734066916698 12.324830516851824 13.591675751850964 11.949750406208517 13.020256031107666 11.627985016157607 12.210677651191498 13.97612049516861 12.451268194333677 13.446784048951395 -0.032783903391645865 0.38569903313968695 0.64783357228505489 -0.33428541930928435 -0.2423821123799754 2.7493159003802665 -0.11720253491995651 0.056380643611912251 -0.19038680712927206 -0.35518327785286896 -0.14281476700686216 -0.41937610961418681 -0.3870188760299747 -0.25784026556355238 2.9750109321395248 -1.2763708537356429 0.34976513548788035 -0.39579578317624792 1.1684380391714104 13.806719774745931 0.17613098376136219 2.0609986440755663 -0.82082166512313048 -0.36222279623540365 0.089527289443877708 -0.46438137195185347 -0.76685092372744035 0.48444609930895077 1.8771807654438677
decision_type=2 2 2 2 2 2 2 2 2 2 2 2 2 2 2 2 2 2 2 2 2 2 2 2 2 2 2 2 2 2 2 2 2 2 2 2 2 2 2 2 2 2 2
left_child=1 4 3 15 9 10 13 16 21 23 20 32 18 25 -11 37 17 -6 28 -20 34 22 -5 27 -9 -4 -17 -1 -7 -22 31 -10 33 -8 -3 36 -15 -2 39 -13 -26 -14 -12
right_child=2 5 6 8 7 12 11 24 30 14 42 38 41 35 -16 26 -18 -19 19 -21 29 -23 -24 -25 40 -27 -28 -29 -30 -31 -32 -33 -34 -35 -36 -37 -38 -39 -40 -41 -42 -43 -44
leaf_value=-0.014403861203485392 0.0025517529765129486 -0.0044787939207909045 0.011691265333786638 0.0066565727799293116 -0.007858024581663358 -0.0010669670747198712 0.017453162803756805 -0.0060785223336332411 0.0085316233160841956 -0.010139095114195569 -0.0017094626680524371 0.019142381414260785 0.0013285692589915625 0.022415124902326843 -0.0083526309094528219 0.003054469901240568 -0.0086509373998296946 -0.0058636311190135753 0.0011482750935598209 -0.003011833671418232 -0.0053517591172017997 0.0061350366752975878 0.0091324591781413375 -0.0054454610677911984 -0.0084012805634827402 0.013935397097898282 0.0059266479246548624 -0.011158848433810273 0.0019329004240470117 -0.0021152596434527784 0.012298140805560211 0.010501163092768847 0.022747808664417033 0.020695625808998957 -0.0017604007623450116 0.022666527218174685 0.015342100981775846 0.004039018352364635 0.029064589555527483 0.02493145098896718 -0.0043667239685714022 0.002955914162024815 0.0029153427725334339
leaf_weight=320 866 1427 527 495 1185 1431 301 1312 564 1722 2698 54 1729 25 1184 236 720 1442 1600 137 155 664 766 33 71 786 723 245 182 1095 239 760 91 199 181 26 433 1389 42 144 1628 538 51
leaf_count=320 866 1427 527 495 1185 1431 301 1312 564 1722 2698 54 1729 25 1184 236 720 1442 1600 137 155 664 766 33 71 786 723 245 182 1095 239 760 91 199 181 26 433 1389 42 144 1628 538 51
internal_value=0 -0.00401832 0.00912281 0.00640435 -0.00755914 -0.000907172 0.0160555 -0.00624038 0.00862848 -0.00995203 -0.00255378 0.020802 0.000736506 0.0138605 -0.00941123 0.00399062 -0.00716934 -0.00676327 7.45004e-05 0.00082016 -0.00344843 0.00746189 0.00816056 -0.01258 -0.00520775 0.0130347 0.00521984 -0.0129967 -0.000728482 -0.00251659 0.0100652 0.00966218 0.0193602 0.0187437 -0.00417281 0.0161009 0.0157282 0.00346786 0.0243523 0.0233527 -0.00453533 0.00171477 -0.00162366
internal_weight=0 21086 9330 6702 9862 11224 2628 6358 3488 3504 5607 831 5617 1797 2906 3214 3347 2627 3350 1737 2858 1925 1261 598 3011 1313 959 565 1613 1250 1563 1324 591 500 1608 484 458 2255 240 198 1699 2267 2749
internal_count=30416 21086 9330 6702 9862 11224 2628 6358 3488 3504 5607 831 5617 1797 2906 3214 3347 2627 3350 1737 2858 1925 1261 598 3011 1313 959 565 1613 1250 1563 1324 591 500 1608 484 458 2255 240 198 1699 2267 2749
is_linear=0
shrinkage=0.25


Tree=11
num_leaves=44
num_cat=0
split_feature=0 0 0 0 0 0 0 0 59 0 44 3 56 7 26 0 37 54 0 59 40 44 3 6 62 57 0 56 0 51 22 28 61 60 61 37 9 59 26 38 60 39 0
split_gain=10.1097 2.45476 1.29598 0.40439 0.242606 0.241848 0.192754 0.104566 0.0416541 0.0350591 0.0349892 0.03323 0.0324482 0.0324182 0.0317613 0.0314132 0.0307609 0.0289063 0.028539 0.0285084 0.0281138 0.0264895 0.026153 0.024618 0.024148 0.0230459 0.0310167 0.0229017 0.0213785 0.020496 0.0204186 0.0196851 0.0190047 0.0177078 0.0162968 0.0154709 0.0146995 0.0142348 0.013631 0.0134668 0.0132433 0.0130916 0.0127213
threshold=12.630016334552268 12.144791586414746 13.255719690857687 11.894950863593911 12.919945238133788 12.378441315416906 13.687155752758846 11.705493430498501 -0.65326532702861895 13.503740806521646 -0.2423821123799754 1.8285629604317684 0.49534578377087274 -0.73000414074663056 -0.11843204214060628 12.25519320678338 -0.41929752425206074 -0.17910231147134278 12.790955054470466 -0.32609674099504227 0.50580995190148859 -0.21912208992174798 0.20493857446372091 -0.95860559260488165 -1.4402142373735047 0.6671873599805338 11.511516100242254 -0.91492710344785588 12.532827842110384 1.2420994876572911 0.10820370075514339 -0.75248936510204167 -1.7794020018375416 -0.20441229610877504 -0.12879977314468619 0.068058972499264167 -0.62465585354223951 -0.65326532702861895 -0.23295759498582438 0.25550704346216963 -0.13476198006678922 -1.138525764603705 13.100779547506114
decision_type=2 2 2 2 2 2 2 2 2 2 2 2 2 2 2 2 2 2 2 2 2 2 2 2 2 2 2 2 2 2 2 2 2 2 2 2 2 2 2 2 2 2 2
left_child=1 3 4 7 18 15 9 25 -5 30 24 13 17 -8 31 29 -12 -10 33 -9 -21 32 37 -15 -7 26 -1 -23 -18 38 -4 -6 -17 -2 -24 41 -11 -16 -3 -37 -38 -20 -33
right_child=2 5 6 8 14 10 11 19 12 36 16 -13 -14 23 22 21 28 -19 35 20 -22 27 34 -25 -26 -27 -28 -29 -30 -31 -32 42 -34 -35 -36 39 40 -39 -40 -41 -42 -43 -44
leaf_value=-0.011480396870599884 0.004511800030500889 -0.0030713210274192523 0.0097075766761266502 -0.0050064336010472044 0.0096520497220523773 0.0029651988373173449 0.0081930101098351242 -0.0067609387714589577 -0.003243836471949914 0.018968100782594755 0.00052316943130786332 0.0095304654187635066 -0.0017445916868041363 0.0113589784111867 0.0067536350353594368 0.00091574098392835205 0.0016876754269949852 -0.0047365950739232977 0.0090748733979126549 -0.0048878473928848235 -0.007139086877732766 -0.0022914697282693818 0.0055792048289878948 0.017884488186316039 9.4935864787160229e-05 -0.004929843738983408 -0.0082617025128171023 0.00037076029528116219 0.0034079104685407983 0.00014485548098026952 0.01183451575224885 0.0055118220218511923 -0.0017604932722948185 0.0029155852644524973 0.0081726345289465322 0.0050123129151589518 0.013771690392900569 0.0095755922505885004 -0.0017169991795451594 0.0078221077264305997 0.010957220799720299 0.0041249480302058454 0.0071182909491994302
leaf_weight=217 668 723 732 1424 110 202 25 2046 2526 25 1010 40 602 39 135 188 1539 1194 35 1467 454 236 297 492 1968 108 1359 1400 639 263 459 756 1407 1242 309 248 285 648 1299 187 165 728 520
leaf_count=217 668 723 732 1424 110 202 25 2046 2526 25 1010 40 602 39 135 188 1539 1194 35 1467 454 236 297 492 1968 108 1359 1400 639 263 459 756 1407 1242 309 248 285 648 1299 187 165 728 520
internal_value=0 -0.00274684 0.00754623 -0.00531058 0.00559081 -5.97971e-05 0.0126319 -0.00681222 -0.00383377 0.0112516 0.00113647 0.0164903 -0.0034474 0.016991 0.00728983 -0.0012218 0.00166355 -0.00372296 0.00407382 -0.00611155 -0.0054199 -0.00072008 0.0081347 0.0174052 0.000362122 -0.00846278 -0.00870489 -1.32782e-05 0.00219237 -0.00193123 0.0105273 0.00644313 -0.00144505 0.00347384 0.0069016 0.00503037 0.0130676 0.00908905 -0.00220126 0.00622021 0.0127397 0.00435201 0.0061665
internal_weight=0 22271 8145 11397 5883 10874 2262 5651 5746 1666 5358 596 4322 556 2775 5516 3188 3720 3108 3967 1921 3231 1389 531 2170 1684 1576 1636 2178 2285 1191 1386 1595 1910 606 1198 475 783 2022 435 450 763 1276
internal_count=30416 22271 8145 11397 5883 10874 2262 5651 5746 1666 5358 596 4322 556 2775 5516 3188 3720 3108 3967 1921 3231 1389 531 2170 1684 1576 1636 2178 2285 1191 1386 1595 1910 606 1198 475 783 2022 435 450 763 1276
is_linear=0
shrinkage=0.25


Tree=12
num_leaves=44
num_cat=0
split_feature=0 0 0 0 0 0 0 0 0 37 44 58 44 57 49 0 60 16 60 37 2 0 10 3 13 26 56 0 44 28 20 42 0 0 44 58 57 12 61 12 49 44 20
split_gain=5.74664 1.36798 0.806521 0.213984 0.155193 0.136086 0.104529 0.0338434 0.0309698 0.0275038 0.0260088 0.0251767 0.0245338 0.0236138 0.023605 0.0219851 0.0221472 0.0211802 0.0209358 0.0209228 0.0279354 0.0202314 0.019915 0.0192612 0.0192306 0.0188264 0.0183404 0.0170622 0.016736 0.016417 0.0158185 0.0155738 0.0155322 0.0150536 0.0140863 0.0152146 0.014064 0.0195822 0.0139506 0.0127521 0.0124513 0.0123669 0.0108643
threshold=12.607218237942755 12.047022809374166 13.26929951536418 12.324830516851824 12.946888456272273 11.765851948019888 13.687155752758846 12.474647507298341 12.710319566845824 0.48444609930895077 -0.21912208992174798 -0.37855758791834587 -0.2587065518009351 0.061776283815868506 0.30525456746921492 13.806719774745931 -0.031655791067472079 0.055664879364207061 0.15517864412201313 -0.29678071760253194 -1.2492009840774421 11.949750406208517 1.4528826609488685 1.0628298705836612 0.31533932904704859 -0.14247685126895462 -0.6972577579815683 13.100779547506114 -0.19545173665342749 -0.75248936510204167 0.16794407800922109 0.1150562540049829 11.640873417742247 12.144791586414746 -0.2423821123799754 0.082474241107450677 -0.81113531202999056 -0.92882033425299004 -1.2609816519931762 2.2207686546447509 0.41560816871763023 -0.36155003445844064 1.4767870485385244
decision_type=2 2 2 2 2 2 2 2 2 2 2 2 2 2 2 2 2 2 2 2 2 2 2 2 2 2 2 2 2 2 2 2 2 2 2 2 2 2 2 2 2 2 2
left_child=1 5 4 10 8 13 12 25 29 14 18 15 38 24 21 16 -8 -10 33 -14 -21 -7 27 -16 32 42 -12 41 -27 -2 -17 -19 -1 -3 -13 -36 -9 -38 -4 -28 -29 -6 -5
right_child=2 3 6 7 22 9 11 36 17 -11 26 34 19 -15 23 30 -18 31 -20 20 -22 -23 -24 -25 -26 28 39 40 -30 -31 -32 -33 -34 -35 35 -37 37 -39 -40 -41 -42 -43 -44
leaf_value=-0.0076400394589471012 0.0053215072496271857 -0.0029811140910745442 0.010372111102246988 -0.00079363228824848591 0.0040463194936077957 -0.0045925705354581169 0.0022706812962452285 2.969545100148351e-05 0.0043443738347500463 -0.0020000918866888841 -0.0022699958568597428 0.010270900101132709 0.0079666694962587103 -0.0048064369772321067 -0.0025553671634878216 0.010414068908145909 0.011765278738001999 0.0022166616605825617 -0.00023060228411910988 0.016976763251962887 0.0098816591043393957 -0.0035004742371603685 0.0036993702030558026 -0.0054869375737641958 0.00047739124464074204 -0.00019240161130829896 -0.00081042135468201702 0.0062071146054007769 0.0011427637486296624 0.0019370701631912606 0.015223191758735086 0.0043588002985138164 -0.0060551126421390889 -0.0017872199514255079 0.017420574869415912 0.01344400815066089 0.007746341643348989 0.0014174765699173026 0.0068067439747337517 0.0020559924848305403 0.0085993604270877735 0.0057336760717713745 0.0021014695875666324
leaf_weight=538 96 1046 80 1397 394 3158 34 494 1240 474 566 55 390 814 996 133 28 755 371 37 554 1596 311 163 25 1113 2451 906 1241 1339 63 295 1372 1789 86 200 31 2129 481 101 160 873 86
leaf_count=538 96 1046 80 1397 394 3158 34 494 1240 474 566 55 390 814 996 133 28 755 371 37 554 1596 311 163 25 1113 2451 906 1241 1339 63 295 1372 1789 86 200 31 2129 481 101 160 873 86
internal_value=0 -0.00212802 0.00552491 -0.000461645 0.00411381 -0.00446543 0.0097226 0.000546706 0.00307411 -0.00383242 -0.00149662 0.0125253 0.00863386 -0.00593615 -0.0039793 0.0106619 0.00655861 0.00364474 -0.00199661 0.00938796 0.0103259 -0.00422594 0.0055786 -0.00296766 -0.00641138 7.19442e-05 -0.000982523 0.0058291 0.000511481 0.00216349 0.0119599 0.0028185 -0.00650155 -0.00222772 0.0139351 0.0146398 0.00123309 0.00150831 0.00731518 -0.000696978 0.00656618 0.00520896 -0.000625743
internal_weight=0 21951 8510 12815 6369 9136 2141 6491 3725 6387 6324 599 1542 2749 5913 258 62 2290 3206 981 591 4754 2644 1159 1935 3837 3118 2333 2354 1435 196 1050 1910 2835 341 286 2654 2160 561 2552 1066 1267 1483
internal_count=30461 21951 8510 12815 6369 9136 2141 6491 3725 6387 6324 599 1542 2749 5913 258 62 2290 3206 981 591 4754 2644 1159 1935 3837 3118 2333 2354 1435 196 1050 1910 2835 341 286 2654 2160 561 2552 1066 1267 1483
is_linear=0
shrinkage=0.25


Tree=13
num_leaves=44
num_cat=0
split_feature=0 0 0 0 0 0 0 0 5 3 44 37 37 3 18 1 7 37 55 34 0 28 26 3 26 58 58 7 1 55 12 46 5 3 50 42 44 2 7 50 22 16 63
split_gain=3.24607 0.661056 0.550714 0.13015 0.114521 0.0732658 0.0650662 0.0304443 0.0326086 0.0239733 0.0302684 0.0222117 0.0201565 0.024628 0.0185376 0.0180148 0.0179722 0.016514 0.0164504 0.0162771 0.0165106 0.0159293 0.0156927 0.0152336 0.0152009 0.0151786 0.015115 0.0151114 0.0145372 0.0143851 0.014346 0.0142142 0.012945 0.0120907 0.0120666 0.019607 0.0126452 0.0118812 0.0110073 0.0103996 0.0102542 0.00926795 0.00957272
threshold=12.539040606463832 12.019018164923645 13.100779547506114 13.474177364698217 12.25519320678338 12.790955054470466 11.752041336920731 14.107469598648807 1.646146757051256 -0.41465583729900601 0.22718396508612401 0.30444116213397127 -0.29678071760253194 -0.96630818392241324 1.840202252699936 0.090355733466821658 -0.72234668839901206 0.23190736730363784 0.090454333718149524 0.21129989565165008 11.469574484868277 -0.52397332481146897 -0.11177465897801529 -0.010757227857404619 -0.061525143598871505 -0.55455036558849036 -0.41937610961418681 -0.74240762848137021 2.6900691757769519 0.11371243508127053 2.0707492693422469 1.8181761611847544 -0.83273982145714409 -0.48959164721537668 0.26407005980400777 0.65969360921599607 1.9769265062974661 -1.5059999534601789 2.3426807246015335 -0.9587293506343072 -0.044643879912286903 -0.73107797851544654 -0.35759062167547517
decision_type=2 2 2 2 2 2 2 2 2 2 2 2 2 2 2 2 2 2 2 2 2 2 2 2 2 2 2 2 2 2 2 2 2 2 2 2 2 2 2 2 2 2 2
left_child=1 6 5 24 31 22 17 12 33 10 16 26 -5 -14 -12 27 -8 19 21 20 -1 -11 30 -17 32 -24 -6 -7 -20 -28 -2 34 40 -9 35 -3 -36 -21 -25 -29 -4 42 -13
right_child=2 4 3 7 11 15 9 8 -10 18 14 41 13 -15 -16 23 -18 -19 28 37 -22 -23 25 38 -26 -27 29 39 -30 -31 -32 -33 -34 -35 36 -37 -38 -39 -40 -41 -42 -43 -44
leaf_value=-0.0088784011357001848 0.00078586672837359394 -0.0015858218268597984 0.0049233793241555178 0.0066525900287217532 -0.0006764510618430023 0.00077709654039921671 -0.003576974351943906 0.0051941154083168248 0.018934606771568045 -0.0020737801465598657 -0.00013512145528273223 0.0016670931664273599 0.012977582228376434 0.0083277186850285508 -0.0062000319849465878 0.0054093270082199649 -0.0020371470673532024 -0.0026134914071214697 -0.0040993690410447686 -0.0080257118679647743 -0.0049820170020360753 -0.0034733552268372877 0.0007250103353722083 0.0031628337410198222 0.0059706622170061646 0.0025940469592360483 0.00049309741618500157 0.0058396113188074437 -0.010084170738288073 -0.00069732233019113062 0.0025123473212229205 0.00097171937853963043 0.0044340679457245021 0.011617056346818899 -0.0028490532058326225 -4.3262810472602964e-05 -0.00073581783781785474 -0.0033397891092357976 0.0055818118588553088 0.0029020997230737077 0.011252400775403003 0.0015609767647179022 -0.00013636882535112449
leaf_weight=71 1458 3529 32 403 2241 206 987 26 33 713 428 253 81 588 34 361 911 252 1041 36 1593 1770 343 829 937 1304 2336 80 26 871 379 144 1141 62 736 603 233 558 137 1289 32 700 674
leaf_count=71 1458 3529 32 403 2241 206 987 26 33 713 428 253 81 588 34 361 911 252 1041 36 1593 1770 343 829 937 1304 2336 80 26 871 379 144 1141 62 736 603 233 558 137 1289 32 700 674
internal_value=0 -0.00175934 0.00377711 0.00638095 -0.000592512 0.00241729 -0.00346661 0.00847363 0.0122327 -0.00301371 -0.00239617 6.37636e-05 0.00804933 0.00889071 -0.000581462 0.00334512 -0.00283789 -0.00453301 -0.00342425 -0.00474723 -0.00514827 -0.00307146 0.00164446 0.00402371 0.00521541 0.00220481 -0.000178308 0.00277337 -0.00424521 0.000169787 0.00114207 -0.00147776 0.00462814 0.0097194 -0.00154691 -0.00136071 -0.00234092 -0.00362379 0.0035059 0.00307376 0.00808794 0.000874337 0.000355839
internal_weight=0 20740 9721 3335 12320 6386 8420 1193 121 5910 2360 7075 1072 669 462 2902 1898 2510 3550 2258 1664 2483 3484 1327 2142 1647 5448 1575 1067 3207 1837 5245 1205 88 5101 4132 969 594 966 1369 64 1627 927
internal_count=30461 20740 9721 3335 12320 6386 8420 1193 121 5910 2360 7075 1072 669 462 2902 1898 2510 3550 2258 1664 2483 3484 1327 2142 1647 5448 1575 1067 3207 1837 5245 1205 88 5101 4132 969 594 966 1369 64 1627 927
is_linear=0
shrinkage=0.25


Tree=14
num_leaves=44
num_cat=0
split_feature=0 0 0 0 0 0 0 60 44 0 43 40 1 57 0 52 3 37 9 1 18 1 3 37 32 63 8 3 5 0 2 40 44 49 1 26 41 58 4 7 1 3 39
split_gain=1.84839 0.476864 0.24042 0.068047 0.0629943 0.0414682 0.029606 0.0203724 0.0180657 0.0164261 0.0168982 0.0163477 0.0162605 0.0154761 0.0156654 0.0153075 0.0144559 0.023769 0.0175296 0.0134997 0.0134246 0.0129265 0.0122229 0.0122164 0.0144182 0.0116612 0.0115526 0.0132619 0.0112978 0.0127881 0.0108968 0.0132234 0.0107162 0.0106794 0.0101707 0.0100931 0.0100754 0.0100498 0.00946003 0.00942307 0.00916278 0.00901439 0.00884147
threshold=12.647404193655833 12.109240548151257 13.311590154449005 11.843323720756851 12.404876228248472 13.042360293763577 13.806719774745931 0.13305806002374812 -0.096640034029635821 11.681662586374182 0.71110929900455677 0.50580995190148859 -2.1151911890356421 -0.77302908847751395 14.107469598648807 -0.39927107730297834 0.67277648473608009 0.34976513548788035 -0.6306569292074703 -0.50933984122221909 -0.71727255121610212 -0.069267951438805847 1.4499258353941935 -0.22796396099913988 -0.92118816404456783 -0.81206553493974643 -0.15495438857272453 0.034995463627662461 -0.89064344999967437 12.684288508442334 -0.50477970982989373 -0.19237267974761255 -0.21912208992174798 0.1277506708397215 0.98211931807821384 -0.1650560781057637 0.2209280237847461 -0.83810363197074922 -0.7305519137947224 -0.69775443948226135 1.3515614539612606 0.76715036358434208 -0.87880704207840443
decision_type=2 2 2 2 2 2 2 2 2 2 2 2 2 2 2 2 2 2 2 2 2 2 2 2 2 2 2 2 2 2 2 2 2 2 2 2 2 2 2 2 2 2 2
left_child=1 3 5 9 16 21 23 8 33 10 20 -10 -11 14 15 -8 17 19 39 -3 -1 26 37 -4 -25 -20 27 -2 29 -23 34 42 -26 -5 -6 -7 -14 -15 -28 -18 41 -37 -32
right_child=2 4 6 7 30 35 13 -9 11 12 -12 -13 36 22 -16 -17 18 -19 25 -21 -22 28 -24 24 32 -27 38 -29 -30 -31 31 -33 -34 -35 -36 40 -38 -39 -40 -41 -42 -43 -44
leaf_value=-0.0041112095101657623 0.0033704605541642475 -0.0012478596878441103 0.0042536838220184779 -0.0025952817133293176 7.1830043912692732e-05 0.0028408598468318879 -0.0012349808510899736 -0.00040632417251479022 -0.0009635323842617006 0.0012331606161789894 -0.0082802128098330829 -0.0025469251107539466 -0.0031192106062052161 0.0058476217726443199 0.0096190125980626338 0.0060388851066406849 -0.00086069815332406917 0.00084817055595219051 -0.00017215985675174875 -0.00029941922201567422 -0.002126701923246199 -0.00084163477918765901 0.0031474333580926591 0.0086423000920554417 0.0042562173607415569 -0.0018153275003431595 -0.00052967923288189033 0.0012790460857948235 0.0022727144120649806 0.0048718040258298847 0.003000898427272474 0.00042736232204153486 0.006155467746343503 -0.0016189923837726489 -0.0050233135275760711 0.0040051136471877906 -0.0019953583355498839 0.0092335916982141247 0.0013913493773115742 0.0031763582999563664 0.0064824618599239542 0.0015457938247179844 0.0011644577692926253
leaf_weight=983 378 1330 558 2532 1190 948 33 567 1504 61 52 559 2434 68 29 40 64 870 350 3182 272 28 28 96 310 1180 194 380 1886 195 186 2150 463 968 25 893 627 282 920 83 83 104 1376
leaf_count=983 378 1330 558 2532 1190 948 33 567 1504 61 52 559 2434 68 29 40 64 870 350 3182 272 28 28 96 310 1180 194 380 1886 195 186 2150 463 968 25 893 627 282 920 83 83 104 1376
internal_value=0 -0.00114833 0.00329215 -0.00237334 -6.91725e-05 0.002516 0.00573783 -0.00183388 -0.00197939 -0.00311998 -0.00386408 -0.00139258 -0.00280846 0.00743625 0.00470349 0.00275071 -0.000547994 -0.00034829 -0.0011889 -0.000578991 -0.0036811 0.00204726 0.00817366 0.00516653 0.00575268 -0.00143944 0.0015691 0.002322 0.00247168 0.00415442 0.000616843 0.000829551 0.0053938 -0.00232527 -3.30099e-05 0.00343615 -0.00288901 0.00857575 0.00105681 0.00141873 0.00395868 0.00374858 0.00138314
internal_weight=0 22545 7916 10559 11986 6009 1907 6130 5563 4429 1307 2063 3122 480 102 73 7059 5382 1677 4512 1255 3981 378 1427 869 1530 1872 758 2109 223 4927 3712 773 3500 1215 2028 3061 350 1114 147 1080 997 1562
internal_count=30461 22545 7916 10559 11986 6009 1907 6130 5563 4429 1307 2063 3122 480 102 73 7059 5382 1677 4512 1255 3981 378 1427 869 1530 1872 758 2109 223 4927 3712 773 3500 1215 2028 3061 350 1114 147 1080 997 1562
is_linear=0
shrinkage=0.25


Tree=15
num_leaves=44
num_cat=0
split_feature=0 0 0 0 0 0 59 0 56 3 3 1 1 3 39 0 7 0 44 24 41 50 39 51 44 12 25 44 50 58 39 2 55 9 0 44 15 2 32 2 61 8 1
split_gain=1.04547 0.287967 0.126388 0.0464154 0.0309778 0.0249969 0.0179514 0.0269317 0.0911973 0.0222938 0.0159248 0.0178233 0.0137638 0.0136947 0.0168203 0.0147153 0.0125427 0.0123243 0.0158377 0.0127907 0.0120087 0.0113322 0.0114036 0.0110307 0.012774 0.0192832 0.0108517 0.0141826 0.0146553 0.0105165 0.01015 0.00970005 0.00926261 0.0118331 0.00921955 0.00892154 0.00877206 0.00836906 0.00838005 0.00819674 0.00803579 0.00765353 0.00764985
threshold=12.684288508442334 12.149909512671139 13.419397846490101 11.90934417755245 12.421390536063948 12.946888456272273 -0.35498120118482807 11.469574484868277 0.0025256128844426229 0.13108240018364717 1.4499258353941935 -0.069267951438805847 2.3026531742221175 -2.0872536154829979 -0.77392718179759068 11.667487131752079 -0.74003330081392393 13.97612049516861 -0.17687424289525622 -1.0574193709120361 1.9195417552314709 -1.3408142259446652 -1.138525764603705 1.3866813285277886 -0.21912208992174798 -0.54856767098989578 0.59701288252032747 -0.26990874045870034 -1.5929831099600682 -0.63445585060820842 -0.54869005150358652 2.1819151195129471 0.53058793674320326 -0.66464790449688749 13.862826354174866 -0.62530269741149447 1.8415808705435841 -0.30439199423590102 -0.32449112378612094 -0.87362026661251513 0.5565780555637857 0.093357465794989256 -0.24889118235685712
decision_type=2 2 2 2 2 2 2 2 2 2 2 2 2 2 2 2 2 2 2 2 2 2 2 2 2 2 2 2 2 2 2 2 2 2 2 2 2 2 2 2 2 2 2
left_child=1 3 5 6 26 29 13 8 -8 -9 11 20 40 14 -1 -15 -7 18 -4 -20 -5 -18 -23 24 31 -26 27 36 -29 -2 -19 -6 33 -31 -21 -34 -3 38 -32 42 -12 -39 -28
right_child=2 4 17 10 23 16 7 9 -10 -11 12 -13 -14 15 -16 -17 21 30 19 34 -22 22 -24 -25 25 -27 39 28 -30 32 37 -33 35 -35 -36 -37 -38 41 -40 -41 -42 -43 -44
leaf_value=0.0058886408575889969 0.00062139456026153567 -0.00071980212183579651 0.0031442291322679237 -0.0016650178366197791 -4.6164707073339759e-05 0.00091804594222805527 -0.016924725687101419 -0.0011990129433663438 0.0018594019416404584 -0.0026494368586686004 -0.0017901074058103827 -0.0006184794102341945 -0.0078813852299081145 -0.0039693509945189975 -0.0016948817159032621 -0.0024732701425900184 0.005295036898692285 0.0091178404915286965 0.010390014707431476 0.0045718845984699177 0.0010919226291963334 0.0054094840580474791 0.0025045339797453471 0.001648695776007284 0.0025844921015917895 0.00050274072231405828 -0.0018831122565770529 -0.0058060888970600166 0.00027309891064637086 0.0048188306968446927 0.0068876427283409902 -0.0047369684319630012 0.0040220151867831917 0.0018712054649798852 0.0076470498474589992 0.00013405477331832107 0.00083768932833994721 0.0048423896384339289 0.0018974970110712925 -0.00068183778815119722 -0.0050532680773462384 0.0095605950045631882 -0.0065336659332055702
leaf_weight=25 639 2448 426 2391 1722 276 30 2052 35 978 299 2632 30 500 68 2306 100 61 27 673 103 87 2891 495 315 2374 191 25 2872 90 33 28 42 1570 67 303 249 44 58 783 56 42 25
leaf_count=25 639 2448 426 2391 1722 276 30 2052 35 978 299 2632 30 500 68 2306 100 61 27 673 103 87 2891 495 315 2374 191 25 2872 90 33 28 42 1570 67 303 249 44 58 783 56 42 25
internal_value=0 -0.000827587 0.00258307 -0.00171242 5.55557e-05 0.0020794 -0.00219391 -0.00177518 -0.00681025 -0.00166717 -0.00118873 -0.00107226 -0.00273941 -0.00264094 0.000343716 -0.00273986 0.00253253 0.00469418 0.00436648 0.00504533 -0.00155116 0.0026773 0.0025894 0.000529306 0.000404481 0.000746606 -0.000298984 -0.000163444 0.000220637 0.00150458 0.00633679 -0.000121219 0.00178605 0.00203102 0.00485032 0.000607376 -0.000576007 0.00537833 0.00370713 -0.00105796 -0.00230486 0.00714666 -0.00242138
internal_weight=0 23032 7429 11505 11527 5998 5994 3095 65 3030 5511 5126 385 2899 93 2806 3354 1431 1193 767 2494 3078 2978 4934 4439 2689 6593 5594 2897 2644 238 1750 2005 1660 740 345 2697 177 91 999 355 86 216
internal_count=30461 23032 7429 11505 11527 5998 5994 3095 65 3030 5511 5126 385 2899 93 2806 3354 1431 1193 767 2494 3078 2978 4934 4439 2689 6593 5594 2897 2644 238 1750 2005 1660 740 345 2697 177 91 999 355 86 216
is_linear=0
shrinkage=0.25


Tree=16
num_leaves=44
num_cat=0
split_feature=0 0 0 0 0 2 1 3 0 26 54 12 37 3 10 45 22 1 49 1 3 38 1 37 26 42 3 18 44 43 0 0 40 1 8 20 35 0 1 50 28 1 59
split_gain=0.589441 0.119798 0.112304 0.0293566 0.0199129 0.0185284 0.0179497 0.0155879 0.0139325 0.0115473 0.0121501 0.0113722 0.0113413 0.0107308 0.0107639 0.0101964 0.0141607 0.0135843 0.0110279 0.0100283 0.009291 0.00889213 0.00893298 0.0160999 0.00842906 0.00845489 0.0092211 0.00813095 0.0114365 0.00805106 0.00959189 0.0092142 0.0080492 0.0173862 0.00742166 0.00736977 0.0101856 0.00726352 0.00718443 0.0069101 0.00731052 0.00630737 0.00515444
threshold=12.494782469219524 13.255719690857687 12.004308265993435 12.861110658851524 12.286387892561274 3.2661472093694601 -0.075966503477106331 -0.21334907337600825 13.591675751850964 -0.11177465897801529 -1.1072564036491783 2.0707492693422469 0.23190736730363784 -2.0872536154829979 -0.9634069394008572 -0.35451561545369065 0.3927908300787169 1.9659586869359862 0.11049321638551012 -1.9601461287429995 1.9601722686185548 0.99033929997984338 1.7967170949957743 -0.19004480639420648 -0.13171772831039133 -1.0018569051302233 0.18633227079143916 1.2151357456232923 0.36410007169588671 -0.45048836052208041 11.60471531779921 11.558432606548342 -0.47343643652291928 1.4642884392929689 -0.22462462109316225 -1.6133380526251653 -1.1948290476517143 11.558432606548342 0.26810087847951231 -1.0685269105479598 -1.17444749364697 1.3900436529068878 -0.58503904428629727
decision_type=2 2 2 2 2 2 2 2 2 2 2 2 2 2 2 2 2 2 2 2 2 2 2 2 2 2 2 2 2 2 2 2 2 2 2 2 2 2 2 2 2 2 2
left_child=2 3 6 5 15 9 12 32 13 11 -11 -2 27 -3 -15 -4 18 -18 -17 -14 39 22 38 -24 35 42 -27 28 -1 31 -31 -9 33 -8 -21 -5 -37 -34 -6 -10 -41 -16 -26
right_child=1 8 4 24 21 -7 7 29 20 10 -12 -13 19 14 41 16 17 -19 -20 34 -22 -23 23 -25 25 26 -28 -29 -30 30 -32 -33 37 -35 -36 36 -38 -39 -40 40 -42 -43 -44
leaf_value=-0.0020306071667283627 8.7990246827733575e-05 0.0075774591393848838 -0.0015153175559990139 -0.0013005516471271555 -0.00022540645067600996 -0.0054088929986508419 9.7010419642817512e-06 0.0029818940155673084 0.0074833400601742438 0.0051770784565627849 0.0010312221577547008 0.0014254989397614417 0.0040145449872897978 -0.0025952036712317936 0.0024646783464534012 -0.00096424757389341825 0.00078713054672546301 -0.0040689706026292016 -0.00020132188765643156 -0.0017175388213674049 -0.00012103805765503178 0.00092351124991099101 -0.0072975980005760563 -0.00065668875076304873 0.00074532589768549757 0.00239377727878774 0.001185235128348085 -0.0054167287194191701 0.00065215813621802851 -0.0052175845123372732 -0.0018607860662769047 -0.001201413085904657 -0.0033787421572863295 0.0065119828789203162 0.00083443459875916465 0.0048501890638241296 0.0012233427767791606 -0.00068440240311487934 0.00044691181405840985 0.0069597737658673685 0.0037414096997685983 0.0042822611579363236 0.004503606972778019
leaf_weight=3770 2047 27 696 69 3208 31 313 34 36 45 2425 493 28 25 1243 2905 685 38 1999 226 34 630 29 107 28 876 718 43 102 56 1065 1024 66 28 104 50 1508 1191 1439 47 718 132 123
leaf_count=3770 2047 27 696 69 3208 31 313 34 36 45 2425 493 28 25 1243 2905 685 38 1999 226 34 630 29 107 28 876 718 43 102 56 1065 1024 66 28 104 50 1508 1191 1439 47 718 132 123
internal_value=0 0.00150038 -0.000804613 0.00106612 -0.00031133 0.000684169 -0.00152376 -0.0011267 0.00311552 0.000721871 0.00110675 0.000347594 -0.00187474 0.0026409 0.0025457 -0.000612633 -0.000500981 0.000531898 -0.000653259 -0.00052786 0.00392663 4.06273e-05 -7.56632e-05 -0.00207278 0.00163711 0.00201878 0.0018494 -0.0019979 -0.00195994 -0.00156163 -0.00202848 -0.00106698 -0.000533634 0.00054362 -0.00091328 0.00122777 0.00133974 -0.000825872 -1.72149e-05 0.00409844 0.00393914 0.00263917 0.00380671
internal_weight=0 10675 19786 8413 11736 5041 8050 3777 2262 5010 2470 2540 4273 1427 1400 6323 5627 723 4904 358 835 5413 4783 136 3372 1745 1594 3915 3872 2179 1121 1058 1598 341 330 1627 1558 1257 4647 801 765 1375 151
internal_count=30461 10675 19786 8413 11736 5041 8050 3777 2262 5010 2470 2540 4273 1427 1400 6323 5627 723 4904 358 835 5413 4783 136 3372 1745 1594 3915 3872 2179 1121 1058 1598 341 330 1627 1558 1257 4647 801 765 1375 151
is_linear=0
shrinkage=0.25


Tree=17
num_leaves=44
num_cat=0
split_feature=0 0 0 7 62 3 59 0 10 0 43 60 39 57 38 8 44 53 58 50 1 2 1 1 19 3 9 2 3 50 2 49 18 13 44 1 29 0 52 0 2 0 61
split_gain=0.340892 0.0927668 0.0406159 0.0242911 0.0232788 0.0198626 0.0173102 0.0181997 0.0139529 0.0116398 0.0141121 0.0136291 0.0113102 0.0105293 0.0134249 0.0130904 0.00986583 0.0096469 0.0095313 0.00922749 0.00908585 0.0149763 0.010245 0.00828857 0.0100422 0.00833812 0.00930141 0.00907226 0.00801678 0.00755397 0.0077623 0.00743544 0.00721348 0.00713343 0.0062818 0.00558823 0.0054934 0.00487998 0.00448973 0.00368461 0.0042831 0.00357937 0.00401372
threshold=12.684288508442334 12.202862272120639 13.375822038924566 -0.72234668839901206 0.61873611032031384 -0.1312240259549424 -0.50676007925643696 11.511516100242254 -0.61726820588382669 11.795097294526448 0.012760690117933557 -0.6345952661110642 -1.0196661579587512 -0.77302908847751395 0.99033929997984338 -0.59173315398931381 0.39989938429160049 -0.073092960929721562 -0.71779199019825313 -0.93794899647050933 -1.9601461287429995 -1.390562525411088 -0.48856966685988507 0.79258951063803351 -0.41231624368930475 1.4907615860893542 -0.6306569292074703 0.92836872187101094 -1.1981966891619298 -0.74323093358748704 -0.14864979575363182 0.1277506708397215 -1.6215592290568641 -1.02408739223274 0.24697410642605419 -1.2971195208255921 -0.59318008564106284 11.727415522230464 0.36363983442104908 11.914628505326098 0.86224740576493664 12.903939719763654 0.37084116838416264
decision_type=2 2 2 2 2 2 2 2 2 2 2 2 2 2 2 2 2 2 2 2 2 2 2 2 2 2 2 2 2 2 2 2 2 2 2 2 2 2 2 2 2 2 2
left_child=1 3 18 4 8 6 17 -8 16 10 -7 -11 34 15 32 -14 -1 -5 36 -17 21 -20 33 25 -25 26 -4 -28 -24 -26 -31 -27 -15 -22 -3 -16 41 -10 -33 40 -6 -2 -43
right_child=2 12 23 5 39 9 7 -9 37 11 -12 -13 13 14 35 19 -18 -19 20 -21 22 -23 28 24 29 31 27 -29 -30 30 -32 38 -34 -35 -36 -37 -38 -39 -40 -41 -42 42 -44
leaf_value=-0.0018499904484291661 0.00019047494213233262 0.00093089138618278984 0.0070524201749982739 -0.00049267062632456031 -7.2866162871247905e-05 -0.0014666856648332201 -0.0042978375773943707 0.0002637541440315793 -0.0024281182233482556 -0.0024142841758356833 -0.004459047792271853 -0.00072626620480937198 -0.0058336514299377413 -0.0019736677148199755 0.0033192747079254219 0.0017456196923708017 0.00074796632563333939 -0.0018842984770726396 0.0081133865626687347 -0.0006387405044856264 -0.00094407996107099331 0.00068029016578356489 0.0034566788512212739 -0.00069577439437494342 0.0071690973734752274 0.0024109631869671431 0.0021726091915062751 0.0048663898855483426 0.0014169158501670788 0.0069515854211067325 0.0030453493260077548 -0.0038935403453347677 3.11791402305043e-05 0.00087811451317211953 0.0040761749602759604 0.00078289145404500577 -0.00023927553073839903 0.0014169422044861587 0.0005501402270999381 0.001134877513135404 -0.0030048890444373715 0.0011124822395280811 0.003562547412115296
leaf_weight=3251 240 515 27 938 370 623 56 2293 25 325 117 3729 29 114 57 109 94 466 32 1463 153 36 125 30 43 49 1120 84 3291 37 226 30 6972 1097 43 1142 411 118 27 149 34 323 48
leaf_count=3251 240 515 27 938 370 623 56 2293 25 325 117 3729 29 114 57 109 94 466 32 1463 153 36 125 30 43 49 1120 84 3291 37 226 30 6972 1097 43 1142 411 118 27 149 34 323 48
internal_value=0 -0.000472605 0.00147495 -0.000929615 -0.00143468 -0.000690821 -0.000260086 0.000155005 -0.0016736 -0.00102802 -0.0019398 -0.000861591 7.82218e-05 1.64133e-05 0.00012983 -0.000570507 -0.00177698 -0.000954565 0.0011598 -0.000473412 0.00130928 0.00417825 0.00126747 0.00255921 0.00366923 0.00228026 0.00246346 0.00236055 0.00149156 0.00409717 0.00359491 0.000152682 -1.07506e-06 0.000655078 0.00117327 0.000903471 0.000467424 0.000744723 -0.00178865 7.22769e-05 -0.000319623 0.000942798 0.00142948
internal_weight=0 23032 7429 12588 4041 8547 3753 2349 3488 4794 740 4054 10444 9886 8285 1601 3345 1404 5756 1572 4734 68 4666 1673 336 1337 1231 1204 3416 306 263 106 7086 1250 558 1199 1022 143 57 553 404 611 371
internal_count=30461 23032 7429 12588 4041 8547 3753 2349 3488 4794 740 4054 10444 9886 8285 1601 3345 1404 5756 1572 4734 68 4666 1673 336 1337 1231 1204 3416 306 263 106 7086 1250 558 1199 1022 143 57 553 404 611 371
is_linear=0
shrinkage=0.25


Tree=18
num_leaves=44
num_cat=0
split_feature=0 0 0 34 39 2 41 2 52 12 44 12 7 0 53 53 3 0 0 56 25 6 50 2 44 20 49 25 44 11 50 54 16 0 14 9 27 61 2 30 56 0 2
split_gain=0.19599 0.0415495 0.0411539 0.0121764 0.01029 0.0109165 0.0100525 0.0100931 0.00999857 0.0116263 0.00935826 0.0110702 0.0134225 0.0127728 0.0100767 0.00981374 0.00956064 0.00893357 0.00881157 0.00991635 0.0085486 0.00991674 0.00886759 0.0121354 0.0100815 0.0100413 0.00844515 0.010275 0.00935711 0.00797576 0.00774239 0.00734486 0.00720953 0.00714188 0.00636372 0.00515395 0.00484938 0.00451216 0.00413578 0.00389745 0.00548604 0.00406408 0.00377532
threshold=12.474647507298341 11.981060505741306 13.042360293763577 -4.9340643620010729 -1.138525764603705 -1.5059999534601789 -0.25814352091091691 -2.2650264173005192 0.14075201532149526 -0.14797176928326464 -0.2587065518009351 -0.53912614544394755 -0.23220576776003821 14.107469598648807 1.2947457180589583 -0.89411609964289518 -0.72611702738561335 11.705493430498501 13.97612049516861 -0.11271194705332667 0.79190073774644121 -0.36983635111385066 -0.67551458209705217 3.2661472093694601 -0.33885376910401205 -2.2008898588521615 0.61480560055576072 0.56079411709405125 -0.52987818361281169 3.4533890701195649 -1.6963102143750961 -0.47546222977347025 0.014257360528435762 12.047022809374166 -0.6315528475496307 -0.47950458235042509 0.069030313215897685 -2.8549292197886351 0.27868285873427084 -0.1900280066803948 0.39420879737941422 12.566481128629549 0.48552894214605252
decision_type=2 2 2 2 2 2 2 2 2 2 2 2 2 2 2 2 2 2 2 2 2 2 2 2 2 2 2 2 2 2 2 2 2 2 2 2 2 2 2 2 2 2 2
left_child=1 3 20 -1 5 -5 7 -3 17 -10 15 12 16 29 -15 37 -12 -6 36 -20 22 35 25 24 -24 -2 27 28 -8 -13 -9 -29 -27 -32 -7 -22 -17 -4 -37 41 -41 -23 -39
right_child=2 6 10 4 8 34 26 30 9 -11 11 13 -14 14 -16 18 -18 -19 19 -21 21 39 23 -25 -26 32 -28 31 -30 -31 33 -33 -34 -35 -36 38 -38 42 -40 40 -42 -43 -44
leaf_value=0.0039248516059720573 -0.00091741949053533354 -0.0042110085676963106 0.0039900358187802409 -0.0038393341492019999 -0.0017497575004859493 -0.00015467688876591028 -0.00033511116493413116 -0.0040827569863092755 -0.00084763112921239388 0.0010176194923584134 0.0055214139565324932 0.0014792995815142143 -0.00089314481591542519 0.0023604885003492065 0.0083906977537498324 0.00076559782272278619 0.00268678128362376 -0.0010092742092437297 0.0072763228565761295 0.00023491490086625469 -0.00021117758799220712 -0.00065405374663347123 2.5436279120798972e-05 -0.0043743021793806892 0.00076056537143689951 0.0021997462139984316 0.00086491783823549641 0.00011342881153277503 0.00028106598421251167 -0.0017843137987105888 -0.0014659781175781999 -0.0012502618292776439 0.00031145588411256092 -0.00032708462384147148 0.0018104558547822832 -0.0033995298117702475 -0.00043846775269787219 0.0020383643828291663 -0.0008670223556038909 -0.00014871893206554467 0.0032547924710885842 0.002001399752276515 0.00029499431942938748
leaf_weight=32 103 46 57 42 1307 406 2690 37 760 288 96 1873 53 43 29 603 330 4610 25 25 128 49 1772 32 3409 510 605 367 3604 48 385 754 168 3242 138 95 320 325 70 655 31 136 102
leaf_count=32 103 46 57 42 1307 406 2690 37 760 288 96 1873 53 43 29 603 330 4610 25 25 128 49 1772 32 3409 510 605 367 3604 48 385 754 168 3242 138 95 320 325 70 655 31 136 102
internal_value=0 -0.000485439 0.00083331 -0.000941504 -0.000962127 4.4012e-05 -0.000190611 -0.000530885 -0.00104678 -0.000335043 0.00148343 0.00177964 0.00285879 0.00152028 0.00478936 0.000980866 0.00332558 -0.00117284 0.000523258 0.00375565 0.000476462 -0.000143512 0.000596857 0.00047916 0.000509137 0.00138246 -3.32021e-05 -0.000106481 1.77173e-05 0.00139775 -0.000484682 -0.000803808 0.00173185 -0.000447976 0.000343832 -0.00140163 0.000348154 0.00190081 -0.00232514 0.000279714 5.08583e-06 0.00129806 0.00162192
internal_weight=0 19313 11087 7583 7551 586 11730 3710 6965 1048 3929 2472 479 1993 72 1457 426 5917 973 50 7158 1164 5994 5213 5181 781 8020 7415 6294 1921 3664 1121 678 3627 544 293 923 484 165 871 686 185 427
internal_count=30400 19313 11087 7583 7551 586 11730 3710 6965 1048 3929 2472 479 1993 72 1457 426 5917 973 50 7158 1164 5994 5213 5181 781 8020 7415 6294 1921 3664 1121 678 3627 544 293 923 484 165 871 686 185 427
is_linear=0
shrinkage=0.25


Tree=19
num_leaves=44
num_cat=0
split_feature=0 0 0 3 40 56 44 56 12 41 53 26 3 13 5 17 50 2 56 52 53 41 3 21 40 56 2 3 0 3 53 3 0 12 2 28 3 39 24 40 32 3 3
split_gain=0.114394 0.0309027 0.0159953 0.0110122 0.0133215 0.0139568 0.0124323 0.0150349 0.0122584 0.00989904 0.00982464 0.00952803 0.0100605 0.00896708 0.00946578 0.0079379 0.00776164 0.00871926 0.00791114 0.0071925 0.00823914 0.0109836 0.00931134 0.00803593 0.00734632 0.0101371 0.00739024 0.00700698 0.00781089 0.00698628 0.00659848 0.00640104 0.00859744 0.00640874 0.0056395 0.00549659 0.00540483 0.00495335 0.00500742 0.00408709 0.0035041 0.00275291 0.00326848
threshold=12.356993658450033 13.032240378800102 11.82852224591308 -0.42631907654491702 -1.0501985041324737 0.037534321951679141 0.1199634516402978 -0.65728072763203238 -0.68588644172376056 -0.046699732133517399 0.68445659006960313 0.20198886129901961 -2.190341878854039 -1.02408739223274 -0.83096699888640846 -1.0600329428203357 0.52480137062781163 2.0824813762037127 0.037534321951679141 -1.9161702812723969 0.84241017614919589 -0.10187610492236868 -0.25155051394595873 0.68451300797215697 1.0000000180025095e-35 -0.44411940373465586 -2.2650264173005192 1.4499258353941935 12.028223004752606 1.8285629604317684 0.58066905740953956 0.21531652112444424 11.558432606548342 -0.27081404384400576 -1.6573954813722198 -0.48591202314511578 -0.7023468777636267 -0.19086786068306066 -0.01328129804984912 -0.47343643652291928 0.065852047479728157 -0.1312240259549424 -1.4028059487468172
decision_type=2 2 2 2 2 2 2 2 2 2 2 2 2 2 2 2 2 2 2 2 2 2 2 2 2 2 2 2 2 2 2 2 2 2 2 2 2 2 2 2 2 2 2
left_child=2 19 16 4 5 34 9 -8 27 -6 15 12 -3 39 -15 -10 17 31 -19 -2 24 23 -23 -22 26 -26 -21 35 -29 -12 37 32 -1 -33 -4 -5 -32 40 -39 -14 -13 42 -18
right_child=1 11 3 8 6 -7 7 -9 10 -11 29 30 13 14 -16 -17 41 18 -20 20 21 22 -24 -25 25 -27 -28 28 -30 -31 36 33 -34 -35 -36 -37 -38 38 -40 -41 -42 -43 -44
leaf_value=-0.0021635176935907263 -0.00039491337872028966 0.0054881171817442575 0.0043803386501288771 0.00087304410921113906 -0.00085928274132664097 0.0071508755026527286 -0.0014530822520353846 0.00092381101747960063 0.00011465626295268199 0.00020032366527174359 6.2459304755675576e-05 0.0031674732879560814 0.0013659486932091531 0.0031313632022170424 0.0008131343114033022 -0.00092930513023914581 -7.3001026693002708e-05 -0.00044308414941323629 0.0054527328263534831 0.0038234691332305415 -0.00020295734269206223 0.0032141354306640052 0.0010922981978215604 0.0017616963179753638 0.0006190194308594415 -0.00037617149181544028 0.00041066598457680019 -0.0045415530057077548 -0.00060818667783890136 -0.0026326926194072935 0.0060272198859777524 -0.0011648618029584501 -0.00069111474895182693 -0.0026923446583685547 0.00074232496900492712 -6.8205258082956212e-05 0.0024299081745264477 -0.00039555876921270727 0.0013523913109054749 -0.0017902939377409917 0.001576354537319616 -0.0013937888397718037 0.0026725811458737942
leaf_weight=272 890 29 29 545 1439 25 199 1013 509 893 1311 126 33 115 2575 4308 47 33 25 40 602 167 572 166 933 2035 4615 38 186 63 30 603 2792 240 326 1344 201 136 415 115 276 25 64
leaf_count=272 890 29 29 545 1439 25 199 1013 509 893 1311 126 33 115 2575 4308 47 33 25 40 602 167 572 166 933 2035 4615 38 186 63 30 603 2792 240 326 1344 201 136 415 115 276 25 64
internal_value=0 0.000519059 -0.000453547 -0.000310254 3.48732e-05 0.00144159 -0.00011596 0.000533545 -0.000473341 -0.000453524 -0.000650794 0.00110174 0.000855347 0.000808006 0.000912241 -0.000818992 -0.000880804 -0.000944501 0.00209824 0.000283488 0.000349619 0.000883755 0.00157179 0.000221695 0.000244025 -6.33301e-05 0.000439992 4.65866e-05 -0.00127546 -6.11182e-05 0.00169836 -0.000989671 -0.000821824 -0.00159973 0.00103952 0.000203357 0.0028971 0.00140779 0.000920955 -0.00108653 0.00207507 0.000976246 0.00151004
internal_weight=0 14071 16329 12228 3924 380 3544 1212 8304 2332 6191 4051 2867 2838 2690 4817 4101 3965 58 10020 9130 1507 739 768 7623 2968 4655 2113 224 1374 1184 3907 3064 843 355 1889 231 953 551 148 402 136 111
internal_count=30400 14071 16329 12228 3924 380 3544 1212 8304 2332 6191 4051 2867 2838 2690 4817 4101 3965 58 10020 9130 1507 739 768 7623 2968 4655 2113 224 1374 1184 3907 3064 843 355 1889 231 953 551 148 402 136 111
is_linear=0
shrinkage=0.25


Tree=20
num_leaves=44
num_cat=0
split_feature=0 0 0 22 57 2 43 44 2 62 44 40 3 2 13 14 1 1 1 39 52 58 33 1 1 20 45 5 50 26 3 2 10 3 53 3 24 58 61 3 1 2 19
split_gain=0.0670234 0.0190032 0.0118575 0.00936584 0.00858343 0.00842125 0.00804086 0.00760499 0.0103197 0.00740614 0.00960919 0.00769651 0.00700036 0.00936603 0.0131887 0.00911265 0.0118707 0.00727722 0.00642521 0.00678009 0.00675682 0.00785318 0.0071817 0.00584032 0.00553802 0.00543479 0.00542978 0.0120776 0.00591876 0.00533187 0.00651938 0.00491354 0.0122026 0.00480042 0.00479425 0.00406381 0.00376086 0.0052055 0.00406304 0.00341339 0.00318012 0.00294767 0.00266097
threshold=12.587182985252005 11.981060505741306 13.552338137156754 0.42675217628999695 2.7971885343469673 0.39450417525551101 -3.2413297814925688 1.9769265062974661 2.8547293626496146 -0.0072627842680072783 0.19298497622187591 0.07732197725264274 0.54123184842298311 -0.34917487985015699 -0.6785979045153282 -0.5177732155390925 1.3180185451280331 1.0413733790212782 3.6027483926537296 -1.0196661579587512 1.760734228264859 1.6570419402454395 0.22709492536156092 1.7967170949957743 -1.6804454688077337 -1.7740004979493496 -0.024564010532456756 -0.80884611280933505 -0.85631210488274834 -0.22601674205924852 -0.14026688110279636 -1.5059999534601789 -0.64567583787979199 1.4907615860893542 -0.26902451972727975 -1.1981966891619298 0.015385503495686301 -0.76083632523346911 1.2308351147488541 -0.22307693118204522 0.49524624158029223 2.0824813762037127 2.3203720567144237
decision_type=2 2 2 2 2 2 2 2 2 2 2 2 2 2 2 2 2 2 2 2 2 2 2 2 2 2 2 2 2 2 2 2 2 2 2 2 2 2 2 2 2 2 2
left_child=1 18 3 4 9 -6 23 8 24 11 -11 -2 13 14 -8 17 -17 -14 19 31 21 -21 -22 40 -5 -15 28 -28 -4 35 -31 32 -1 39 -33 -29 38 -38 -30 -9 42 -7 -3
right_child=2 6 26 7 5 41 12 33 -10 10 -12 -13 15 25 -16 16 -18 -19 -20 20 22 -23 -24 -25 -26 -27 27 29 36 30 -32 34 -34 -35 -36 -37 37 -39 -40 -41 -42 -43 -44
leaf_value=0.0007023395866063431 0.00056446392256615625 0.0040427745169791824 0.005631358901556951 0.0044130989753271462 -0.0034252802089077728 -0.00075220558186549018 -0.00096592203824070002 0.003922370065901206 -0.0042582788591514426 0.00036162346996479949 0.001305130495360136 -0.00023626836854148521 2.1956993557953942e-05 -0.00085151600449530883 1.2103224427769176e-05 -0.00034959700054650912 -0.0017076614467476047 0.0019313109623406437 -0.0039874227928499853 -0.00063983518535607299 0.0033699949516654746 -0.0039538263147093087 -0.00057356677218178798 0.0047385674270457668 0.00079322370933906168 0.00031714666963761107 -0.0046695048148591165 -0.0023529602654556699 0.00137248366442231 0.0045673115576781442 0.00094529490084871643 0.00070174150077800508 -0.00618905961961062 0.0053215524129696943 -0.0005934450132721649 0.00070767527781443894 1.6854496629657278e-05 0.0025749532498893189 -0.0014932321458355896 0.0014495045511780651 -8.8103635686132768e-05 0.0021487125643495247 0.00073640614798150031
leaf_weight=42 1341 29 25 27 73 81 1150 42 25 2091 996 1703 593 262 3438 2864 468 158 34 6507 54 45 62 31 1218 4901 25 33 166 48 88 548 26 28 265 152 59 316 38 206 80 30 32
leaf_count=42 1341 29 25 27 73 81 1150 42 25 2091 996 1703 593 262 3438 2864 468 158 34 6507 54 45 62 31 1218 4901 25 33 166 48 88 548 26 28 265 152 59 316 38 206 80 30 32
internal_value=0 -0.000239668 0.000578536 0.000477716 0.000342697 -0.00133974 -6.70833e-05 0.00102923 0.000770743 0.00039319 0.00066604 0.000116485 -8.82048e-05 2.6873e-05 -0.000233043 -0.000363033 -0.000540346 0.00042366 -0.000558435 -0.000542991 -0.000629111 -0.000662596 0.00126223 0.00163172 0.000871728 0.000257842 0.00141279 0.000623115 0.00186516 0.00103532 0.00222366 0.000108822 -0.00193263 0.00221864 0.000279571 0.00016172 0.00170254 0.00217248 0.000838672 0.0018683 0.000948643 3.18309e-05 0.0023083
internal_weight=0 21589 8811 7861 6315 184 14006 1546 1270 6131 3087 3044 13834 9751 4588 4083 3332 751 7583 7549 6668 6552 116 172 1245 5163 950 346 604 321 136 881 68 276 813 185 579 375 204 248 141 111 61
internal_count=30400 21589 8811 7861 6315 184 14006 1546 1270 6131 3087 3044 13834 9751 4588 4083 3332 751 7583 7549 6668 6552 116 172 1245 5163 950 346 604 321 136 881 68 276 813 185 579 375 204 248 141 111 61
is_linear=0
shrinkage=0.25


Tree=21
num_leaves=44
num_cat=0
split_feature=0 0 7 11 44 50 3 0 12 41 1 2 9 0 3 1 59 14 6 3 4 54 12 7 3 28 26 4 1 6 3 44 38 56 0 5 3 0 5 0 2 2 48
split_gain=0.0398096 0.0117293 0.0103119 0.0177808 0.0155214 0.012866 0.0104288 0.0105215 0.0221584 0.0077807 0.00750796 0.01301 0.00738807 0.00752886 0.00669711 0.00636393 0.00634743 0.00618958 0.010866 0.00648423 0.00832202 0.00614062 0.00728722 0.00553102 0.00717332 0.00981528 0.0118823 0.00846583 0.00766818 0.00637632 0.00587732 0.00513429 0.00480742 0.00432726 0.00407726 0.00397465 0.00354283 0.00340774 0.00324045 0.00253318 0.00230723 0.00191036 0.00186577
threshold=12.392685896427659 13.140307415793671 -0.72407307023334899 -0.53228929536626268 0.24697410642605419 -1.4160284695393617 -0.21334907337600825 11.511516100242254 -0.39864345342533897 2.1347481323211768 2.6900691757769519 2.5833149517548279 -1.2176110361387844 11.765851948019888 -1.2439824975629281 1.140367982133548 -0.76616233833165881 -0.92379798156482529 -0.7086626909957493 1.9601722686185548 -0.71998906067517032 -1.147856554344042 -1.1125558747900892 2.1352838360041337 0.14098216299563193 0.34130743648186851 -0.079435862559106576 -0.46648058580591883 -2.2904033013306155 -0.81291694942094883 0.78071434128475981 0.3077230075365423 -0.43173781606674011 0.90905632227551192 12.99205922617092 -0.93804561558147503 2.3610160132063167 12.109240548151257 -0.9431532149275621 12.74215653073127 1.3632872983820168 -0.38736812479615756 0.21487223970405145
decision_type=2 2 2 2 2 2 2 2 2 2 2 2 2 2 2 2 2 2 2 2 2 2 2 2 2 2 2 2 2 2 2 2 2 2 2 2 2 2 2 2 2 2 2
left_child=2 23 3 4 12 14 7 8 -7 -9 16 -12 32 -14 35 -6 -8 18 -3 21 33 -19 -23 24 25 26 -2 29 -27 -26 -29 -17 -1 -21 36 -4 39 42 -16 -25 -36 -39 -5
right_child=1 17 5 37 15 6 10 9 -10 -11 11 -13 13 -15 38 31 -18 19 -20 20 -22 22 -24 34 27 28 -28 30 -30 -31 -32 -33 -34 -35 40 -37 -38 41 -40 -41 -42 -43 -44
leaf_value=-0.00051771893534097158 0.00010630704308940747 0.0017146231584997897 0.0016659526771062867 -0.001831007378120347 0.00074164011542045239 -0.0081863386551294295 -0.00094745386488693433 9.0025662385225547e-05 0.0011583285854433476 0.001842860137626721 -0.003858329708224818 0.0019446535086452925 -0.0014515756966401116 -0.00046116745859542239 -0.001231246721887083 0.0012198272870073278 -0.00024582376109935259 0.0041325372039616951 -0.0053143570913329989 0.0023673496178929594 -0.0035396154103648648 -0.0034026114229556946 0.00088506560188193273 0.00046428315212243407 -0.0012166527030592368 0.0038517614063977518 0.001067215879222567 -7.4991572945225891e-05 -0.00025374567357842848 0.00031271902298922141 -0.00095391296447650366 0.006188144717845059 0.00054021956815949697 -0.0018057004198893337 0.001348084912936481 0.0055478974686254436 -0.0017325158514241077 -0.0035917356541113211 0.001088832166672821 0.0015819016607994277 0.0036916966205969206 -0.0017620146217453539 -0.0010127234719701408
leaf_weight=530 1555 27 34 318 353 29 919 4535 35 164 90 33 710 1479 43 26 6546 36 28 41 48 25 2737 570 183 29 1666 1025 1456 2471 887 26 544 25 73 32 39 75 301 163 41 68 385
leaf_count=530 1555 27 34 318 353 29 919 4535 35 164 90 33 710 1479 43 26 6546 36 28 41 48 25 2737 570 183 29 1666 1025 1456 2471 887 26 544 25 73 32 39 75 301 163 41 68 385
internal_value=0 0.000326321 -0.000251259 -0.000576018 -0.000337728 -0.00013638 -0.000182116 0.000107838 -0.003076 0.000151202 -0.000364121 -0.00230143 -0.000518908 -0.000782406 0.0012414 0.001122 -0.0003322 0.000763613 -0.00186378 0.000813237 -0.00103494 0.000888539 0.000846256 0.000198595 0.000141569 0.000358168 0.000603319 -8.16703e-05 -0.00017357 0.000207265 -0.000482734 0.00370402 1.81456e-05 0.000786647 0.000795367 0.00354813 0.000589279 -0.00160917 0.000798821 0.000712813 0.00219097 -0.00272167 -0.00138287
internal_weight=0 13125 17275 4514 3668 12761 12351 4763 64 4699 7588 123 3263 2189 410 405 7465 2967 55 2912 114 2798 2762 10158 9272 4706 3221 4566 1485 2654 1912 52 1074 66 886 66 772 846 344 733 114 143 703
internal_count=30400 13125 17275 4514 3668 12761 12351 4763 64 4699 7588 123 3263 2189 410 405 7465 2967 55 2912 114 2798 2762 10158 9272 4706 3221 4566 1485 2654 1912 52 1074 66 886 66 772 846 344 733 114 143 703
is_linear=0
shrinkage=0.25


Tree=22
num_leaves=43
num_cat=0
split_feature=0 0 28 3 15 50 45 1 11 19 39 51 1 60 17 49 3 43 22 52 11 40 57 55 42 17 1 45 1 6 1 6 2 6 0 25 41 1 3 29 0 1
split_gain=0.0241176 0.00843333 0.00874717 0.0109979 0.00866477 0.00689515 0.00621355 0.00538863 0.00528816 0.00538259 0.00507803 0.00515987 0.0059418 0.012587 0.00519821 0.0050535 0.00480526 0.00812427 0.00731887 0.00685341 0.00995294 0.00479672 0.0046799 0.00466243 0.00426812 0.00381851 0.00315515 0.00287862 0.00281311 0.00271956 0.00237668 0.00210008 0.00203711 0.0019231 0.00219104 0.00185766 0.00179051 0.00144425 0.000950566 0.000781987 0.000646927 0.000640417
threshold=12.694186200554817 12.077846043300607 -0.0024069960902444467 2.0476435932893007 -0.8868275235445563 -1.4160284695393617 -0.11412085479956312 0.44362614662541361 -0.74076028901449364 -4.8593710015397411 -1.0196661579587512 1.3866813285277886 2.3026531742221175 -0.49259218969519142 -0.19542566338894876 0.13847803345339751 -0.1201052781145487 -0.81226333079174717 -2.111845509076677 0.37948215888109188 1.0000000180025095e-35 -1.5597718905075091 2.2039627135275115 0.86823625548694106 2.5683802609399229 -0.97253645551008872 2.3026531742221175 -0.083051428359445831 -0.407866406086074 -0.067766320292118529 0.71648714494679699 1.2735048121397765 0.33305742617820394 -0.023658749419918697 12.463964442308562 0.15996853712506434 -0.21875503222839093 -0.90582115744141989 0.0079398462527456842 -0.57534410218522458 12.348403936342917 -0.81605577936619811
decision_type=2 2 2 2 2 2 2 2 2 2 2 2 2 2 2 2 2 2 2 2 2 2 2 2 2 2 2 2 2 2 2 2 2 2 2 2 2 2 2 2 2 2
left_child=1 2 4 6 29 28 22 -8 23 38 27 12 24 -14 31 -7 17 25 -19 21 -21 -18 -4 36 -12 -11 -16 33 -6 -1 37 -13 -31 40 -35 -32 39 -29 -10 -2 -3 -41
right_child=8 10 3 -5 5 15 7 -9 9 16 11 14 13 -15 26 -17 19 18 -20 20 -22 -23 -24 -25 -26 -27 -28 30 -30 32 35 -33 -34 34 -36 -37 -38 -39 -40 41 -42 -43
